37 100
from 0.015505093 -0.5332492 -0.10447107 -0.39320827 -0.42141575 -1.0185043 0.57520735 0.01618915 0.45113152 -0.30739686 -0.108021535 0.8583214 0.3607688 0.57555974 0.32390824 -0.0010339486 0.12189573 -0.34713775 0.0478488 0.020922456 0.5374889 -0.25079823 0.03455488 -0.2896908 0.082165465 -0.26209787 -0.29298627 0.10048102 -0.40088233 -0.58791554 -0.23644653 0.08597256 0.13909414 0.091907375 0.037863083 -0.107398145 0.33223343 0.06958196 0.10491669 0.041109584 -0.012485874 0.5262417 0.18553396 0.2495718 0.37340355 0.1339233 -0.26406342 0.033689056 -0.038628716 0.06602931 0.16200662 0.38371757 0.26578802 -0.084576875 0.37560168 0.57964337 -0.20897828 -0.06764743 -0.07458603 0.37027147 0.42351827 -0.52020776 -0.1616768 -0.30988285 -0.014579589 -0.15977006 0.4882234 0.20177603 0.22674832 0.20440097 -0.361785 -0.16496703 0.07711241 0.0026243988 -0.51005685 0.22350232 0.22730845 -0.008913947 0.16200513 0.3976309 -0.017511163 0.28010237 0.07032928 0.046794396 0.05335267 0.17626454 -0.12965104 -0.07125451 0.09423097 0.117591046 0.071158715 0.050433405 -0.0030268675 -0.065345846 0.0062697995 0.49955553 -0.26231393 0.06962994 -0.15404357 0.122698806
using -0.27044246 -0.51635 -0.55465096 -0.2968934 -0.46360278 -0.12961589 -0.1964263 0.3591609 0.8108789 -0.3116195 0.39038372 1.0786567 1.0773085 0.3138418 0.81224453 0.3368463 0.37533882 0.24834786 0.060833946 0.18519041 0.017616695 0.23468767 -0.031242682 -0.5590014 0.21055363 -0.46233216 -0.6237205 -0.3384126 -0.21903093 -0.73557395 -0.105660036 -0.45409665 -0.27138403 0.46227536 -0.15294398 0.26279157 0.28770384 0.4109877 0.3408286 0.28729114 0.26078156 0.32718995 0.5085983 0.3936448 0.3488533 -0.1397926 -0.19315831 -0.26184455 -0.09080581 0.11658086 0.1516053 -0.12406963 0.14439563 0.3977691 0.10894714 0.09467247 0.2802376 -0.082570255 -0.41562724 0.43436718 -0.0061955443 -0.2546313 -0.6502457 -0.35221133 -0.1319882 0.17101601 0.19233467 0.4988906 0.30407876 -0.08376301 -0.4926984 -0.09897078 -0.021842219 -0.40302533 -0.388958 0.29277536 0.33402497 0.1785101 0.19986656 0.5239898 0.14664945 0.30895832 0.42929557 0.053284775 0.13163862 -0.009611791 0.17055447 -0.12497735 -0.2258152 0.19043387 0.0697328 0.0723654 0.031119084 -0.01139174 0.039406314 0.008095797 0.27656373 -0.014014821 -0.5642089 0.20342673
<sep> -0.3340766 -0.30169335 -0.5194544 -0.10460414 0.06198599 -0.1166618 0.35214412 0.085363805 0.25683275 -0.59561676 0.52131295 0.6367384 0.7710141 0.33778277 -0.26751512 0.104560256 -0.25016245 0.19511382 0.075414546 -0.17686105 -0.13139014 -0.034389168 -0.018653875 -0.21527979 0.37896705 -0.5683226 -0.0046061035 -0.51716465 -0.22236024 0.05440895 -0.06400986 0.011593984 -0.05670693 0.13590235 -0.17557234 0.2525715 0.07680619 0.4631708 0.13853143 -0.15861183 0.32753447 0.24938855 0.5934747 0.03741872 -0.008006742 -0.034714997 0.04472852 -0.069191635 -0.047470044 0.19977196 -0.041495673 0.084397845 0.4642561 -0.14771223 0.1608596 -0.017107723 -0.028485296 0.06644266 -0.15213612 0.38260734 -0.12021281 -0.5043335 -0.45260796 0.00734437 0.07238013 0.53367877 0.17097901 0.40917623 -0.008112964 -0.05446566 -0.46532762 0.358846 -0.54053307 -0.06662293 -0.034580223 0.14593662 0.021120673 0.37644324 0.10647606 -0.0025771353 0.14373043 0.14592299 0.32772735 -0.04792411 0.02122288 -0.04254774 -0.0016775571 -0.17582044 0.07229402 0.016464854 -0.09118213 -0.051117957 0.027755858 0.0019482065 -0.025530767 0.1387797 0.0016215239 -0.038976368 -0.1426414 0.348973
this 0.175784 -0.099077515 -0.4402172 -0.35133985 -0.24507403 -0.46544942 0.30080375 0.10268099 0.11470552 -0.25341973 -0.021772476 0.70169926 0.7891047 0.49953932 0.3807708 -0.4965439 0.47110483 0.482817 0.12325878 0.16428491 0.362231 0.0034003267 -0.14040953 -0.10626563 0.3010102 0.2557111 -0.15493849 -0.63910425 -0.43895295 -0.13116278 0.004461596 -0.07732011 0.044365108 0.13776682 -0.47320706 0.04289012 0.43085137 0.49489242 0.15872012 0.07990727 -0.0019828486 0.039123382 0.44863462 0.2845688 0.2075863 0.39744082 -0.26951006 -0.33422244 -0.09318265 -0.09087494 0.18142644 -0.053585615 0.35213628 0.24178992 0.012598706 0.21086596 -0.14261016 -0.08054053 0.06497421 0.23813179 -0.08312082 -0.026293991 -0.016772913 -0.03793443 -0.32502073 -0.18956661 -0.36208236 0.2835759 0.09209166 0.2734408 0.11784174 -0.05263215 -0.7491582 -0.330299 0.07212884 -0.055589374 0.29107255 0.4773893 0.3457088 0.016402775 0.011449968 0.12240446 0.20775339 0.03709217 0.30872574 -0.09804908 0.04348288 -0.047399316 0.09632002 -0.04292153 -0.06151327 0.22147582 0.16770497 0.069390155 -0.0023588284 0.3362694 -0.23587435 -0.19514349 -0.122566864 0.30326548
is -0.02443399 -0.45227697 -0.5051866 0.12989064 -0.46933404 -0.21873966 0.30681956 0.5336544 0.4753062 -0.26753676 -0.062756136 0.52728045 0.6482844 -0.19391547 0.88843775 -0.20596212 0.14441445 -0.0087072225 -0.048760403 0.06348312 0.03497523 -0.19692968 -0.4085331 -0.5120679 0.31935355 -0.058436632 -0.38135982 -0.5101945 0.0037901301 -0.36330375 0.101305835 0.01141717 0.33096555 0.60062736 -0.5310176 -0.20730539 0.06409605 0.37270293 -0.071553186 0.2103935 -0.022962254 0.33693147 0.5511143 -0.15474498 0.39586508 0.035277117 -0.21797803 0.015662884 -0.14676867 -0.02029274 0.040870994 0.14580925 0.39206225 -0.0019740383 -0.03239314 0.115477465 -0.028583251 -0.17577109 -0.41956723 0.29185313 0.20390362 -0.24606235 -0.44625068 0.43592808 -0.5480205 0.07108724 0.41328007 0.42521498 -0.0941439 0.44940785 -0.003607441 -0.1337743 -0.48019475 -0.17118035 0.08596931 0.0053170845 0.17984208 0.3246604 0.033256955 0.09602981 -0.113968484 0.13545279 0.12696716 -0.33410555 0.40816996 0.14045285 0.053281687 -0.14050569 0.10126687 -0.01671539 -0.015602098 0.009346984 -0.05978777 0.05988882 -0.061699472 0.12621598 -0.119646214 -0.31389454 -0.46775058 0.44237223
a -0.6005815 0.043286793 -0.23710987 -0.14942873 -0.6186726 -0.39258918 0.43351483 0.089161284 0.040220853 -0.12071616 0.043215904 0.9042274 0.35548225 0.19413729 0.34312084 0.67173046 0.31538227 0.6072648 -0.29248273 0.46917775 0.35552177 0.25018656 0.26917663 0.16862617 0.3558089 -0.4570025 -0.11718545 -0.05337687 -0.17312665 -0.38730466 -0.93094385 0.42000863 0.12977366 0.46165252 -0.40234613 -0.46673334 0.38480356 -0.093420565 0.29513967 0.080064714 0.43828887 0.4715984 0.73378074 -0.06888056 0.44545373 -0.08598671 -0.116170235 0.12429073 0.09609402 -0.018218834 0.7163361 -0.062387533 0.20641027 -0.10430099 0.4902543 0.6972845 -0.3803453 0.22221926 -0.22718157 0.040013693 -0.4449072 -0.46735388 -0.3833212 -0.0476183 -0.6971691 -0.73348606 0.5471249 -0.020759955 0.5199661 -0.047417674 -0.7007321 -0.2684048 -0.42421734 0.08496368 -0.75528544 0.36294797 0.3150415 0.03485794 0.053442474 0.3331956 0.7017971 -0.049836047 0.17054662 -0.31210005 0.45003814 0.03790935 -0.056988575 0.06662821 -0.084612206 -0.23759232 -0.1246946 -0.060033157 -0.4859799 0.2829724 0.1329236 -0.11517457 0.07318582 -0.20829476 -0.07866333 -0.22670417
of -0.16436762 -0.3008908 0.017078415 0.12410648 -0.6516062 0.11388112 -0.07618639 0.27735958 0.60575116 0.006406884 0.328245 0.76437813 0.93425465 0.29900438 0.56998706 0.11952362 0.12649184 0.13521588 -0.13221352 0.15772201 0.16062874 0.6557503 0.4246871 -0.10094543 0.84125113 -0.114993334 -0.7064007 -0.27175152 0.4325062 -0.62816954 -0.34850124 0.0012846033 0.4724556 0.34902003 -0.25007796 0.1794245 -0.11953609 0.1801119 0.7690277 0.06869012 0.05521718 0.23231386 0.40430224 -0.026356919 0.19013873 -0.11392663 -0.20992804 -0.19144598 0.1021708 -0.052116584 0.16090164 0.39251333 0.13691886 -0.377832 0.5653465 -0.13160913 0.5271197 0.08690363 -1.0479391 0.26890552 -0.34828892 -0.2069395 -0.23503381 -0.52516705 -0.8346874 -0.037588853 0.020829888 0.32529384 0.61443335 -0.12822627 -0.2680429 -0.15408526 -0.08235706 -0.18630506 -0.686478 0.253735 0.67239344 0.4614702 -0.20122778 0.5373867 0.27075034 0.03244047 -0.1208591 -0.06474242 0.33661428 -0.13652192 0.26620924 0.1828279 -0.4754863 -0.11422733 0.21576934 0.11916676 -0.13308457 0.22208247 0.24012497 0.051641643 0.2128426 0.19880846 -0.15329356 -0.121211186
and -0.46690136 -0.13256603 -0.31570995 -0.0360789 -0.34234938 -0.16974747 0.101013064 0.33544394 0.11650077 -0.2980063 -0.13061447 0.5345244 0.7466319 0.005519995 -0.056957066 -0.05037428 0.15748592 0.3196608 -0.22777893 0.38562623 0.017160343 0.446322 0.44899598 0.07607675 0.17403297 0.10362943 -0.28481707 -0.095747456 0.004019826 -0.19198182 -0.16002053 0.65609515 -0.051303644 0.13880023 -0.36468065 0.1740369 0.0059443843 0.35780966 0.20975572 -0.34799764 0.20756517 0.44126457 0.46125874 -0.17837927 0.35349616 0.21686354 0.038069367 -0.09689357 0.12319631 -0.045536153 0.23657423 0.12604192 0.3608295 -0.19541167 0.5224719 0.06099476 0.21379471 -0.17997067 -0.2334071 0.5379705 -0.03374172 -0.23491651 -0.8143728 -0.032212194 -0.20384659 -0.023543056 0.30629244 0.054003365 0.25812072 -0.50427836 -0.09639767 -0.16085574 -0.64157546 0.11854327 -0.4268341 -0.12492758 0.19951122 0.34495556 -0.075020514 0.14577924 0.13633804 -0.22242694 0.35414204 -0.16016577 0.3755092 -0.1416565 0.16225281 -0.21012408 -0.0906074 0.06729234 0.09564201 -0.2840992 -0.036819797 0.23624292 -0.27954215 -0.26597634 -0.06929026 -0.08451219 -0.05273973 -0.11998644
the -0.46911106 0.36923563 -0.103767864 -0.23492166 -0.07678747 -0.060903456 0.60129434 0.4483969 0.18080533 -0.16755156 -0.019160809 0.8085415 0.76184416 0.49576977 0.41356978 0.44782484 -0.07684114 0.36387017 0.27031446 0.14824128 0.49917722 0.4763531 0.25318605 0.30274156 0.2417423 -0.009720182 -0.26948112 -0.108281605 -0.2801872 -0.32338908 -0.108034514 0.05966101 -0.40353745 -0.103247456 0.05193518 -0.30466777 0.21398282 0.42151248 0.23114197 -0.23741394 0.5779012 -0.2928718 0.21901193 0.20995435 0.28696042 0.19022684 -0.2734686 -0.15585798 -0.041283157 -0.2321894 0.5749733 -0.26694635 0.0175044 0.073467456 0.3915528 0.6240418 -0.27933708 -0.48782614 -0.25723845 0.5563048 -0.55140066 -0.40201065 -0.698182 -0.5559605 0.083032794 -0.61617136 0.20017837 0.18625474 0.25057045 -0.18189672 -0.62743706 0.02462875 -0.45428324 -0.42173868 -0.040062744 -0.05748651 0.46084878 0.37718803 0.28535038 0.40768474 0.39886189 -0.06460961 0.37297028 0.16616382 0.050337836 0.047515392 0.07286702 -0.24928427 -0.17882869 0.2941817 -0.6222139 0.2570663 0.28206936 0.21150146 -0.2055794 -0.36557022 0.41251275 0.09994699 -0.047050588 0.1962259
are -0.2796768 -0.06800326 -0.31530806 0.19580124 -0.4069712 -0.26275492 0.038789302 0.38240474 0.2417526 -0.24284896 -0.10876199 0.4601852 0.38828382 -0.27720574 0.5620906 0.34999385 0.1349288 0.014320433 -0.030489892 0.19267067 -0.017145822 0.047022127 0.22398995 -0.42322692 0.5663276 -0.16824423 -0.24034445 0.1519999 0.31347165 -0.48606104 -0.18052801 0.2124018 0.2714205 -0.05783363 0.22853561 -0.188661 0.19998573 0.640199 0.35533243 -0.2512126 0.32002994 0.2288051 0.2548571 -0.24049471 0.5549086 0.108808324 -0.081629574 0.16781566 0.22611135 -0.10589906 0.13726194 -0.035977345 0.016652906 -0.65648955 0.6289814 0.20587498 -0.20112933 -0.64583147 -0.83297706 0.8303159 -0.0083701555 -0.081862174 -0.7171624 0.027512755 -0.07342377 -0.032845527 0.4692657 0.4604912 0.5058442 -0.17149837 -0.18844613 -0.06076295 -0.46535465 0.16851701 -0.19281198 -0.011982435 0.24949013 -0.045428786 -0.39416727 0.47041714 0.11857639 -0.11060146 0.07728015 -0.13946718 0.039697178 0.015754003 -0.024157427 -0.43347052 -0.3147565 0.34504044 -0.08024839 0.16301651 0.15731937 0.3532582 -0.31319502 -0.16539882 0.059746597 -0.31288028 -0.1179351 0.03221842
in -0.75203437 0.008183393 -0.24661565 0.09686598 -0.5026448 -0.10318967 0.3720444 0.08005219 0.15567271 0.06989176 -0.47923958 0.15741453 -0.15629308 0.21538277 -0.35838208 0.47083917 -0.46428832 -0.18155931 -0.26113188 0.047769975 0.8702501 0.19717802 0.524512 -0.25926813 0.53490674 -0.588791 -0.4302968 -0.45839378 0.09443318 -0.5843007 -0.3469008 0.33957326 0.108180895 0.21004912 -0.07079739 0.081708565 0.0625212 0.026675444 0.0535766 0.20728298 0.76041573 -0.2842487 -0.08885609 -0.28743732 0.46855006 0.698026 -0.17896205 0.28008467 -0.2350181 0.4772946 0.35793713 -0.38992748 -0.14692724 -0.19959939 -0.030350309 0.65920717 -0.30881852 -0.32068357 -0.23194821 0.31286427 -0.5008273 -0.13376585 -0.2504186 -0.0038834368 -0.25092706 0.37267375 0.2756748 0.310413 -0.022665704 0.26524645 0.042145345 -0.2411992 -0.447454 0.13154809 0.023610253 0.08194516 0.25864965 0.28860188 -0.114484265 0.022468394 0.55352926 -0.1155204 -0.09134434 -0.049245004 0.37275767 -0.3804046 -0.08600983 -0.26348394 -0.061439555 -0.48545593 0.05780837 0.077400334 0.08028518 -0.07904738 -0.120439164 0.033307325 0.10797761 -0.12772751 0.10143032 -0.004026014
for -0.39811206 -0.48826906 -0.1594 0.08961301 -0.8597232 0.16711716 0.30067068 0.3892073 0.116255805 -0.038513023 0.18616132 0.3010966 0.41683775 0.28251788 0.073077455 0.12912633 -0.002329075 -0.32640845 -0.41473576 -0.023091577 0.20042112 0.42922425 0.20544718 -0.36679816 0.46275213 -0.40501353 -0.37468913 -0.37441877 -0.20660813 -0.58992565 -0.083320156 0.037503984 0.17710333 0.24397594 -0.07944207 0.17842491 -0.04672317 -0.03666649 0.27051002 0.14100054 0.38264853 -0.0051931725 -0.3379074 -0.090288736 0.3326616 0.13163583 -0.10628553 -0.26687616 -0.11700295 0.27588615 -0.004239552 0.1769158 -0.08629943 -0.46821 0.27741796 0.3863449 0.3526565 -0.035271417 -0.28852203 0.5926208 -0.059984256 -0.73754823 -0.441082 0.5372488 -0.61596334 0.13943526 0.5039961 0.3915413 -0.15001167 0.5207972 0.04010693 0.22632228 -0.1107229 -0.2358843 0.24314035 0.039443813 0.09484507 0.22166371 0.045461595 0.014301965 0.336289 0.4035295 0.09561562 -0.22916287 0.4684431 -0.091307886 -0.024433061 0.062063985 -0.098002344 -0.35913065 -0.053123813 0.28651622 0.24877484 -0.274584 0.09516046 -0.0124645345 0.4586822 0.2868905 -0.35433045 0.13631475
to -0.46932948 0.013413337 -0.605638 -0.05302056 -0.32708684 0.2522446 0.07347572 0.18455774 0.06338625 -0.16072689 0.41725707 -0.009374937 0.22102252 0.29657218 -0.4190536 0.30620354 -0.46183035 -0.1540627 -0.070699684 0.20575093 0.045374196 0.16866532 0.36612496 -0.20055285 0.47262123 -0.33538064 -0.11664591 -0.751917 0.042587634 -0.25868136 -0.23673931 0.2534213 -0.049988624 0.12636398 -0.27089423 0.31220347 -0.1299101 0.22887991 0.09114203 -0.028660843 0.38771647 -0.54334205 0.24989875 -0.067651294 0.3068691 0.31046823 -0.14319207 0.23618798 -0.13520354 0.44023788 -0.06478732 -0.06769192 -0.025078498 -0.13857137 0.3084379 0.19403726 -0.37570035 0.3431857 -0.12695336 0.35044646 0.12371117 -0.43047228 -0.22864835 0.11651519 -0.33489245 -0.07596133 0.3263432 0.36975586 -0.05021085 0.20087074 -0.15748377 -0.1277003 -0.18926503 0.04423933 -0.025936225 -0.094984934 0.15253596 0.18325657 -0.05274535 0.03391227 0.45744243 -0.20108092 0.32572132 -0.044452205 0.26438522 -0.20035572 -0.108885676 -0.26292518 0.010594851 -0.2321868 -0.27628645 0.21403348 -0.0004741784 -0.08742803 0.073308595 -0.2749556 0.19208223 -0.09333715 -0.0709321 0.021752374
be -0.6919569 -0.2249295 -0.5217512 -0.2486489 -0.1491488 -0.34821564 0.07627126 0.35345316 0.1392828 0.17520297 -0.18159297 0.48277205 0.32046637 -0.067536175 0.051046457 0.03159488 -0.29218423 -0.013124462 -0.16650991 0.054210085 0.54681194 0.035246845 0.36503574 0.27237165 0.30062282 -0.4752489 -0.19143821 -0.7339935 -0.390866 -0.17335102 -0.26820216 0.30389908 0.10862851 0.1809856 -0.13032112 0.018097019 -0.07412358 0.29285482 0.13437252 -0.13094653 0.16292167 -0.17901473 0.44064277 0.13536632 -0.05743756 0.57867616 -0.46421346 0.10491113 0.084678635 -0.02778084 0.3934593 0.01681757 -0.2710315 -0.20166825 0.24427505 0.2115105 0.15752898 0.27294314 0.016294943 0.2904616 -0.43127996 -0.298718 -0.006111985 -0.12694018 -0.50602055 0.3910615 0.38740152 0.27278662 0.22488533 0.27853692 -0.33647227 0.17891458 -0.122835316 0.012684955 0.06257421 0.18084331 0.2226479 0.22048983 0.093834534 0.07626198 0.13148722 -0.1105704 0.28400898 0.07459561 0.28424925 -0.3356984 0.2688871 -0.13873997 -0.2369383 0.061174076 0.13028872 0.32247618 -0.0675278 -0.03687166 0.25308773 -0.28176507 0.2552758 -0.077514485 0.042815205 0.34325922
by -0.020887468 0.1651874 -0.2965216 0.36731306 -0.46269926 0.051532704 0.3409413 0.13394985 0.08539905 0.23539847 -0.3578717 -0.025708845 0.24773158 -0.02756552 0.21767665 0.09721959 -0.20283733 -0.32122552 -0.09414761 0.0140325725 0.3150392 0.080845416 -0.073039554 -0.2918283 0.45361233 -0.10244458 -0.12676466 -0.4558148 0.16699 -0.37653935 0.029338589 0.23620906 0.11819555 0.35004765 -0.15825143 0.0289236 0.037405517 0.32263204 0.17926818 -0.07912855 0.12782735 -0.14462562 0.053996377 0.021580521 -0.109820426 0.26040775 -0.144873 0.13532278 -0.10222985 0.08476228 -0.12785895 -0.3250418 -0.31652883 -0.6020666 0.30051753 -0.1816561 -0.22909263 -0.09625261 -0.5984305 0.28880095 -0.061709955 -0.059931558 0.20954625 0.68386817 -0.7604981 0.02259901 0.062171195 0.052884776 -0.36229074 0.4604066 -0.09026235 0.013197116 -0.22004974 -0.1298102 -0.016979983 0.02034395 0.038316566 0.030036522 -0.018890357 0.09816386 0.026484255 0.0018978331 0.047736313 -0.3944838 0.42639223 -0.2316623 -0.08343485 -0.32202187 -0.031292126 -0.09154835 -0.07818115 -0.029424781 -0.2570582 -0.33280313 0.27817103 -0.012511084 0.20740645 -0.31589568 -0.30674377 0.3260439
with -0.41514233 -0.09816952 0.16847856 0.1743985 -0.47656092 -0.17001906 0.53748924 0.24491651 0.110673636 0.17638712 -0.31957892 0.5977814 0.61427975 0.20629287 0.09024686 0.5585888 -0.5623521 -0.5191482 -0.040997073 0.15960239 0.64516944 -0.14762206 0.088572256 -0.15587065 0.38267705 -0.34473923 0.27365863 0.031775843 -0.0065036854 -0.07766107 -0.21910256 0.18760487 -0.08565935 0.011048278 -0.10021864 -0.30497712 0.36401203 0.46012974 -0.025311405 0.008119378 0.55195695 -0.16973737 -0.03603862 -0.23402908 0.32175103 0.28792453 -0.27322564 -0.09225455 -0.06374369 -0.008680879 0.52971965 -0.12404321 -0.30107635 0.12947471 0.38700074 0.10667609 -0.27689096 -0.43081 0.008007437 -0.145959 0.15037243 -0.51026213 -0.47586286 -0.16354564 -0.18953525 -0.40371394 0.5442876 0.2041801 0.030946635 -0.12775512 0.15167643 -0.5092185 -0.3660796 -0.0067734723 -0.10578458 0.03154384 -0.19831759 -0.14349529 0.34628943 -0.054795414 0.26393008 -0.09357281 0.14229459 -0.105641805 0.07022778 -0.03235488 -0.16744708 -0.3194447 0.21980195 -0.10216055 -0.1933831 0.14859127 -0.07512794 0.10328501 -0.10690256 0.082956664 0.054714814 0.14486392 -0.17046802 0.06501696
as -0.39948317 -0.013246637 0.01308363 -0.32717782 -0.48281586 0.123718865 -0.0025046596 0.24667227 0.57153666 0.16042104 0.011854024 -0.07075974 0.46650338 0.5804101 -0.1251592 0.23423609 0.4029073 -0.3080981 -0.6467495 0.30476204 0.048022892 0.2767145 -0.05771382 -0.3648941 0.63820416 -0.034328774 -0.34291232 0.036601245 0.38218603 -0.47148958 0.05924952 0.03407323 0.20922664 0.20730849 -0.008780633 -0.08210811 -0.5238015 0.03948752 0.64818925 -0.33242232 0.15986744 -0.010611025 -0.26891485 -0.18168136 0.18387817 -0.035231803 0.23135029 -0.09712118 -0.5074462 0.08728136 0.1446288 0.74893427 0.17560941 -0.58143103 0.7923088 0.10304207 0.39366525 0.0040452816 -0.44179946 0.14300588 -0.08042382 -0.06792371 -0.49518543 -0.463845 -0.12502173 0.10701997 -0.055553213 0.30847874 0.6816351 0.07017333 -0.14590715 0.03712044 -0.36895567 -0.58609784 -0.12972713 -0.029694209 0.6423792 0.17616491 -0.41818 0.5871435 0.047453698 0.026416417 -0.1355189 -0.11849207 0.08220345 -0.06642202 0.42730394 0.019603906 -0.4230363 0.2139384 0.057668224 0.13801451 0.12153946 0.133772 0.056200206 -0.0411478 -0.25659937 -0.11769656 0.109920055 -0.12749688
an 0.044929598 0.27833304 -0.5709283 0.13581085 -0.2265352 -0.19677654 0.21097924 0.36205697 0.10209515 -0.1939782 0.5154209 0.41840568 0.47993654 0.09677522 -0.118838616 0.26650786 -0.5150283 -0.28547823 0.04719782 0.12364033 -0.30851814 0.14632386 0.1757222 -0.17318672 0.45331126 -0.07563128 -0.051371038 0.011511271 -0.060097113 -0.16631384 -0.14220852 0.040505636 0.16357367 -0.016325317 -0.10603462 0.13597222 0.16279036 0.2735034 0.0036866618 -0.08284242 -0.057784393 -0.2809112 0.032548115 -0.1198706 0.251701 -0.015094013 -0.06024859 -0.24310198 -0.041279636 0.13991474 -0.26648593 0.14940311 0.07404901 -0.10069572 0.31367928 -0.03744165 -0.22315274 -0.22936852 0.046968073 -0.05958285 -0.42542008 -0.4020001 -0.5919748 -0.011884973 -0.03486948 -0.3268781 0.18794337 0.3576154 0.16696948 -0.36133897 -0.07708998 -0.23018593 -0.5640274 -0.033509016 0.07385233 0.13126747 0.27733308 -0.12419427 0.25240898 -0.06529035 0.09050384 -0.08842803 -0.041063193 0.05496275 0.04430467 -0.2357105 0.07459916 -0.35822338 0.12002809 -0.12263512 -0.12514351 0.024688125 -0.006648121 0.14422797 -0.24353321 -0.18914981 -0.020551182 0.037949014 -0.117451556 0.10036795
two -0.09992524 -0.24553408 -0.53759533 -0.26802644 -0.03158739 -0.043637995 0.4876531 0.51240736 0.37722495 -0.19420671 0.320151 -0.29336494 0.25403073 0.10741349 -0.008388954 -0.37186092 -0.042108044 0.03641699 -0.033554103 0.1365816 0.556974 0.17342858 -0.062641874 0.14253639 0.18151928 -0.34665233 -0.15464027 0.100166276 0.01060213 -0.10400324 -0.11363285 0.28642777 0.13416784 0.016343039 0.07152286 0.30446586 -0.27242526 0.13402705 0.048656352 -0.27969843 0.05867176 -0.038714793 0.19425169 0.13053288 -0.030800195 0.00085177936 -0.05211943 -0.19083461 -0.089210995 0.15391107 -0.031158304 0.3168774 -0.067292884 0.1797333 0.4518978 -0.37142107 0.30759236 -0.018718474 -0.08630655 0.19586511 -0.42411786 0.20729855 -0.2213883 -0.1025377 -0.14579885 -0.006232448 0.8684552 0.5731916 0.29098856 -0.2659286 -0.30998644 -0.28435048 -0.45737666 -0.20174207 0.045276914 0.10690784 0.32721657 -0.20899294 0.008225372 0.15862945 0.15674618 0.05464151 0.1382718 0.065516405 -0.11573359 -0.38320705 0.33206245 -0.19408366 0.025651636 0.10455144 -0.24916342 0.45456833 0.22226879 0.12316897 -0.08733189 0.13943423 -0.063948795 0.024995986 0.032665957 -0.09675003
on 0.18182293 0.044450443 -0.32683897 0.20349891 0.12037233 -0.03624745 0.20851506 0.44688746 0.36679378 -0.23319209 0.09352489 0.236798 0.6887321 0.13999103 0.30484754 0.10231699 -0.050002664 -0.4794179 -0.11242451 0.09238376 0.042026497 -0.17067604 -0.13499425 -0.4995712 0.24840313 0.0045199962 0.19688433 0.15025626 0.31358 -0.28981945 -0.21317095 0.029003302 0.091204226 -0.102495 -0.0002893668 0.048825603 0.025003958 0.5410838 0.35539985 -0.24014536 0.14924316 -0.053647332 -0.1385067 0.038224984 -0.15704799 0.106842875 -0.057324607 -0.3920427 -0.18401085 0.18343098 -0.021085124 0.10486907 -0.30006778 -0.67673546 0.52245086 -0.11620152 -0.034049593 -0.43275055 -0.20004505 0.13138655 0.016780667 -0.16027424 -0.6380251 0.19924445 -0.45304316 -0.25530976 0.038558174 0.41110757 0.3941914 -0.35360086 0.1376127 -0.05294609 -0.5515261 -0.039452836 -0.047550637 -0.053531505 -0.04671506 -0.12881419 -0.3126599 0.4858462 0.1395508 -0.08043175 -0.064782515 0.18515845 -0.07757384 -9.843599e-05 0.096857324 -0.38290125 -0.056573767 0.10483966 -0.0928542 0.07786368 0.024856186 0.217597 -0.1331722 0.052723687 -0.04370161 0.024268957 0.09782074 -0.20754963
time -0.6323076 -0.24813142 0.09242323 -0.109657966 -0.75331926 -0.33469817 0.10591687 0.20111641 0.0149050895 -0.20363241 -0.59466344 0.64314663 0.10792416 0.17415486 -0.109709084 0.103316605 0.26441315 0.13774107 0.1324963 0.31004798 0.019548459 -0.006834779 -0.06336378 0.09802106 0.34807944 -0.031237332 -0.025313519 0.24468939 -0.23781027 -0.08582652 0.013943569 0.09679457 -0.03179586 0.11376199 0.10649969 0.048973404 0.08985017 0.052476984 -0.055028938 0.013303886 0.023929702 0.57183534 0.21660712 0.2741143 0.41972038 0.03335356 -0.20307921 0.11717835 -0.057891693 -0.13292861 0.36945033 0.18564934 -0.015366065 0.11068786 0.5133206 0.14941661 -0.044667296 -0.06565014 0.025597472 0.003427688 0.17710286 -0.5249368 -0.13362487 -0.070576094 -0.079510346 0.18652588 -0.11227757 0.06849973 -0.080465175 0.1225598 0.091614336 0.018990386 0.11000225 -0.023891628 -0.09093323 -0.010391683 0.21214327 0.09012667 0.14726236 0.2262274 0.110888675 -0.005279872 -0.043238085 -0.004357623 -0.015579234 -0.024225065 -0.060432676 -0.01803257 -0.037055053 -0.042656004 0.001879026 -0.0054555354 -0.036879864 -0.005316541 -0.0028813467 -0.17564096 0.075532585 -0.0024103757 0.023788542 -0.13133025
it -0.60348153 -0.5908599 -0.2829306 -0.1426977 -0.8206886 -0.044858344 -0.35396326 -0.09822953 0.46486068 -0.21175662 0.117048204 0.010405224 0.5769974 0.74146056 -0.0071666376 0.10664529 0.21792558 0.27618495 0.18365078 0.43228585 0.15094054 -0.34021267 -0.20146559 0.5234107 0.17548588 -0.17095259 -0.5004319 -0.2479638 0.17442246 -0.29400256 0.12919414 0.18735622 0.13486603 0.10529878 0.24255425 0.13256048 0.03278652 0.007494122 0.15500548 0.09919985 0.30628935 0.41741654 0.6104319 0.36488584 0.3609737 -0.27830586 -0.029553358 -0.034571506 -0.33747792 -0.0026398986 0.42967024 0.31386143 0.16912085 0.20890982 0.4606465 0.040100757 0.37907508 0.2023938 -0.34325403 0.17862982 -0.18657912 -0.18430315 -0.46189925 -0.39879513 -0.096302725 0.07687954 -0.1487377 -0.22795027 0.121498555 0.13582282 -0.048264712 0.2668274 0.11007847 -0.24671829 0.15765943 0.10937447 0.028890336 0.09183518 0.27570176 0.14588755 0.08740367 0.32674283 0.2243264 -0.20625639 0.19398667 -0.08907274 -0.1538602 -0.17908393 -0.025954822 -0.14638369 0.022785023 0.024361113 0.037392456 -0.027204882 -0.032380015 -0.07001043 -0.0074300636 0.0978215 0.0065745125 -0.14843158
our -0.47044787 0.17687008 -0.70182794 -0.027191987 -0.19357978 0.120583475 -0.017995846 0.025690995 0.20790514 -0.284696 -0.054325227 0.28990054 0.5412756 0.059328128 -0.2902328 0.012518153 0.2762773 0.4152052 -0.032569695 0.13774633 0.3443733 -0.16399536 0.34666204 0.03178941 0.07189367 -0.22581464 -0.0018992346 -0.05515973 -0.10588043 0.07858041 0.12491822 0.031172242 0.18026485 0.085620955 -0.049024355 -0.0018526264 -0.09199993 0.10791123 0.10245557 -0.11401937 0.48248973 0.26608878 0.66963375 0.021369833 0.024817107 -0.18702447 0.26944512 -0.16278619 -0.13560574 0.23213065 0.53426194 -0.17117399 0.49836677 0.07042173 0.07583169 0.047545258 0.08217496 0.0064706802 -0.046044976 0.101743326 0.043713897 -0.17250638 -0.43017384 -0.007389126 0.1363232 0.111582115 -0.14863497 0.06858343 0.07396678 0.03207879 -0.2157635 0.1692371 -0.0905131 0.043926727 -0.013895396 0.16806208 0.06267923 0.22185013 0.071835354 -0.044734713 0.09007289 0.052320715 0.11354242 -0.024227556 0.070291236 -0.18409342 -0.05151614 -0.19945332 -0.002352846 -0.039436493 0.065992385 -0.030536722 0.019784665 -0.028288245 0.018880585 -0.087713964 0.078510806 -0.05591359 -0.020155406 -0.066368684
at 0.0801863 -0.18279535 -0.8055296 -0.45788938 -0.24197818 0.115468115 0.13526241 0.17944342 0.026010714 -0.41497886 -0.07381106 0.45085093 0.38977793 0.1357842 0.0536873 0.26193264 0.08964214 0.14358081 0.1940633 0.1501143 0.14254542 -0.39079934 0.14099194 0.109137416 -0.22694995 0.32833245 -0.14402126 -0.12496571 -0.07098583 -0.2435506 -0.020025764 0.16380773 0.1936952 0.1146873 0.02754971 -0.008442936 0.35449213 0.3460566 0.1424545 -0.14849752 -0.0027630124 -0.068748035 0.4805964 0.27254784 0.31524384 0.45064417 -0.22716214 -0.55940247 -0.23241122 0.15673696 -0.07736139 -0.03945836 0.5961872 0.29778987 0.09390876 0.003895279 0.059226803 -0.071793176 -0.05529705 0.3101599 0.11754815 -0.3995264 -0.4659165 -0.21637003 -0.11922572 0.21108066 0.01897826 0.16122817 0.08510145 -0.238304 0.11318315 0.38924477 0.008942269 0.0486648 0.05735483 -0.036398713 -0.036784127 0.2303992 0.18827721 -0.06700375 0.0736271 0.13770203 0.03256411 -0.045887038 0.26317716 -0.114137046 -0.004061371 -0.073938176 0.011337346 -0.14267401 -0.04115655 -0.07366304 -0.008968232 -0.038685683 0.0724016 -0.095896766 0.023269495 -0.08029032 -0.0581394 0.05608489
we -0.02801547 -0.27255222 -0.42588493 0.21676642 -0.3570791 -0.03857809 -0.115197994 0.31568944 0.53025764 -0.39376503 -0.36168286 0.17247552 0.56949836 -0.050963026 0.067013554 -0.054936253 0.100266926 0.34084916 -0.29960123 0.2952369 -0.03159641 -0.024712034 0.5885337 0.09899477 -0.19417523 0.044648897 -0.19233504 0.03578579 0.19667117 -0.3506488 -0.056183826 0.058195505 0.16961147 -0.032858454 0.10368327 -0.031812456 -0.030311828 0.08821312 0.24582627 -0.18293549 -0.0016662885 0.39601097 0.58590406 -0.25326666 0.5632037 -0.000725563 -0.20105502 -0.21944241 -0.43819875 0.27443564 0.06489387 0.21289554 0.41129 -0.012331396 0.21306947 -0.0245492 0.032890685 -0.20712304 -0.3835861 0.40580225 0.14762025 -0.22542092 -0.3184061 0.015491013 -0.11024071 0.05044115 -0.14537558 0.14455485 0.22010379 -0.22553924 0.013931282 -0.041433435 -0.21900302 -0.04581732 0.10957627 0.05737412 0.16309114 0.32838783 0.1477278 -0.0017570743 -0.09437618 -0.020213243 -0.0978874 -0.36164874 0.36020634 0.079708666 0.002488313 -0.118812814 0.22829536 -0.25087115 -0.0144938445 0.019237785 -0.014836839 -0.07991698 0.07414978 -0.042165328 0.046754997 -0.054406423 -0.029039886 0.03149471
model -0.6404706 0.04630814 -0.23554584 0.033568658 -0.40132847 -1.1024339 0.514031 -0.0021063476 0.6777429 -0.1770641 -0.39243135 0.2875343 -0.092285074 0.34341913 0.28396738 0.6806241 -0.10644385 0.21564992 -0.107311845 0.42641452 -0.0055505335 0.09614393 0.19631207 -0.08960531 0.1589313 0.09366384 -0.0042705312 -0.092545114 -0.10494337 0.029955396 0.14610367 0.064464 0.2679115 0.12099567 0.14586422 -0.48658973 -0.05321562 -0.24833617 0.1350734 -0.3575013 -0.0144443475 0.4798067 0.14943735 0.30543378 0.40378857 -0.4949717 -0.08847139 -0.25728434 0.10613343 -0.416037 0.3668663 -0.0035461902 0.22529489 0.054494876 0.308288 0.89562994 -0.3500684 0.17670095 -0.3737089 0.3952958 0.13270618 -0.4754355 -0.19538008 -0.14163302 -0.17165448 -0.58140117 0.0024838524 -0.28598943 0.18037455 -0.27877632 -0.42462397 -0.118879855 -0.19007708 -0.063142985 -0.44214684 0.3120606 0.09522843 -0.0039477446 0.078238286 0.255271 0.53782797 -0.2087358 0.05191195 -0.15414613 0.2693356 -0.054702368 -0.26456165 -0.12911934 -0.04714541 -0.22689122 -0.29579657 -0.08089024 -0.38964307 0.23379405 -0.083021544 -0.28679886 0.046745636 -0.18286757 -0.053090468 -0.2792139
when 0.021277916 -0.4507644 -0.087598965 0.5650412 -0.4968215 -0.2550497 -0.22872147 0.34394687 0.817062 -0.21133718 0.25559953 -0.31433293 -0.012896934 1.0837173 0.3745082 0.15979558 0.32749358 0.083899856 -0.41735584 0.33414868 0.08257053 -0.42442566 -0.09518511 0.42247292 -0.23071146 0.083018035 0.05520435 0.084370956 -0.05579635 0.019387241 -0.0822691 0.260516 0.21908519 -0.19582978 0.26551273 -0.064216845 -0.106666304 0.025158439 0.14464216 -0.2876168 0.17819752 0.2525596 0.33559614 0.30611908 0.19958617 -0.12362153 -0.10819483 0.050165165 -0.01316276 -0.47511527 -0.09578928 0.22196245 0.05011694 -0.37283778 0.20151468 0.16292053 0.030731607 -0.34735435 -0.46859577 0.19513603 -0.22355545 -0.14010458 -0.37990493 -0.49224186 -0.18314111 -0.08721655 -0.29484755 -0.08400578 0.380443 -0.2729968 -0.18047625 -0.27905938 -0.05324234 -0.0302417 -0.58664966 0.14476795 0.49782306 0.2563124 -0.2596531 0.42092603 0.11354549 0.1439071 -0.12624013 -0.31896153 0.25475731 -0.14572959 -0.040708527 -0.122837536 -0.29511487 -0.19270442 0.037805244 -0.0035381422 -0.088225536 0.13347888 -0.03892524 0.008885301 -0.040797018 0.14812587 0.030797113 -0.3452209
that 0.13298886 -0.2958738 -0.04875231 0.16670373 -0.44227895 0.028811026 0.5486755 0.08833808 0.2438414 -0.48725665 0.339691 -0.048558325 0.5927504 0.29430053 -0.2840146 0.46183234 0.0053331587 0.24510753 -0.16506556 0.4581939 0.4145287 -0.15280947 0.2777433 -0.05836069 0.07244396 -0.012143193 -0.077663094 0.12404172 -0.12574379 0.113576435 0.14768188 0.371908 0.13077475 -0.03362309 0.20338403 0.09732313 -0.08715471 -0.16595139 0.12775122 -0.29702094 0.23201887 0.20460473 0.332369 0.062100172 -0.06495837 0.13952886 -0.09322235 -0.27089006 0.04477438 -0.2466155 0.011842543 0.271834 -0.021214178 -0.13756964 0.3220335 0.2708538 -0.32724684 0.022228723 -0.16699824 0.46461046 -0.21731369 -0.14098905 -0.48441523 -0.10358391 0.14639449 -0.06611985 -0.08211937 -0.13749894 0.13618916 -0.33443278 -0.057946764 -0.12474839 -0.3053372 -0.059597783 -0.15911378 0.016948814 0.13781169 0.1721192 -0.038970202 0.15352222 0.17561643 -0.12887347 0.067787476 -0.096650325 0.30468732 -0.022915063 -0.05910141 -0.29302043 -0.034164596 0.019607756 0.057722032 -0.16650829 -0.15922312 0.15811267 -0.25929922 0.0045584366 -0.12012189 -0.045944262 -0.06028401 -0.13364746
magnetic -0.4112923 0.09248313 0.1566766 -0.13052164 -0.32726038 -0.34242234 -0.15041995 -0.2560692 0.05551346 -0.18960956 0.03470825 0.14394364 0.49103698 0.31775698 -0.47257423 0.4203189 -0.49529934 0.01980792 0.0017476423 0.36549875 0.18641646 -0.53355956 0.14937784 -0.024955513 -0.13796458 0.0008725066 -0.014486375 0.03195475 -0.05593255 0.18534991 0.41757053 -0.209917 -0.20862198 -0.007237752 0.22968836 -0.33112016 0.027347876 -0.11838086 -0.17855471 -0.067655906 -0.26657486 -0.08157843 0.36780185 0.3354643 0.08849418 -0.41504982 -0.20134601 -0.26956904 -0.29330942 0.06440278 0.24746218 -0.38182425 -0.25287688 0.050497297 0.23688376 0.4090342 -0.38382828 0.11916741 0.023569731 0.05433615 0.0050765397 -0.24920695 -0.5135716 -0.24996082 -0.0012737201 -0.376756 0.05728562 -0.10150207 -0.08330095 -0.23408733 -0.29562202 -0.20306124 -0.31710702 -0.32624796 0.024978658 0.013485359 0.1639093 0.13112985 0.14856932 0.30395433 0.26746622 -0.1991649 0.031505454 0.0169301 0.12295658 -0.03319806 -0.16529475 -0.34060082 -0.23176742 0.06313096 -0.515722 0.056378603 -0.0030701812 0.011892797 -0.12238368 -0.31402752 0.013912687 -0.016106164 -0.18210249 0.14810681
have -0.25688186 -0.057220165 0.2346417 0.46833518 -0.50412124 -0.16712435 0.36365554 0.70887154 0.25637156 -0.047516465 -0.25468606 0.025040235 1.0381458 0.39774323 -0.4013194 0.23848097 0.020626014 -0.032222603 -0.49206752 0.6063861 0.065226406 -0.0068532783 0.4236969 0.15214606 -0.11674776 -0.09863613 -0.021585781 -0.055719968 -0.27813458 0.13373573 0.101169206 0.031682562 0.07694814 -0.383333 0.513114 -0.18376775 -0.013320538 0.0029567282 0.11138883 -0.10464632 0.15890498 0.46496224 0.4168195 0.14168753 0.19380762 -0.12955965 0.038724307 -0.14466944 0.0055081914 0.017434226 0.280691 0.1360732 -0.10862885 -0.29247275 0.3996922 0.32679576 -0.16980638 -0.23672998 -0.09186922 0.085473485 0.0799572 -0.20093577 -0.4999302 -0.106278114 -0.09895713 -0.20364602 0.007678894 0.15914392 0.27393016 -0.3558097 -0.12281469 -0.0521877 -0.23628198 0.009491153 -0.11910421 0.03889216 0.14536294 -0.06749252 -0.34081402 0.41318756 0.14603634 -0.09001611 -0.11974867 -0.21879427 0.19449186 -0.007998917 -0.11668788 -0.30009454 -0.12541874 0.05112605 -0.09199164 0.10844851 0.04217855 0.21928932 -0.20516437 -0.1739097 0.034409717 -0.12588146 -0.102333225 0.029624194
between -0.4444574 -0.13168316 -0.13772215 0.14650798 -0.3578264 -0.6264488 0.5601043 0.41890717 0.37451923 -0.12899607 0.14315055 0.3012364 0.123127826 0.11467338 0.3770752 0.3876311 -0.29372698 -0.24373718 -0.31711948 0.21165161 0.5898988 -0.15291788 0.4373254 -0.3102688 0.36606988 -0.11626025 -0.26532844 -0.1571266 -0.08649706 -0.32658604 0.19613586 0.1116518 0.08486767 0.02364882 0.1950968 -0.37294286 0.06594355 -0.23055801 0.056427255 -0.116764605 0.51600504 0.0025927525 0.14028724 -0.24277918 0.256724 0.41005647 -0.099121146 -0.01183806 -0.117728174 0.22951059 0.20161113 0.19259208 0.12329901 0.049568877 0.19511148 0.28439787 -0.42796972 0.019718576 -0.24243468 0.010182897 0.044499617 -0.2112708 -0.26049477 -0.073811606 -0.10575373 -0.5352498 0.15191624 0.0075518 0.35260934 -0.24434754 -0.6061428 -0.020654157 -0.25333115 0.095844425 -0.48856992 0.28642976 0.09004848 0.17795672 -0.07521979 0.17512888 0.29752526 -0.09751386 -0.004842546 -0.081533864 0.17004718 -0.36096847 0.0588814 -0.15281509 0.06081649 -0.18228047 -0.16431685 0.13188499 0.06383887 0.029477231 -0.14017294 -0.09565733 -0.031372014 -0.13923013 0.04157747 -0.112527885
show -0.22152078 -0.21694311 -0.18920392 0.03583241 -0.3546127 -0.32718763 -0.09749287 0.26401225 0.3836123 -0.25911924 0.088708945 0.13673788 0.13100168 0.21406169 0.39028972 0.28521594 -0.38282183 -0.5003172 0.11771188 -0.17065524 0.0047788313 -0.31709018 -0.3090017 -0.02795453 0.12142806 -0.19551244 -0.050546627 -0.12091639 -0.32247972 -0.22155051 0.11574098 0.23080398 0.15626246 -0.018970432 0.29450762 0.08323213 -0.3306331 -0.1279598 0.48762524 -0.24290171 0.19147329 0.15221442 0.006911942 -0.1941703 0.1614549 0.010951119 0.16748779 -0.06320508 -0.33086857 0.24648261 0.11465556 0.39721555 0.3551975 -0.13224894 0.30369973 -0.1273184 -0.28360307 -0.33949676 -0.23927562 0.0012162203 0.115855604 0.050832924 -0.0736731 -0.11028122 -0.015880737 -0.33052215 0.13771945 0.30846798 -0.03979048 -0.03954964 -0.16412516 -0.14958887 0.02593164 0.17526084 -0.26150182 0.13137013 0.2210654 0.15957162 -0.060979288 0.28343734 0.11309821 0.1367793 0.0311308 -0.14274035 0.22959858 -0.07362242 -0.21361999 -0.052136462 0.24596177 -0.2127048 -0.08812585 0.07497808 0.16993971 -0.03546813 -0.09946087 -0.058458265 0.10516994 0.02979361 -0.10636163 0.045634504
which -0.08768512 -0.020345038 -0.4310588 0.17126983 -0.31198627 -0.33396393 0.6277464 -0.13750273 0.16401769 -0.35029504 -0.23993178 0.2259286 0.28342324 -0.021540938 0.08284577 0.27953732 -0.7328714 0.016836131 -0.06051836 0.08365255 0.19637732 -0.049252883 0.20976017 -0.16903211 0.44695616 -0.22489013 -0.02806415 -0.35678545 -0.04877821 -0.011205522 0.04762653 0.09598625 0.21886244 -0.010568542 0.09933863 0.03704914 -0.26511934 0.016476668 0.11809985 -0.29819188 0.08104292 -0.14412768 0.17880069 -0.12871647 0.24348824 -0.25498274 0.028219193 -0.015299898 -0.1639662 0.28179914 0.097655885 0.21304058 0.28325075 -0.07613994 0.16213195 0.045188665 -0.10799434 -0.07085782 -0.16916153 0.34792256 0.15792352 -0.28272003 -0.04684509 0.022352545 -0.03389787 -0.24715377 0.5576592 -0.14881511 0.023994105 -0.11010612 -0.29281586 0.03190885 -0.22480784 0.117555335 -0.34322724 0.10059666 0.07521833 0.26079234 -0.034090053 0.15201773 0.16970924 -0.05185076 0.18125217 -0.08714943 0.22065075 -0.2136072 -0.033185385 -0.10627138 0.046520226 -0.20994702 -0.16068321 0.17139716 -0.048143335 -0.017569765 -0.06498885 -0.2529676 0.05934929 -0.12375356 0.01026379 -0.05955693
its -0.31358698 -0.0012869731 -0.2632172 -0.12652981 -0.2616143 -0.15898156 0.1373259 -0.109911315 0.20498256 -0.22683774 0.067323394 0.23021953 0.23107085 0.33511695 -0.011731524 -0.2300071 -0.27447113 0.37338692 0.02278895 -0.25012785 0.7803847 -0.50598735 -0.011791262 0.019835843 -0.11652513 -0.046973094 0.0101289535 -0.3815927 -0.24715775 0.053099968 0.14016028 0.121383764 0.16689031 0.12865277 0.118176796 -0.3951711 0.09409577 0.22183624 0.03492384 -0.29354474 0.1691407 0.009214011 0.28587762 0.10026855 0.13671575 0.12709856 0.018526917 -0.07883336 0.06975011 0.16458115 0.15519333 0.053212103 0.11011445 0.08152301 0.33744484 0.5478929 -0.44855526 -0.41230854 -0.25592643 0.006640247 -0.15094008 0.04193098 0.055554204 -0.11518507 0.04579624 -0.0087095685 -0.031323783 -0.5510478 -0.12918854 0.18515956 -0.26549268 0.3659468 -0.18847713 -0.16195999 -0.13196373 0.2937062 0.12017632 0.20382544 0.094690226 0.13457091 0.23416625 -0.12360899 0.023563722 -0.024656303 0.17656045 -0.26927507 0.14141844 -0.033474047 -0.015086055 -0.1606848 -0.048154067 0.13111043 -0.07089096 -0.028694313 0.0888371 -0.12432217 0.24435018 -0.09999339 -0.0106179565 0.038296234
data 0.0052420436 -0.011541255 -0.12473523 0.4038964 -0.32197973 0.1689744 0.36667618 0.25818554 0.5285425 -0.15213904 0.046529155 0.18233041 0.26527432 0.010039442 -0.009424871 0.08398883 -0.11106203 0.0011041743 0.37475196 -0.5180872 0.25186536 -0.2405601 0.16514507 -0.05695096 -0.010326487 -0.068131685 -0.16035172 -0.39830825 -0.13379967 -0.018411439 0.0071524275 0.048784778 0.09698993 -0.16406482 0.20569155 -0.14853837 0.031948857 0.24390009 0.42844918 -0.4789886 0.12349477 -0.010736753 -0.10146935 -0.11254428 0.120583065 0.09166106 -0.009629664 -0.23374958 -0.2670242 0.11988312 -0.0035042693 0.12311334 0.052105132 -0.41445255 0.49078774 0.0069300057 -0.36897078 -0.122533634 -0.3450452 0.04823747 -0.11587645 -0.10857961 -0.13267139 -0.07863196 -0.0058072656 -0.1080237 0.12461989 0.0025396917 -0.31966355 0.34226754 -0.29718396 -0.10326306 -0.07783186 0.10724597 -0.24967884 0.012785209 -0.028455386 0.0735124 -0.20567305 0.2477856 -0.015257631 -0.07958257 0.010980503 -0.33664718 0.25871268 -0.12346577 0.022963822 0.04382516 0.21866745 -0.3087553 -0.035631683 0.060377464 -0.084671 -0.057456627 0.088599496 -0.08644492 -0.007267848 -0.16133457 -0.06772071 -0.017417599
these -0.36586317 0.4703333 0.3377372 -0.015741894 -0.014079229 0.02346769 0.07517623 0.3424671 -0.07690353 0.05037049 -0.36341748 0.41321775 0.32485318 0.23594774 0.10960585 0.5994598 -0.30135113 -0.051171955 -0.29658616 0.35471743 0.19051081 0.052878905 0.1428966 -0.10173269 0.0599611 0.16566405 0.047692873 -0.08495601 0.1411427 0.115647435 0.09669363 -0.14496191 -0.02003908 -0.0569698 -0.099306114 -0.18124618 -0.04511375 -0.10387754 0.1229626 -0.10385663 0.086853385 0.133857 -0.0068832813 -0.088488504 0.1377563 0.46730837 -0.37668574 -0.088097185 -0.13917866 0.113925524 0.29305393 -0.06583054 -0.17949346 -0.01698044 0.26203135 0.02502624 -0.009583098 -0.009157142 -0.011672345 -0.029231891 0.27588978 -0.4959189 -0.42142946 -0.041629016 -0.07057934 -0.57708037 0.44073632 0.33630347 0.21097201 -0.10065509 -0.20296435 -0.1917603 0.044877212 0.04412417 -0.16295673 0.31035596 -0.05458398 0.020553445 0.100933045 0.19425938 0.21596397 -0.14297724 0.08320367 -0.023324765 0.068566084 0.08998637 -0.26928574 -0.36660522 0.10551652 -0.034393746 -0.2792794 0.1918998 0.036212828 0.056427162 -0.11029665 0.07487846 -0.08018642 -0.019487007 -0.036976088 0.05037195
can 0.043155048 -0.4509303 0.09199523 0.73958087 -0.38600925 -0.03760835 -0.20173414 0.076160476 0.16508305 -0.090869024 -0.055086885 -0.20309821 0.2551916 0.5547998 -0.09631655 0.070874885 -0.23450382 -0.44445452 -0.27301085 -0.07353867 0.10713605 0.1057099 0.091401495 -0.07947149 -0.0119753145 0.07197326 0.52275175 0.23769979 -0.27563462 0.45095623 0.016451718 0.13254948 0.00886839 -0.21697187 0.034033656 -0.15007856 -0.03702914 -0.08512457 -0.093687706 -0.1659787 0.17269695 -0.09541831 -0.08177476 0.2811732 0.07631475 -0.059666507 0.11740406 -0.27068782 -0.62087595 0.0022242537 0.21613604 0.197292 -0.010781629 0.012121421 0.4804964 -0.05293172 0.08308773 0.06968593 -0.19851656 -0.10550078 -0.009987189 0.24926808 -0.2697589 -0.6123995 0.13441363 -0.16291617 -0.33320466 0.23009138 0.5999816 -0.32945663 -0.2281929 -0.35782027 -0.2862895 0.032161906 -0.2977914 0.06813328 0.45182955 0.11760374 -0.28249493 0.5487512 0.0074297055 0.082243845 -0.06170015 -0.2133945 0.057225704 -0.004628449 0.29131773 -0.085920386 -0.41367385 0.13860881 -0.0004316232 -0.1067381 0.09563785 0.2943997 -0.128316 -0.0051170676 -0.087909944 -0.116032004 -0.026219591 -0.038650535
