37 100
from 0.019393094 0.037366834 0.368152 0.14969255 -0.20514672 0.02074048 0.03651345 -0.5582244 -0.22203544 0.36677048 -0.23378092 -0.03753908 0.52352744 0.23918356 -0.14819665 -0.39733452 0.07452061 -0.46595943 -0.039662443 0.40333423 0.12780157 0.2544655 -0.18494105 0.2692999 0.15716656 -0.3033065 0.15181977 0.6097193 0.36095127 0.039532848 0.3556362 -0.28037208 0.53383374 -0.0024630227 -0.43375108 0.0754043 0.41776907 0.10419554 0.24736686 -0.10659218 -0.15273859 -0.0028473025 -0.09750307 0.07096835 0.037107136 0.4796236 0.09828501 0.1941897 0.20239747 0.46750522 -0.15077923 -0.035442658 0.45644814 0.10938143 0.13571027 -0.011630415 -0.54679006 0.154827 -0.25307423 -0.51781595 0.052847944 0.28100967 0.31102604 0.20130792 -0.25946334 -0.123072006 -0.27009454 -0.36663014 -0.17184222 -0.1509958 0.36395916 -0.09888313 -0.0736961 -0.095929004 0.1156551 -0.08959583 0.14568771 -0.18765604 0.070766814 0.26660633 0.78727174 -0.10627358 0.27782363 -0.071929865 -0.09938598 0.16041245 0.11632703 1.0467868 0.46912003 -0.2051999 -0.03181649 0.52161646 0.31940335 0.3434527 0.6375057 0.068271846 0.25225314 -0.30558392 0.18381092 0.16489036
using -0.07009783 -0.06349823 0.13580476 0.16919228 0.03115869 -0.16656786 0.3544824 -0.18025444 -0.06715372 0.18598512 0.3204709 -0.4908243 0.25184748 0.0134565625 -0.31882703 -0.37971407 0.44185024 -0.052530546 0.36894026 0.06519381 -0.7482665 0.5188379 0.18371575 0.6537939 0.12902357 -0.047738686 -0.20562881 0.21543738 0.21807756 -0.09227232 -0.058511548 -0.16796635 -0.38099596 -0.28429544 0.06721844 0.42232847 -0.24235834 0.32804784 -0.12845066 -0.11710468 -0.25144672 0.17989907 0.00570484 0.29257488 -0.038594183 -0.50579494 0.07086073 0.23656687 0.13450056 0.16173026 -0.11141224 -0.05317166 -0.029772913 0.029926257 0.11849772 0.015256832 -0.07859011 -0.45673606 -0.12217637 -0.06963122 0.5482664 -0.37997192 0.12828493 -0.33008277 -0.13388449 -0.3480321 0.3472478 -0.31606725 0.25445965 -0.01860757 -0.44051036 0.1820117 0.0049130297 0.11643368 0.17886521 -0.2748364 0.21655056 -0.04353239 0.13463958 0.038640704 -0.24457815 0.08321022 0.02698092 -0.12000842 0.38922176 0.22704181 -0.6771233 0.6267749 0.09394778 -0.20512955 0.21666585 -0.35858384 0.5382711 -0.15126447 -0.034620512 -0.70373774 0.6021277 0.49854615 0.90717506 0.21077816
<sep> 0.1725186 0.11564299 0.17833403 -0.1645238 -0.04386518 -0.4344509 0.13944277 -0.21446024 0.43949437 0.40265635 0.2934409 -0.4580164 0.22952305 -0.26857406 -0.6852602 -0.22772123 -0.06751793 0.031101704 0.6133136 0.2837708 0.4058703 0.561695 0.21455418 0.18108791 0.2546356 -0.15090102 -0.06552071 0.24055299 0.09001289 -0.2739124 0.009419233 0.24643745 -0.3046797 -0.38745236 0.24313314 0.20200813 0.24965887 0.3579582 -0.07624016 -0.4309341 0.22355075 -0.015669066 0.094953634 0.14800704 0.033041608 -0.24623786 0.35316244 -0.16421446 -0.056738 -0.018118145 -0.45376202 0.019163746 0.014294975 0.37399244 0.026053566 0.34736946 -0.31915024 -0.26126552 -0.3509382 0.20033446 0.058561906 0.17886727 0.22466622 -0.13884975 -0.37600052 0.395436 -0.0976103 -0.12043075 0.047525235 0.35071123 -0.15819234 0.14835213 -0.3247047 -0.48844433 0.41865346 -0.28681186 0.1369907 -0.09987113 0.16101588 0.24486405 0.05191584 0.6280022 -0.09964711 -0.10458179 0.20953012 0.33166504 -0.14960742 0.35383594 -0.7124722 -0.8407206 -0.8929833 0.010103278 0.059264 -0.01746598 -0.416594 0.7316283 0.4355654 0.557311 0.35876256 0.052641697
this 0.17767596 -0.08966813 0.08527296 0.113001965 0.020032017 -0.2776986 0.3271369 -0.19585474 0.19880116 0.06528519 0.13252904 -0.30728108 0.3135291 -0.30790904 -0.16510275 -0.38867247 0.6691872 0.021484112 0.3697931 -0.004331598 -0.30009305 0.5646867 -0.07676473 0.41996378 0.33021313 -0.03165607 0.017441034 0.32539836 0.15944703 -0.06908327 0.3663476 -0.45719624 -0.11116139 -0.04766671 0.2576388 -0.08708038 -0.1863246 0.16361262 -0.37865147 -0.36360046 -0.120297626 0.27782127 0.038721055 0.11629301 0.050581295 -0.18231006 -0.019806176 -0.15625101 0.3449895 0.62135637 -0.0004861649 -0.03354793 0.12905546 0.3018362 0.06779395 0.43740246 -0.2569983 -0.09250641 -0.12595674 0.09435987 0.051707152 -0.37552145 0.18589005 -0.451563 -0.3980822 0.0012172766 0.33545333 -0.12735185 0.09561357 0.12590382 0.12777029 0.055983454 -0.26593676 0.36729893 0.49589127 -0.26274282 0.3518573 -0.0116952555 0.2177121 0.091208726 0.27517572 -0.43437928 -0.3385642 0.2241632 0.4872727 0.34661758 -0.62336546 0.30764788 -0.15172432 0.08263633 -0.31090462 -0.071159214 0.2309205 0.093246676 -0.05419475 -0.21335751 0.6066877 -0.069576845 0.5144992 0.23581015
is 0.08871369 -0.00999818 0.27463973 0.12849873 -0.16246693 -0.040752452 0.27620444 -0.2859464 0.2419076 0.2744386 -0.10542424 -0.44203773 0.26543915 -0.400181 -0.13115796 -0.0997517 0.33234456 0.1184011 0.29467645 0.3635735 -0.02121829 0.1782617 0.40071926 0.45553705 0.28797802 -0.19548328 -0.28100613 0.49471456 0.0665026 -0.055770434 -0.03057985 -0.34987068 -0.2268932 -0.12600668 -0.4531118 -0.040182643 0.055413797 0.36011842 -0.27370042 -0.028135331 -0.03578138 0.079471156 0.16295944 0.04945315 0.10442942 -0.1760087 -0.5698841 -0.11093447 0.46354753 0.2969673 -0.16802765 -0.17566837 0.13805196 0.23916748 -0.051794134 0.15444764 -0.04968615 -0.32516092 -0.28665036 -0.409055 -0.08550112 -0.058624223 0.2509789 -0.41682047 -0.22760804 0.08784914 0.2541044 -0.12352458 -0.03162154 0.005201591 0.17814483 -0.14821993 -0.28820214 0.47166368 0.068292 -0.13674417 0.015355634 0.04794876 0.18550317 0.19958824 0.17685843 -0.11039693 -0.26083884 0.4452949 -0.13319828 0.0054586143 -0.7379306 0.4514605 -0.076738566 -0.22466412 -0.28519493 -0.5090485 0.21918932 0.2304166 0.31245446 0.24424998 0.5280768 0.55907184 0.67570406 0.38749734
a -0.29477856 0.1553323 0.33812058 0.26180398 0.32011572 0.23148704 0.17500125 -0.09582484 0.069981515 0.09134277 -0.30302417 -0.37016314 -0.11341173 -0.27137744 -0.25004414 -0.16424207 0.114684805 -0.21463732 0.14457285 0.24108063 -0.4284215 0.14350574 -0.18889408 0.11780025 0.36743277 -0.41602036 0.06454513 0.35575682 0.22891481 -0.042116232 0.14787829 -0.4318194 -0.41229105 -0.43333256 -0.2872867 0.065599106 -0.26782194 0.40889958 -0.06445909 -0.42051733 -0.15001228 -0.21886073 -0.38781717 -0.12687176 -0.049355626 -0.037193414 -0.105325215 -0.44309014 -0.081178 0.23684055 -0.6094412 0.3367793 0.0833869 0.33347106 0.42830682 0.17898437 -0.17345764 -0.24132003 -0.19157864 -0.023870884 -0.07056743 -0.17018828 0.095708884 -0.15100943 -0.21255215 0.36177796 -0.105095476 -0.20612103 0.024097428 0.15576231 -0.1829304 0.0379462 -0.3411082 -0.006153883 0.33401075 0.13231464 0.05941879 0.14266995 0.15502627 0.27349225 0.12598985 -0.060638323 -0.3704083 -0.15247211 -0.18547027 -0.22592244 0.064446695 0.28127202 0.16852428 -0.16357636 -0.30017623 0.38533238 -0.2502239 0.33229876 0.7565147 -0.109193504 0.20592985 0.045918103 0.17711231 -0.18043031
of -0.09276244 -0.12968028 0.3574365 0.27484372 -0.063688636 -0.18197703 0.1570081 -0.10706974 -0.07373742 0.107853666 0.50761473 -0.32339656 -0.081391625 -0.19937982 -0.28733525 -0.64426345 0.49852496 0.08524714 0.6159218 0.11535188 0.07591388 -0.0566992 0.29620492 0.22514863 -0.2193126 0.011074504 -0.10455055 -0.030607257 0.1300555 -0.12926768 -0.08980534 0.22006878 -0.4694347 -0.14144765 0.07737982 0.32506192 -0.38370666 -0.048684817 -0.21977223 -0.12160346 -0.6565155 0.57246035 -0.2276908 0.5444574 0.1094697 -0.8378153 0.679658 -0.29179353 0.47419265 0.2116006 -0.4840845 0.28844008 0.1187503 0.53844917 0.013376248 -0.06300984 0.083409324 -0.13840234 -0.08310324 0.031959865 0.31802833 -0.20831852 -0.16480577 -0.2779627 -0.059031796 -0.8176827 0.56288767 -0.03275365 0.49855715 0.26122013 -0.49233904 0.4440252 -0.14960626 0.30300808 0.114473335 -0.49938142 0.32738268 -0.15298282 0.15618998 0.25450346 -0.10477932 0.19459711 -0.4755746 -0.21052629 -0.014134379 0.4230734 -0.4120627 0.31124103 0.0043331063 -0.2892435 -0.7529425 0.5516388 -0.031545456 0.4673111 0.116796054 -0.041912034 0.119963534 -0.05744022 0.11821557 -0.008138297
and -0.24297413 -0.2168354 0.21386142 0.16523895 -0.3289451 -0.21359865 0.44330683 -0.14780256 0.014784724 0.29074302 0.33776638 -0.8127411 -0.020296348 -0.25727862 -0.3838409 0.18117167 0.23885763 0.18850344 0.455714 0.24575719 0.0044314945 -0.4422127 0.21436395 0.24933371 -0.43187222 -0.106622055 -0.12267834 0.15369909 0.22912762 -0.124184914 0.2033397 -0.119947344 -0.3707371 -0.23123467 0.49637687 0.24731053 -0.29693615 -0.037935425 -0.50222725 -0.23047026 0.39179263 0.045886073 -0.029059859 0.20437491 0.520941 -0.03590093 0.27627042 -0.21139188 0.36524948 0.71606314 -0.55257183 0.042379696 0.14751554 0.47074336 0.25122455 0.08730019 -0.046145268 -0.20671251 -0.16999951 0.15806079 -0.093778595 -0.24636862 -0.11640007 -0.17747839 -0.012584768 0.43532512 0.5000338 0.014264853 0.3545775 0.32487682 -0.22507761 0.13463151 -0.08828847 0.4899092 0.3933778 -0.25294274 0.54931617 -0.005434851 0.7587074 0.2492587 -0.0688099 0.2086132 -0.40944573 -0.29900843 0.56297934 0.357081 -0.39623663 0.3122228 -0.2458445 -0.64465386 -0.58697313 0.4350078 -0.001552786 0.9512426 0.3405292 0.1680583 0.33225313 0.20491172 0.19959068 0.09286263
the -0.14064454 0.1302547 0.25534627 0.23833625 0.009530393 -0.15914465 0.098422125 -0.11494113 0.07945385 0.12904653 0.26513344 -0.2565788 0.08780812 -0.44404536 -0.28741962 -0.30186394 0.62131095 -0.0022679684 0.4705268 0.20477992 -0.3091083 0.29379562 0.22338036 -0.053979415 -0.18187079 -0.079798706 0.12025802 0.28806633 0.042424142 -0.19058686 0.2559985 -0.015420066 -0.30807462 -0.034659475 0.14354557 0.434772 -0.5003166 0.048128657 -0.26620054 -0.05307912 -0.05273895 0.5726265 -0.14899284 0.4131869 0.25330633 -0.25957114 0.6864616 -0.21942687 0.57851577 0.41863883 -0.4215993 0.7459983 0.2892674 0.58684266 -0.042775135 0.07202938 -0.03595026 -0.18595742 -0.0340989 0.15595219 0.22131743 -0.25321496 0.021155363 -0.18917857 -0.16151166 -0.16186006 0.34227133 -0.27836052 0.44992405 0.5822968 -0.3383197 0.5608088 -0.059057023 0.38722098 0.16448446 -0.2962256 0.21196185 -0.0615536 0.3856327 0.2995304 -0.023013132 0.1407095 -0.1989482 -0.11107703 0.04885621 0.1050527 -0.23812692 0.2749295 -0.36464137 -0.30486235 -0.79839295 0.880306 0.088097386 0.57870483 0.22047384 -0.10907296 0.16990016 0.104488306 -0.028429823 -0.19545549
are -0.1473765 -0.2597467 0.35728866 0.21925631 0.18439984 -0.11011849 -0.017574998 -0.044289026 0.11144783 0.052589636 0.15539055 -0.004804281 -0.253692 -0.537875 -0.15296988 -0.047597177 0.25230876 0.3365112 0.43399587 0.29895252 -0.14214604 -0.06193715 0.21979712 -0.10137939 0.3408558 -0.2147975 -0.09461561 0.37528855 -0.1262462 -0.086819254 0.25336328 0.26288423 -0.53685457 -0.0746575 -0.17087471 0.14335929 -0.22297178 -0.1157155 -0.29667872 -0.37041968 0.14383876 0.40220723 0.032577977 0.31502625 0.10778493 -0.029849635 0.26042217 -0.06829912 0.4944802 0.25764695 -0.2645747 0.08399173 0.58589643 0.44851348 0.28090176 0.10170467 0.010546715 -0.32147315 -0.0101162745 0.011355711 0.06847331 -0.0076956307 -0.17787065 -0.22994815 -0.22637115 0.015875796 0.08391661 -0.014696128 0.49184838 0.24727482 -0.1388999 0.18089356 0.033991084 0.3121769 0.28403252 -0.3040707 -0.069180675 0.10470421 0.34254172 0.14816862 -0.014474517 0.113233395 -0.31546178 -0.19523628 -0.11859182 0.0068329694 -0.17202497 0.2835904 -0.38792366 -0.08735182 -0.52777743 -0.028242782 0.3517998 0.45476267 0.566885 -0.079918 0.23937947 0.35758582 -0.08534367 -0.08667841
in 0.2444806 0.23088048 -0.06812304 0.048861425 0.09949692 0.13191755 -0.21201551 -0.26676098 -0.21973306 -0.12140561 0.39672887 -0.12630682 0.33655804 0.02945172 -0.18892522 -0.20877844 0.38511622 -0.17365517 0.17972806 0.3080602 0.37441906 -0.016791632 0.050115373 0.05007402 -0.11385204 -0.06357707 -0.09910298 -0.30743468 -0.21900703 -0.3417659 0.5861303 -0.26026368 -0.15606731 -0.3823675 -0.38195014 0.30504376 -0.18130079 0.30988637 -0.030733252 -0.33948508 -0.053516537 0.3990184 -0.1370038 0.19519067 0.3666389 -0.053407997 0.11986979 -0.78809816 -0.10247262 0.3036548 -0.046315856 0.32572475 -0.21564354 0.09164838 0.117778875 0.70318335 -0.21475933 0.19819802 -0.26049596 -0.42893377 0.004061756 -0.26664168 -0.096537784 -0.2622681 -0.32807294 -0.48512438 0.05718798 -0.3871346 -0.016076509 0.59711367 -0.42496133 0.20782782 -1.0746987 -0.12189607 0.38759476 0.24255168 -0.0558312 0.212667 0.092475526 0.29400268 0.6677668 -0.22625338 0.04465316 -0.13906184 -0.14089265 0.45956147 0.005283636 1.0228502 0.42432675 -0.48164243 -0.18319707 0.80663174 0.238107 0.61670065 0.64754975 0.40625706 0.18743232 -0.18394232 0.089380674 0.21061598
for -0.097390585 0.09203261 -0.0062514646 -0.11065102 0.13215847 -0.16516621 0.17239718 -0.09645221 0.09071743 0.059833426 0.2479452 -0.37212464 0.08815376 -0.28480077 -0.0813406 -0.31588948 0.35662517 0.2477731 0.41762733 0.15695293 -0.15013713 0.0795765 -0.008866047 0.014776411 0.08580355 0.059655473 0.17888643 -0.2994841 -0.057954006 0.027395912 0.41317114 -0.14256312 0.100239575 -0.32469827 0.14182085 0.26567188 -0.3567646 0.058859017 -0.22668007 -0.099525824 -0.14533313 0.26479718 -0.0015663803 0.03109575 0.15390359 -0.4042031 0.633221 -0.23047931 0.22656688 0.13543212 0.084452875 0.060207665 0.31771275 0.13877578 -0.0046315463 0.44330752 -0.27912617 -0.058871247 -0.55722624 0.17919911 0.36538985 -0.21678706 -0.118541375 -0.2485864 -0.12766969 -0.13334654 0.21807238 -0.13823378 0.07145888 -0.050913848 -0.35788253 0.7126518 -0.37684682 0.23564781 0.0020253088 -0.46659845 0.121319845 -0.08548896 0.057267122 0.1649812 -0.31444353 0.13278548 0.08452828 0.08304819 0.24934468 0.19976412 -0.67073023 0.61843073 0.10424674 -0.21029729 -0.47161877 0.23471229 0.60239524 0.5513256 0.15529597 -0.32003963 0.32957205 0.18630157 0.20105095 0.24192558
to -0.35320306 0.40363905 -0.15408933 -0.16934468 0.30926377 0.24997126 -0.07681149 -0.13727261 -0.26437244 0.24708486 0.26067883 -0.023915563 -0.0551698 -0.43341982 -0.38131055 -0.20489122 0.3240185 0.2853809 0.4654536 0.19112298 0.35612774 0.36856693 0.04070491 0.01327376 -0.016487649 0.16200185 0.040450413 -0.08919609 -0.1390234 0.40632668 0.57492894 0.014430438 0.056939304 -0.35515782 -0.1879353 0.34706488 -0.1283072 -0.05015481 -0.6123485 -0.27988926 -0.42008 0.541004 0.13622768 0.78989184 0.13527367 0.08407064 0.37240577 0.0024335515 0.7860385 0.40120676 0.05565437 0.11199761 0.25035787 0.0020877616 -0.11002036 0.2409346 0.2545483 -0.08853108 -0.36573717 -0.10041238 0.22971039 -0.40586227 -0.13124736 -0.48922718 -0.06417145 -0.535838 -0.25108898 -0.0806103 0.8444703 0.023171237 -0.13592792 0.1807823 -0.08450656 0.8381434 0.5635903 -0.3853255 0.25316268 -0.26710302 0.09436501 0.23432672 0.4373516 0.31746995 -0.07411501 -0.32288352 0.12099614 0.8568197 -0.021326553 0.375805 -1.0109732 -0.87640357 -0.6021152 0.6222319 0.41761053 0.4857876 -0.0059558353 0.2802876 0.61431706 0.2301692 0.5190091 -0.020268483
be -0.07965409 0.04867914 -0.11129417 0.11793941 0.09247312 0.16702126 0.052997492 -0.19645864 0.07736993 0.17071447 0.2446371 -0.57152236 -0.053386018 -0.32988167 0.13658851 -0.32406253 0.5352698 0.08594811 0.41534308 -0.07276409 0.023157287 -0.14189826 -0.13810436 -0.052138656 0.20238817 0.14957692 0.108395614 -0.1043122 -0.072459504 -0.17673959 0.47847098 -0.6300513 -0.30894214 -0.3471784 0.011374257 0.37179506 -0.53457 -0.045375858 -0.30893853 0.07207121 -0.4882678 0.33737612 0.05414614 0.16487372 -0.105560325 -0.5114271 0.6440803 -0.17871219 0.15132947 0.02927834 -0.14547077 0.17802586 0.0563762 -0.010122834 -0.18914367 0.49315232 -0.8234767 -0.27678567 -0.3561867 0.060422134 0.33729407 -0.29340178 -0.058996193 -0.31647676 -0.14119476 -0.54478204 0.51623905 0.112168774 0.15056872 -0.090273246 -0.70112985 0.97693634 -0.080652654 0.11465715 -0.19525546 -0.107258864 0.043524545 -0.117875285 0.36947703 0.48293266 0.30224845 -0.29068962 -0.3474895 0.16188425 0.51167566 0.52637243 -0.8068599 0.17313832 -0.3103498 0.20196997 -0.58169097 0.60699075 0.27564946 0.61505187 0.026155272 -0.24820895 0.108514726 -0.17606679 0.14993422 0.22950678
by -0.013085423 0.009401094 -0.0452749 0.21061891 0.03248476 0.24574423 0.16830881 -0.2409776 0.11317982 -0.019942975 0.015403947 -0.4440458 -0.20121205 -0.26521534 -0.17498322 -0.024300363 0.38488695 0.45470017 0.4776624 0.28338188 0.0010529582 -0.05736858 -0.032798424 0.004509299 -0.031952716 0.20830147 0.45909593 -0.10078223 -0.10855038 -0.19777356 0.48148313 0.24293803 -0.43419483 -0.09080735 -0.21116675 0.14933673 -0.30190352 -0.1758314 -0.2576504 -0.26890537 -0.31946328 0.17906879 0.26531294 0.17450668 0.25385118 -0.13429636 0.5039676 -0.033565514 0.12051579 0.3827162 0.089577734 0.25607634 0.2556227 0.10887925 0.17187709 0.28764528 -0.02436647 -0.44617018 -0.1470231 -0.37384126 0.24431024 0.05379129 -0.30075264 -0.31915733 -0.23065276 -0.37929377 0.013000378 -0.026459754 0.0012633713 0.4204492 -0.2282787 0.65579265 0.011520703 -0.029987365 0.4600236 -0.19671835 -0.40447125 -0.14988986 0.3584164 0.11671255 0.2978482 -0.061941665 -0.2896688 0.35174808 -0.05235359 0.16183315 -0.72326016 0.36237192 -0.18572772 -0.34379384 -0.29995936 -0.012711254 0.8531334 0.7198021 0.45650256 -0.03396738 0.16240206 0.10212928 0.30793306 0.26210678
with 0.019982958 -0.19858383 0.15430997 -0.07821073 -0.16538598 0.036165647 0.05680558 -0.11463058 -0.011462271 0.073521145 -0.032452438 -0.24503705 -0.052066144 -0.11061125 -0.22492506 -0.52097905 -0.1293529 -0.3594292 -0.11407066 0.19941686 -0.4611394 0.47315544 0.104012616 0.4443273 0.3683696 -0.075859025 0.021875637 0.19626613 0.21102776 -0.14036249 0.22917043 -0.125644 -0.16390416 -0.29445365 -0.1855072 0.12618911 -0.26798603 -0.039397623 -0.18345402 -0.22188221 -0.16301179 0.26361632 -0.22493911 0.053731073 0.41836843 -0.22448963 0.24429606 -0.35116604 0.09358327 0.5900508 0.10687949 0.1365159 0.17923093 0.18432918 -0.14858326 0.18233576 0.0708755 -0.1434324 -0.14657098 -0.050699502 0.04581181 -0.12336136 -0.17605363 -0.22013101 -0.042819053 -0.15301147 0.33958945 -0.027488148 0.14354052 0.53577816 -0.061679285 0.03533198 -0.46676776 -0.20101547 0.16356725 0.1241484 -0.22814591 -0.4574464 -0.3757946 -0.13887875 0.06771276 -0.44700778 -0.2312109 -0.43200746 0.0056110895 -0.038122654 -0.07499056 0.3108037 0.18933506 -0.43619278 0.0077006496 0.40005574 0.34564978 0.37075335 0.098926514 -0.14905551 0.2562268 0.48880437 0.45880768 0.0031186352
as -0.17891806 0.107452765 -0.14541891 0.09645683 0.12619387 -0.1552082 0.17549677 -0.120710395 0.008705503 0.09829595 0.08180293 -0.16468227 0.026773395 0.046872005 -0.20906878 -0.060625408 0.14378853 0.030697338 0.2994954 -0.14254707 -0.1759446 0.052971024 0.47545606 0.51027435 -0.1332294 -0.31845325 0.12829845 -0.03625012 0.31145388 -0.033716027 0.21626098 0.09233978 -0.49198014 -0.5119478 0.21256714 0.25450248 -0.17157891 -0.20464052 -0.29197744 -0.096938215 0.111240335 -0.025138982 0.13083461 -0.09309825 -0.0508438 -0.5678413 0.40065128 0.07583749 0.379118 0.094607346 -0.26522884 0.16548854 0.17327976 0.33728924 0.11243075 0.21723089 0.095937476 -0.45865345 -0.528353 0.19035846 0.45160297 -0.17438816 -0.2176934 -0.47750017 -0.05273542 0.13985452 -0.14338556 0.3115234 -0.08081385 -0.036747955 -0.17199668 0.30069494 0.054785207 0.17989226 0.13512935 0.029259922 0.19024521 -0.28194934 -0.15976779 0.10035851 -0.07812615 0.1869475 -0.31841466 -0.122246295 0.20947482 -0.10901997 -0.13696894 0.119577914 0.304543 -0.21267639 -0.10223624 -0.034360178 0.5638214 0.37771666 0.054776087 -0.15090239 -0.13586906 0.23635314 0.2788077 -0.14858684
an 0.06460963 0.04820417 -0.025962267 0.06670381 0.21512654 -0.17182615 0.21656308 -0.0830498 0.15838681 0.25836715 0.42037162 -0.46671042 -0.0921606 -0.63819426 -0.14686541 0.113975026 -0.5622213 0.10339126 0.3111993 -0.10779313 -0.06267499 -0.0030758223 0.44702977 0.32780594 -0.32509974 0.30767837 0.18303941 0.12633449 0.047252458 0.06074897 -0.3359701 0.3264092 -0.2774611 0.27271926 0.44103497 0.23455723 -0.20520128 -0.15095566 -0.17227085 -0.12422431 -0.51103574 -0.08068343 -0.053125717 0.15352735 -0.06345355 -0.5972903 0.07462818 -0.16856022 0.16849934 0.44136947 0.35597974 0.37794167 0.28680876 0.053008024 0.042367604 -0.49649495 0.48799872 -0.22790615 0.45846868 0.3946086 -0.118616246 -0.15304565 -0.14028457 0.15600711 -0.12883268 -0.675935 -0.11018544 0.0014721899 0.11718764 -0.20804766 -0.14185816 -0.043284737 -0.054430906 -0.025252357 0.3531089 0.043972023 -0.057208475 -0.24861641 -0.12703806 0.3880986 -0.12020634 -0.19970745 -0.2506154 0.27980328 0.31255633 0.6824346 -0.13337886 0.14619106 -0.6791695 -0.15476103 0.1348635 0.2845433 0.48373622 0.042819194 -0.31072682 0.12606187 0.1415036 0.25966874 -0.033174872 -0.29132345
two 0.18247652 -0.02390899 -0.056596484 0.20114402 0.12306502 -0.10687886 0.15272933 -0.066357024 0.13087757 0.05414747 0.25692672 -0.11914361 -0.018101627 -0.19171605 0.050491005 -0.16027287 0.40649265 0.11594463 0.07440642 -0.14079471 -0.41574314 0.49447918 0.35545695 0.21586318 -0.18140963 -0.041176755 0.18135785 0.081242904 0.12664355 0.095963426 0.08907741 -0.21561792 -0.21466252 -0.122985095 -0.104408585 0.1787129 -0.31869757 -0.08605477 -0.33996952 -0.02042218 -0.31537396 0.19901745 0.077030204 0.0045440155 -0.12729341 -0.42014775 0.7035504 -0.017500736 0.5619969 0.2309859 0.036723197 0.096707165 0.016935669 0.19667765 0.07670014 -0.114459984 -0.121816605 -0.13718048 -0.14108807 -0.17283227 0.013576521 -0.28481832 -0.055543885 -0.38971645 -0.21281616 -0.3073028 0.11866102 0.14186685 0.08051693 -0.094779275 -0.035682756 0.33921093 -0.13748305 0.2737864 0.026480917 0.14966288 0.015165054 -0.25518698 -0.03537329 0.020184966 0.1860385 -0.06649617 -0.2428234 0.17183013 0.17128965 0.27340248 -0.06022396 0.11268506 -0.095144674 0.053163353 -0.071547374 0.06906746 0.18961582 0.20812337 -0.038032804 -0.13607807 0.08083198 0.2764433 0.045895074 -0.0028324013
on 0.09807521 0.0956653 -0.02153675 0.17014988 -0.15042767 -0.051201317 0.10215916 -0.023614233 0.1255625 0.04448442 0.20207998 -0.1362519 -0.16401604 -0.22521053 -0.098289154 0.014748294 0.20813794 0.05709323 -0.03443041 0.23717451 -0.21577784 -0.000117388656 0.7184531 0.18447743 0.33530954 -0.08502115 -0.027664887 0.305434 0.02513639 -0.054570135 0.00242827 0.27236405 -0.39907056 -0.11489113 -0.23280787 0.036876544 -0.11213235 -0.3305542 -0.37740117 -0.16364734 -0.16961089 -0.059441876 0.004203646 0.031604588 0.27571172 -0.13135667 0.03538708 0.09291803 0.5501519 0.43913093 0.09301434 0.17539448 0.37068856 0.25083938 -0.039717473 -0.17576163 0.21642525 -0.25544918 -0.15076104 -0.1465217 -0.06102639 0.008616902 -0.35133904 -0.3999979 -0.07448325 -0.19278044 -0.21441713 0.08452199 0.15284307 0.31372648 0.24103372 0.40173283 -0.09273911 0.3681475 0.18182391 0.24296567 0.3361599 -0.4207044 0.0011632433 -0.063903674 0.17146994 0.2019752 -0.497597 0.17444257 -0.03874524 0.15220787 -0.14171676 0.28418964 -0.16610444 -0.22997524 0.034065045 0.023220256 0.60932463 0.3438206 0.11220872 -0.23895085 -0.31828317 0.54066676 -0.038188234 2.6802794e-05
time 0.101066545 0.07787594 -0.09822591 -0.015390815 0.12671725 0.27837786 -0.051503226 -0.349246 -0.24097042 0.076045275 0.096730456 -0.18881193 0.7259275 0.1376096 -0.16836214 -0.04487169 0.294383 -0.06718963 0.10110853 0.38087806 -0.16361533 0.071405984 -0.280445 0.0033195973 -0.13802747 -0.10732013 -0.031292234 0.5274721 0.16550143 -0.003946589 -0.16474342 -0.28124502 -0.18517782 -0.12385149 -0.11490105 -0.26860604 0.29390484 0.16206938 0.24297108 -0.18234716 -0.20702296 -0.3743199 -0.43525416 -0.28503966 -0.19128765 0.30979183 0.036073092 -0.19310424 0.010683476 0.08813797 0.1257763 -0.0018358494 0.044132322 -0.058705226 -0.10583631 -0.039190736 0.00068402046 -0.39663118 -0.10770507 0.15690525 -0.21197116 0.013659252 0.06462301 0.059717257 -0.029875848 -0.14049797 -0.062806174 -0.15605548 -0.08448175 0.05498402 -0.025258876 -0.065415904 -0.1746615 -0.06745568 -0.12823437 0.05426019 -0.014156942 0.106566526 0.03196051 0.03710591 0.07565167 -0.06914639 -0.25851485 -0.13065033 0.10794144 -0.06302647 0.031048916 0.60327494 0.26959452 -0.20246635 -0.121213205 0.10195183 -0.07693977 0.014410789 0.2794645 0.049467046 0.20535685 -0.3216405 0.13122648 0.08090917
it -0.14328124 0.14378288 -0.026147481 0.0053819194 0.123021275 -0.19667122 0.317994 -0.0035401678 0.058738086 0.28079554 0.12536845 -0.4400498 0.1429076 -0.0826552 -0.08105507 0.07192234 -0.060397826 0.26049444 -0.038129482 0.010353757 -0.29030293 0.36856738 0.19619966 0.5602054 0.062706575 -0.04907473 -0.14596127 0.10737408 0.10353227 0.037220664 -0.13040885 0.094157174 -0.26433423 0.08683469 -0.12966384 0.42483875 -0.29911762 0.175795 -0.07259973 -0.26711985 -0.39593032 0.46152028 -0.45308122 0.27271995 0.05662331 -0.4430385 0.2555781 0.0093563795 0.1900492 0.10552465 0.010636446 0.0413722 -0.070150584 -0.08356513 0.12223371 -0.10552457 0.20078187 0.0021532928 0.10628032 0.011746264 0.12434846 -0.14231615 0.012475934 -0.009747248 -0.15898776 -0.07530049 0.11374121 0.018043282 0.14379811 0.015644336 -0.1507303 0.18869121 -0.12955625 0.12587097 0.023247322 -0.15378535 0.047249217 -9.2780196e-05 0.06653096 0.07013524 -0.14620003 0.19052549 -0.044422723 0.059433684 0.09410613 0.23857349 -0.4697375 0.28980958 0.015208821 -0.23503561 -0.0896369 0.08586472 0.071337834 0.06547864 0.06423385 -0.5634575 0.48670107 0.22073868 0.6119853 0.116526686
our -0.21058251 0.20879371 -0.07692845 0.08926554 0.21429501 -0.0051262914 0.24462704 -0.05062913 0.12481298 0.34197745 0.04329273 -0.23481385 0.010575117 -0.3817435 -0.38375252 -0.47665858 0.009373001 0.009241059 0.024378836 -0.09002141 0.5833026 0.0774279 0.36834958 0.09474985 0.12680386 -0.1254128 -0.034893394 0.14070912 0.1527528 -0.16631368 0.27803254 -0.29032627 -0.14716406 -0.043302536 0.09318705 0.13652001 -0.09042779 0.26955536 -0.1801979 -0.37714708 0.33844444 -0.1228109 -0.15128924 0.21952072 0.52871954 0.06948911 0.28788373 -0.18610916 -0.32693705 0.3401706 -0.08682071 0.1859819 -0.034194592 -0.018024657 0.18310827 0.07476531 -0.052713446 -0.014253566 0.14194088 0.07933873 -0.022384794 -0.23845783 0.0018475489 -0.14929539 -0.12522921 0.041161604 -0.15273178 0.036864925 0.09928115 0.05333483 0.20633362 0.06096134 -0.013186786 -0.004340178 0.21681786 -0.087951764 0.0856012 -0.038167953 -0.0029176346 0.09835128 0.022549652 0.03342271 -0.060098197 0.14047636 0.14520946 0.22692312 -0.25762108 0.18283357 -0.49681604 -0.5302439 -0.35343996 -0.01772762 -0.013618039 0.22012904 0.07189739 0.46707132 0.37554517 0.26191592 0.112409115 0.22339556
at -0.0826295 0.10506645 -0.08502083 0.15930142 0.0946714 0.049113143 0.087315306 -0.27238175 0.24411702 0.1761357 0.33496603 -0.50134164 0.1269137 -0.04661414 0.15231882 -0.21506388 0.106132336 0.0661319 0.088873036 -0.05202208 0.0084399255 0.41661447 -0.00018224416 0.23132978 -0.064900555 0.09453409 -0.12843177 0.16246262 0.18213984 0.044742744 0.022258813 0.13821281 -0.03361585 -0.06719087 0.06335587 -0.05119773 -0.06064323 0.29144463 -0.37496915 -0.45458567 0.041644122 0.40858522 -0.16123275 0.19799992 0.104504675 -0.039531928 0.18929622 -0.21368821 0.23669064 0.37903458 0.1053136 -0.08246876 -0.07201905 0.06136049 0.005601683 -0.14751668 0.2364693 -0.08500797 0.03700284 0.020139024 -0.0036489319 0.018734034 0.13147452 -0.109431855 -0.12958273 -0.009679934 0.16019739 -0.0056197396 0.10913352 -0.012228458 0.020788414 0.16168949 -0.066415645 0.052481912 0.018439062 0.019313037 0.019433696 -0.02375535 0.15774524 0.13078302 -0.052764952 0.12035532 -0.13228776 0.10584312 0.11364998 0.21601304 -0.35078877 0.25073504 -0.20750391 -0.069222994 -0.15882656 0.18838257 0.028921153 0.20084931 0.011085013 -0.19360572 0.528462 -0.08284652 0.3460619 0.18143663
we -0.009898185 0.06504537 -0.04594016 0.2046198 0.07705612 0.24909985 0.36280462 -0.21830994 0.40326118 0.10197743 -0.014448863 -0.5517217 0.026405426 -0.06633604 -0.24692869 -0.0882069 -0.09296175 0.07067925 0.18061633 0.23663704 0.2912755 0.5778401 0.3713893 0.2777931 0.089174055 -0.08355637 -0.20582561 0.2338885 0.1431457 -0.10013198 -0.009790186 -0.0078008207 -0.16203664 -0.21713565 -0.02623562 -0.09052037 -0.00016430476 0.39585933 -0.42361566 -0.1096736 0.1379296 0.43330094 -0.17442688 0.042483993 -0.036005225 0.083711304 -0.04912746 -0.11661678 0.30684182 0.124534726 0.083201 0.12370671 -0.042660806 0.107284606 -0.1112405 0.041621502 0.18387489 -0.0904983 0.057716142 0.19822991 -0.05445602 -0.10165879 0.077694535 -0.18315685 -0.03175497 0.08237237 0.16140291 0.0031403238 0.103087634 0.07659292 0.084739596 0.21407951 0.0005365512 0.019593505 -0.031321164 -0.006104082 -0.062138736 0.0118192965 0.1633987 -0.0013146511 0.06273185 0.13571517 -0.15011038 0.14303543 0.11967065 -0.02584394 -0.44497693 0.2745331 -0.23627917 -0.19031984 -0.0655595 0.02577407 0.035929296 0.21774451 0.1713863 0.13966557 0.3764872 0.34743208 0.41921747 0.25478655
model 0.23890588 0.031467054 -0.0065692943 0.04518331 0.25260356 0.03854976 0.2627518 0.060470637 0.19270597 0.020935912 -0.20282471 0.15771206 -0.022526518 0.101874396 0.060771085 0.08184143 0.39063177 -0.044019468 0.2863375 0.73654455 -0.18203463 0.16753899 0.17939016 0.12652326 -0.23114276 -0.7530364 0.26946172 0.05523025 0.2850248 0.6119952 0.39901718 -0.104271546 -0.34990996 -0.15717274 0.025187556 -0.24081178 -0.46418267 -0.17998077 -0.4151002 -0.24843591 0.31741855 -0.04860369 0.13406053 0.14929238 -0.119202346 -0.23170798 0.14283903 -0.30680048 0.073252566 0.59493685 -0.10766568 0.16973802 -0.03308144 0.13813025 0.39780363 0.21901032 0.22506315 -0.12254723 0.14688894 0.12116486 -0.10984339 -0.18911512 -0.41944373 -0.25905067 0.037855476 0.19790487 0.16600826 0.15251873 0.19045557 0.17192219 -0.17241818 0.16268423 -0.08129174 0.06280894 0.29956457 -0.26152265 0.096352324 0.0052491724 0.1513185 0.37633193 0.23033074 0.09956357 -0.1688311 0.004935851 0.048785303 -0.23626477 -0.19655676 -0.16139564 -0.17553273 -0.07003851 -0.05644012 0.16048647 -0.067543425 0.19191484 0.2363018 -0.15831874 0.20871618 0.032911573 0.1681545 0.1877062
when -0.5701073 0.40200055 -0.1051982 0.20338698 0.3155046 0.042474993 -0.06446026 0.11160059 -0.018366246 -0.06258883 0.10333042 -0.031703357 0.11694429 0.06738596 -0.08065417 -0.41509166 0.25087583 0.08076819 0.072911605 0.1733458 0.4391255 -0.24656938 0.066920534 -0.15405874 -0.14716046 -0.29107213 0.05518373 0.31414765 0.49577203 -0.14743139 -0.3420713 0.32153887 -0.28810474 -0.05914977 0.165475 0.55165523 -0.29325017 -0.32602653 -0.43016717 -0.20524625 -0.5776441 0.2824475 0.19073068 0.522761 0.14310938 -0.33038026 0.25131524 0.1434375 0.2846746 0.018154405 -0.26660335 0.112990096 0.21073884 0.24155556 0.03451946 -0.24249023 0.19656114 0.022288054 0.08145518 0.07569916 0.14679484 0.05617542 -0.22233167 -0.16426706 -0.073627904 -0.26797342 0.099381395 0.20331487 0.18838534 0.12166655 0.09511612 -0.024495624 0.17436883 0.018794047 -0.024566213 -0.3434018 0.16759472 0.13303159 0.34158134 0.015124194 -0.16176198 0.1591102 -0.17966601 -0.11174076 0.08168561 0.3345462 -0.18518874 -0.049707744 -0.1393985 -0.19722514 -0.47637776 0.33903736 0.030490648 0.37015957 0.096517555 0.15132894 -0.12599069 0.16959034 -0.013605445 -0.12207654
that -0.23907307 0.5336499 -0.08554794 0.47086653 0.41950786 -0.058295168 0.2038863 0.054946553 -0.14977975 -0.052941155 -0.0074543804 -0.054908916 0.16549665 0.13534935 -0.15030473 -0.71707636 0.52364147 -0.06059688 0.7576203 0.09638501 0.12983313 -0.01995734 0.2616049 0.056744885 -0.31206584 -0.6413481 -0.4632831 0.106866024 0.24094756 -0.07356115 0.046858653 0.38058883 -0.31051224 -0.020332882 0.45423806 0.0443464 -0.7621589 -0.24263702 -0.1859747 -0.14508791 0.6764906 0.3733423 0.21733889 -0.06019275 0.047069825 -0.32100716 -0.090510204 0.008941721 0.4951758 -0.0033194092 -0.29024005 0.0015740228 0.027871292 0.15645446 -0.0021230755 0.027523216 0.46245065 0.010234015 0.110717736 0.13391379 0.025417449 -0.29244843 -0.16337672 0.12489705 0.041057456 0.004779898 0.34305772 0.12534922 0.14960031 -0.041295864 -0.23061135 -0.09548946 0.122046284 0.32529002 -0.20468065 -0.22994839 -0.06928542 0.07114079 0.3470964 0.005581835 -0.16203456 0.3691243 -0.21028425 -0.042277593 0.31944707 0.14095002 -0.53839034 -0.025319295 -0.08749686 -0.25148654 0.01301084 0.33230272 0.11647895 0.4488119 0.1598112 -0.1063368 -0.060643442 0.14006838 0.16688676 -0.29886028
magnetic -0.18467176 0.24349476 -0.17514671 0.4833904 0.3901634 -0.11612942 0.031047886 0.07352558 -0.0802397 -0.07459729 -0.1260923 0.11710158 0.13802537 -0.055963628 -0.19573072 -0.6369526 0.3680163 0.0069238697 0.35683706 0.25030288 0.02173506 -0.1676078 0.21526097 -0.3403769 -0.42684984 -0.3998878 0.6654357 0.36599398 0.48276138 -0.06847843 -0.06459467 0.09390655 -0.32467338 0.090407416 0.338418 0.29062197 -0.31849208 -0.008326186 -0.4362556 -0.26868317 0.08136562 0.1062588 -0.12582475 0.3029007 0.42146423 -0.44546324 0.48886526 0.03859775 0.30156505 0.12793057 -0.24197298 0.2895106 0.055308748 0.2956579 0.14060378 -0.23094398 0.16535552 -0.08130111 0.064396225 0.13314533 -0.054417893 0.0582638 -0.08695548 -0.19068949 -0.09637714 -0.12242789 0.053119794 -0.018218918 0.21054003 0.21043901 -0.22417717 0.119075425 0.107344724 0.014657068 -0.12726869 -0.26921594 0.38349977 0.1106787 0.34711447 0.12166046 -0.1281269 0.08631298 -0.1472501 0.02655999 0.1329271 0.08388591 -0.09872227 0.06341747 -0.292681 -0.21086101 -0.31438577 0.4176989 0.014031275 0.3195865 0.169766 -0.21577112 0.05074188 0.16425651 -0.12445073 -0.16531959
have -0.10883819 0.038641416 -0.008691584 0.5175107 0.15822883 -0.09454154 -0.08035076 0.18518403 -0.06051159 0.020902991 -0.06328833 0.07727633 0.21643741 -0.07457428 0.06862915 -0.49586868 -0.27209717 0.12109098 0.37434003 0.46881378 -0.05534759 0.09955698 0.28202137 -0.37247452 -0.17163208 -0.24239348 -0.15402997 0.4643762 0.35608175 0.40377882 0.015012208 0.05151782 -0.36535347 0.12330377 0.061466202 0.12454217 0.015511496 -0.49857885 -0.54877645 -0.22294486 0.15054257 0.02271398 0.22612752 0.3722686 0.043827426 -0.20857714 -0.04142318 0.06828893 0.28252718 0.4699868 -0.111213736 -0.11411484 0.14120722 0.3181546 0.286249 -0.11890262 0.003796043 0.09157242 0.10752499 0.13911246 0.0107072955 0.1303722 -0.3240008 -0.24456319 0.06661062 -0.07316002 -0.1108268 0.18095663 0.28776264 0.13463236 -0.1218006 -0.000524115 0.10894287 0.03556613 0.21294065 -0.16399103 -0.079613626 0.21559188 0.29264453 0.2753258 -0.087325 -0.010135364 -0.13804746 0.039676826 0.031458937 0.055380262 0.0054351385 -0.17385522 -0.35661945 -0.027435726 -0.1731987 0.06734399 0.26851296 0.28084692 0.22928567 -0.18322223 -0.12019951 0.18835168 -0.1402715 0.13804258
between 0.090284005 0.17051385 0.19724983 0.23268722 0.41138032 0.43537405 -0.15207632 0.07783858 -0.041522704 -0.178693 0.2422253 0.020816099 0.5494974 0.25184357 -0.19021027 -0.37791476 0.13443236 0.24836941 0.22119217 0.26474854 0.09796595 0.13841026 -0.055134226 0.06700824 0.05656306 0.0027309079 0.40527877 -0.31847203 0.041518826 0.09538595 0.58522344 -0.10407638 0.24430542 -0.11573586 -0.20045502 -0.04976887 -0.3164241 -0.3345373 -0.38942882 -0.39615268 -0.37539554 0.13612954 -0.5436559 -0.002208799 0.5207581 -0.0815659 0.07252146 -0.60349745 -0.111530766 0.19406669 0.0138608245 0.1980572 -0.11127724 0.026741562 0.13442124 0.079171345 -0.06925625 0.0723314 -0.019336 -0.021735447 0.1481117 -0.12776037 -0.05069911 -0.13262086 -0.15268807 -0.22643773 0.025670534 -0.34193563 -0.055988774 0.18159293 -0.060092542 -0.032576315 0.00017311767 -0.03215883 0.02933314 0.06432076 0.21475606 -0.056647416 0.10686162 0.27518255 0.40649182 -0.07518976 0.054124687 -0.047330752 -0.093001336 0.2189313 -0.14002828 0.24010862 0.016728237 -0.27754736 -0.22233894 0.39710462 -0.054640803 0.26957333 0.42125708 0.26674768 0.06571705 -0.15316409 -0.009924725 0.01973999
show -0.37451798 0.048203528 0.22832377 0.2080416 0.07347727 -0.3740246 0.181229 -0.24095343 -0.0030821278 0.1719115 0.046848085 -0.3484432 0.33187073 0.071646646 -0.11595986 -0.110329635 -0.08889137 0.1598033 0.20278627 -0.10127579 -0.08828052 0.112407126 0.07687336 0.07353023 0.07616704 0.22043365 0.06509745 0.1774013 -0.08105348 0.028489547 0.17626466 -0.20506106 0.22206765 -0.20576298 0.17355421 0.49814597 -0.19046535 -0.21586815 -0.33554444 -0.17477003 -0.35262844 0.45987076 0.007950481 0.36619475 0.0549901 -0.23607928 0.4362429 -0.3096716 0.038158964 0.07232808 0.032806516 0.05383635 0.02306401 -0.078088656 0.059353117 -0.12175335 0.010682028 0.09781789 0.121167175 0.04427786 0.12158886 -0.06849548 -0.072766565 -0.15032624 -0.00488593 -0.17406504 0.23407173 0.11415365 0.3069807 -0.00028780344 -0.041884143 0.010157853 -0.057234023 -0.006882736 0.0068297675 -0.20067903 0.13597058 0.02272505 0.023990916 0.09951361 -0.19321965 0.07122576 0.063518755 0.045174863 0.15049618 0.25140816 -0.34707096 0.17987764 -0.0992421 -0.16641326 -0.32685402 0.2508765 0.2987608 0.4022972 0.08649164 -0.16404895 0.21364824 -0.06148613 0.005785428 0.14995308
which -0.3501412 0.15660343 -0.047255915 0.029898189 -0.008406495 0.115601666 0.41318625 -0.2550939 -0.2494931 0.4137148 0.37398437 -0.009762887 0.15305424 -0.56450725 -0.43789762 -0.38254195 -0.233384 0.047622614 0.056886293 -0.10557615 0.043796472 0.2527043 0.10056659 0.14855775 0.028578425 -0.15801321 0.26212043 0.14908223 0.03899512 0.040394153 0.21481048 0.17076436 0.024481455 -0.4225183 -0.16265726 0.32093057 -0.51046383 -0.1648051 -0.49269918 -0.033116087 -0.16316971 -0.014916251 0.1197267 0.8581858 0.12546101 -0.103574276 0.24726638 -0.13039911 0.5096086 0.41064864 -0.2994728 0.17782821 -0.029150203 0.06813559 0.12840992 0.07894624 -0.046640415 -0.004941425 -0.20609656 0.027998216 0.12369805 -0.05832025 -0.09712844 -0.23214586 0.015158264 0.10633572 -0.16337956 0.11871326 0.19964455 0.04210806 -0.16604084 -0.07017529 -0.10132287 -0.074963935 0.12157449 -0.39357668 0.28223088 -0.09005547 0.13221338 0.19975404 0.19742218 0.24401225 -0.05807561 -0.27820206 0.120823756 0.4999509 -0.22376329 0.06167429 -0.5741539 -0.42945966 -0.28755113 0.24295932 0.24680227 0.4300049 0.0460887 0.106877364 0.41191378 0.011374375 0.22427452 0.15986249
its -0.20508952 0.15321676 0.023133487 0.35078186 0.33170545 0.14957535 -0.08638194 -0.25125453 0.16338515 0.40191153 0.24109505 -0.38830292 0.09258363 -0.119613916 0.15861136 -0.15434238 0.22582012 0.24331918 0.22541746 -0.025585448 -0.101160474 0.07666512 -0.028227367 0.056805 0.017681714 -0.18972321 0.14842217 0.016630253 -0.10459623 -0.3016194 0.3992988 -0.5815299 -0.20109084 -0.07762204 0.19779417 0.3397326 -0.2689005 -0.0957646 -0.46462408 -0.2665292 -0.5320702 0.6863836 0.03168956 0.2956235 -0.028537387 -0.3744624 0.46947703 -0.1329739 0.063508816 -0.024851905 -0.1307755 0.09660781 -0.007847152 0.045782264 -0.07424529 0.12912226 -0.028382044 -0.045481775 0.13484536 0.14670411 0.16316383 -0.18702456 -0.09703845 -0.1374139 0.018635295 -0.1476141 0.37093437 0.0078041735 0.16887404 -0.026040342 0.02073403 0.049539737 -0.002975088 0.082617186 0.027818233 -0.2273784 0.1947366 -0.028940918 0.2045272 0.110230416 0.1807435 -0.15931448 -0.19718069 0.115701556 0.29676715 0.2981301 -0.4432519 0.005849383 -0.33493954 0.040002536 -0.38704902 0.49730608 0.14076108 0.39226317 -0.006117183 -0.10137654 0.04433643 -0.15135211 0.044407483 0.116888404
data -0.17681715 -0.3701688 0.11403322 0.38995185 0.24885215 0.057575226 -0.09972321 -0.21730036 0.1803066 -0.14312327 0.04867408 -0.45414194 0.18384607 -0.061000064 -0.14541456 -0.18248953 -0.23293285 0.28152084 0.13582271 0.12420599 -0.0142188445 0.10015206 0.10768127 0.11035323 0.07478736 0.047191057 0.34615996 0.16503063 0.021698775 0.12136014 0.3041998 -0.102565706 -0.2274998 0.15887406 -0.17516081 0.3000494 0.21466118 -0.411822 -0.47996435 -0.2406433 -0.19127254 0.3207298 0.14578523 0.23443507 0.48017618 -0.1419575 0.3474432 -0.11103817 -0.0020735462 0.22264418 -0.044282228 0.09000287 0.028647628 0.093152724 0.07501109 0.13001662 -0.03673221 -0.01647543 0.18037298 -0.009918255 0.117903344 0.0024260741 -0.20300834 -0.10674861 -0.10756052 0.08262042 0.26646903 0.095754035 0.17381598 0.23202112 0.0059397635 -0.021276304 -0.05141786 0.06010743 -0.011064061 -0.14212258 -0.056160063 0.041310813 0.23569839 0.16445085 0.17832454 -0.042655203 -0.13537723 0.23619312 -0.048055355 0.14468575 -0.2904424 -0.077223256 -0.28514218 -0.1694361 -0.14616816 0.1306836 0.4551691 0.42604128 0.33813757 -0.01453029 0.137524 -0.04109612 0.10724094 0.058953557
these 0.048222043 -0.12602563 -0.38506645 -0.3410735 -0.21241185 -0.04081171 -0.10140916 -0.10350938 -0.062446844 0.22002809 -0.02874388 0.09729817 0.31507745 0.22152264 -0.17334956 -0.021817062 0.14080282 0.17061262 0.15879178 0.10670234 0.051746305 0.10288099 0.37171173 0.23053639 -0.19418322 0.18151334 0.057260793 0.3320978 0.22713532 -0.095119745 0.006193598 0.2755936 -0.15125218 0.016861511 0.10207035 0.0024268455 -0.27302557 -0.35329896 -0.3419239 -0.12644632 -0.258978 -0.0038922427 -0.06875351 -0.0070690988 0.06758692 -0.21257293 0.238303 -0.40651312 -0.032905605 0.25473347 0.041225865 -0.05728673 0.03573901 0.0019244124 0.02302538 0.007468287 0.11871694 -0.054619838 0.07472633 0.10270709 -0.040790923 -0.17749137 -0.09207556 -0.20403372 -0.089663945 -0.13098507 -0.22358665 0.05233674 -0.1078421 -0.16975112 -0.073865384 0.24899714 0.0032039233 0.1850337 -0.043042254 0.073542334 -0.07338266 -0.033341635 -0.07293655 -0.10538979 -0.14387308 -0.022876116 -0.18137336 -0.12818523 0.14702417 -0.06004873 -0.1927104 -0.031525988 -0.066491105 -0.27735862 -0.18956313 0.024180757 0.008028229 0.055000376 -0.0027034662 -0.15733579 0.2371759 0.07061176 0.23368645 0.05110337
can 0.15682131 0.15967406 -0.13792638 -0.106347546 0.12977843 -0.16551086 0.100787595 0.036192097 0.122347526 0.04220952 -0.15787698 -0.052241955 0.22351006 0.30047598 -0.05070292 -0.02346105 -0.045659788 0.26087147 0.1527639 0.011055532 0.08963071 -0.139406 0.061729223 -5.0994924e-05 -0.04555536 -0.31120732 0.08413963 0.14922649 0.29140505 0.09102508 0.13070816 0.13559256 -0.32808736 -0.36560643 0.13543306 0.3847957 -0.13272431 -0.17191301 -0.3230333 -0.11761846 -0.096999995 0.07849963 0.14256978 0.27134624 -0.02421335 -0.12061778 0.25464317 0.35471663 0.373071 0.0725581 -0.17334826 0.06503379 0.033934362 0.13131349 0.04194033 -0.22734596 0.19703455 0.023892397 0.16744915 0.09889165 0.1924249 -0.09634889 -0.04852145 -0.13086134 -0.027915692 -0.044243198 0.034165435 0.04775672 0.21489942 0.011308107 -0.005928985 0.043493476 0.24595144 0.22758807 -0.040152963 -0.08794414 0.101736 -0.09820289 0.020272488 0.07993305 -0.008729338 0.11317251 -0.14387932 -0.068855405 0.071356684 0.025286483 -0.065630876 -0.041518837 0.090388075 -0.15546055 -0.118650325 0.08404378 0.1778124 0.31312492 -0.012171767 -0.03835555 -0.01636785 0.33067632 0.29886308 -0.097564384
