37 100
from 0.20051454 0.2841488 0.14750026 -0.20681384 -0.19111939 -0.040114112 0.12933782 0.06511667 0.07368167 -0.26269966 0.21623334 0.2643854 0.08546215 -0.123814434 -0.33901307 -0.08235139 0.2009239 0.06190494 0.16036488 -0.25901952 0.1952687 -0.17369357 0.015950147 -0.23709503 0.1410375 -0.38331434 -0.2904195 -0.194898 0.27171454 0.20659402 0.041461088 -0.15006156 -0.19849397 -0.08899763 0.19063728 -0.2744381 -0.39460474 -0.25096092 0.053611796 0.46709934 0.2619646 -0.4611157 -0.04110284 -0.27351218 0.3503355 -0.2487269 0.27396142 -0.08547765 0.23662794 -0.1226144 0.04007464 -0.20934588 0.078252114 0.23005027 0.10009966 -0.12250228 -0.123785995 0.03340527 0.13681422 0.20359045 -0.11861725 -0.037284665 -0.060779475 0.20328361 0.015820349 -0.036973268 -0.18501973 -0.1137651 -0.043338515 0.22938922 0.22873887 -0.042051505 0.09326369 -0.10139598 -0.056947652 0.35764736 0.3177827 0.28576627 -0.4686497 -0.33047286 -0.017827598 0.4177208 0.069711484 0.0974094 -0.6215879 0.28804156 0.4905162 0.08474622 -0.5568897 -0.43155035 -0.29615006 0.7294286 0.026287584 0.3649678 -0.39791602 0.04190087 -0.2749937 -0.22886093 -0.09148858 -0.044913027
using 0.02919594 0.08610028 0.16725726 0.2700873 -0.29771656 -0.2163505 -0.17636631 0.23112929 0.2795967 -0.2231856 0.03127842 0.08795168 0.25872245 0.28759047 -0.21258777 -0.23118636 -0.056188587 0.15916997 0.31003502 -0.19177054 0.30360633 0.058317315 -0.029453605 -0.27770212 0.12700346 -0.3411461 -0.17418332 -0.28288066 -0.2612758 0.42925173 0.37637112 0.0953123 -0.10974809 -0.35487363 0.36459732 -0.07003126 -0.26156718 -0.3432763 -0.44489366 0.45626864 0.22046994 -0.14179046 -0.18715408 -0.4740444 0.36816943 -0.25099868 0.030734025 -0.01292464 0.28370973 -0.08661873 0.07030254 0.020564768 -0.05838953 -0.07339552 -0.020938402 -0.02612005 -0.11879633 -0.14157642 -0.13443457 0.13033628 0.012316304 0.028020376 -0.017987357 0.0018777779 -0.0052645146 0.125083 -0.036758244 -0.14845453 -0.26396316 0.2296975 0.13727003 0.013594319 0.10919605 0.027621115 -0.12193481 0.016541824 -0.067560114 0.37351525 0.33666182 -0.45798945 -0.010002294 -0.03281743 0.602557 0.56660974 -0.613815 0.1455599 0.19207504 0.35286477 0.2682856 -0.2435874 -0.19640028 0.3008256 0.12661031 0.6069241 -0.29947773 0.12401159 -0.16325162 0.112078965 -0.24787444 0.27384585
<sep> 0.24348061 0.15216959 0.3274131 0.1563969 -0.26767102 -0.085661024 0.035508007 0.23198064 0.0552737 -0.17020983 0.11653135 -0.05506948 0.10101208 0.22987978 -0.07816065 -0.14080489 0.12696342 0.2560163 0.11446484 -0.17477639 0.16940933 -0.31116545 -0.37738574 0.10008613 0.30479506 -0.46957693 -0.08943105 -0.27738228 -0.26268765 0.24857686 0.13066319 -0.37631166 -0.5028406 -0.011582611 0.47152844 -0.110935606 -0.08918382 -0.1976799 -0.52125627 0.17188515 0.0883122 -0.43928796 -0.47882098 -0.2406809 0.32936317 -0.101933636 0.38264784 0.4193894 -0.11450787 -0.310006 -0.13758972 0.026862124 -0.09150648 0.0025971096 0.002633428 -0.11204894 -0.06712035 -0.035945952 0.031156747 0.132257 -0.08430889 0.10143588 0.0032420633 -0.06308336 -0.029194178 0.041620772 -0.12681985 -0.20838435 -0.16367015 0.17665675 0.117572926 -0.07579843 -0.028411329 0.050932296 -0.03963708 0.36201647 -0.05724783 0.32665518 0.33287743 -0.22994632 0.12146656 0.12661965 0.35136774 0.3036843 -0.28163916 0.40394592 -0.19750175 0.024588628 0.4566497 0.06959612 -0.07388576 0.49990302 0.60245645 0.41808096 -0.2959417 -0.041950945 -0.4973183 -0.54815894 -0.18218175 0.3984368
this 0.058258317 0.12899883 0.06331361 0.19284184 -0.2885596 -0.13493425 -0.02268362 0.13730167 0.15810601 -0.2706948 0.085429326 -0.032625847 0.028004961 0.11850044 -0.19301419 -0.21658725 0.043263968 0.15581134 0.16414773 -0.27181387 0.27987528 -0.17794177 -0.21880025 -0.18023543 0.34918118 -0.27278656 -0.12063801 -0.035900656 -0.21256645 0.32986608 0.39234146 -0.19898015 -0.24773557 -0.26812497 0.46982697 0.09280175 -0.04276304 -0.09997888 -0.2434147 0.3314676 0.4047812 -0.24025466 -0.28219658 -0.3595784 0.4658433 -0.2398106 0.24678051 0.21917215 0.19967002 -0.35216457 -0.09566551 0.007373106 0.043999456 -0.055154376 -0.0142281195 -0.03529714 -0.043165147 -0.0453923 -0.097931586 0.17749204 -0.09422267 0.053896356 0.07911558 0.024740303 -0.07129531 0.1619618 -0.05798201 -0.11262995 -0.15474749 0.24158704 0.13003829 -0.035358526 -0.016181346 0.0047597457 -0.06881742 0.15737142 -0.028656913 -0.00551359 0.22874106 -0.26574805 -0.11720643 0.01416159 0.2665038 0.4139661 -0.58240265 0.2625044 -0.113635726 -0.13541245 0.1508344 -0.003638437 -0.37197438 0.3213779 0.27824357 0.37562814 -0.4657803 0.2884158 -0.35282546 -0.16560304 -0.22866653 0.32239196
is 0.25581667 0.15761705 0.13394088 0.34886345 -0.4759654 -0.0567607 0.04425224 -0.031765707 0.3654931 -0.17051847 0.060601294 0.14870478 0.10720943 0.27063456 -0.16312088 -0.08916182 0.16327351 0.015151671 0.23928446 -0.19157308 -0.011784005 -0.13734248 0.09622533 -0.15328392 0.30102384 -0.30854955 -0.023983324 -0.23107868 -0.4598953 0.5133987 -0.09535326 -0.26138425 0.016019467 -0.5130612 0.41402763 0.0041364618 -0.35219756 -0.29400605 -0.46686566 0.24560258 0.04369418 -0.28846744 -0.11379244 -0.32602483 0.45649108 0.07649056 0.1437157 -0.08224905 0.042395815 -0.40588644 -0.16581243 -0.036695592 -0.0018562572 -0.024395583 0.2138625 -0.17774592 -0.05161248 0.051034067 -0.23417935 0.04109162 -0.08349456 -0.05817776 -0.055250928 -0.030825868 0.06974852 0.007309632 -0.19147918 -0.0720818 -0.27489176 0.18278016 0.06223093 -0.040337883 0.03476862 0.18401061 0.007435498 0.27889407 0.1503069 0.22809175 0.6608717 -0.5336025 -0.042007927 -0.0044095446 0.08236968 0.8127791 -0.33457002 0.2364832 0.22071752 0.28077286 0.3252992 -0.28672376 -0.07556827 0.46521297 0.25869915 0.050855618 -0.6947891 -0.1560153 -0.3481073 -0.2142906 -0.13274108 0.6521788
a 0.05859308 0.37806413 -0.089450166 -0.028289735 -0.46698242 0.04555704 0.08716859 0.0181206 0.22583866 -0.42487666 0.2167142 0.025771469 0.43109283 0.17239763 -0.1370899 -0.17263629 0.22682506 0.049352616 0.3906272 -0.292125 0.06363725 -0.08305273 0.13548078 -0.09227334 0.04032009 -0.18904682 -0.27055225 -0.041943483 -0.104852535 0.6544567 -0.046941098 -0.20317264 -0.12432487 -0.41008985 0.55518 -0.31981826 -0.16379735 -0.49241972 -0.12690245 0.20970999 0.22207996 -0.45287967 0.039451905 -0.73597234 0.44131455 0.26068985 0.11870599 0.056177765 -0.009891455 -0.37300563 0.0676144 0.09599791 0.0456669 -0.34981582 -0.017009633 0.038008377 -0.017550372 -0.11617806 -0.19020967 -0.050808057 -0.059686936 0.055476524 -0.12045298 0.039100174 -0.055484533 0.1056673 -0.018362442 -0.03048204 -0.3567999 0.21061121 0.15560356 -0.015131677 0.0138091445 -0.03819022 -0.21831623 0.13012892 0.16039796 0.074158475 0.2815081 -0.6957811 0.034238063 0.14224327 0.14796767 0.7956173 -0.62723047 0.04413331 0.26674238 0.23808253 0.319962 -0.54449284 -0.2918344 0.40657026 0.15524052 0.7639573 -0.48913783 -0.2390195 -0.3521102 0.08367817 0.13299331 0.48552305
of -0.033588003 0.059098896 0.34445378 0.40132338 -0.21887982 -0.26367706 -0.14579988 0.31706667 0.39941177 -0.25599453 -0.08700729 0.05066334 0.12795226 0.2904155 -0.47183034 -0.30168125 0.14607285 0.07067066 0.36870405 -0.20296219 -0.15912324 -0.06295087 -0.061459303 -0.033025626 0.0070331404 0.0032498555 -0.013144069 -0.5819401 -0.5458287 0.53099465 0.39360514 0.07509316 -0.34435335 -0.6024508 0.37578347 -0.101552755 -0.21688418 -0.1996882 -0.35088196 0.5755595 0.18574767 -0.5495667 -0.04511111 -0.56788176 0.26009452 0.13851108 -0.083066724 0.41536182 0.30063352 -0.31213936 -0.000978747 -0.000385506 0.026095822 -0.04943016 0.0071229385 -0.020762809 -0.17836499 0.08766532 -0.036041226 0.108565524 0.025841683 0.009749578 0.02682112 0.010366636 0.08861513 0.07707311 -0.042155914 -0.17249282 -0.2375968 0.30324855 0.20295447 -0.053259335 0.3007654 0.06956259 -0.16568692 -0.25626993 -0.0046250573 0.5342496 0.6116395 -0.57189643 -0.28300664 -0.08350691 0.45916283 0.7255656 -0.53249705 -0.28216967 0.009466858 0.3900178 0.59039915 -0.5397117 -0.40888256 0.3458156 0.13427529 0.65241325 -0.45793056 -0.15761837 -0.3146004 -0.3639194 -0.395398 0.3849825
and 0.10958829 0.039003048 0.1987322 0.06363177 -0.16614331 -0.20853002 0.06811917 0.20836538 -0.074984215 -0.27724224 -0.11392213 0.24100265 0.31265762 0.35896695 -0.32611832 -0.3225689 0.3495891 0.26486263 0.13247535 -0.255311 -0.10424309 -0.042679224 -0.014962478 0.064548075 0.0033851566 -0.05177026 -0.074838825 -0.22065428 -0.11770562 0.32565805 0.35826883 -0.21130857 -0.3689527 -0.069316186 0.40544462 -0.023944734 -0.23247463 -0.30185178 -0.58866477 0.28533614 0.39324713 -0.66655546 -0.34500617 -0.20684539 0.38344634 0.14992888 -0.13148528 0.093545295 0.08730606 -0.1286663 0.15822873 -0.13408181 -0.052909177 0.14030544 0.1057244 0.08992773 -0.21915145 -0.07524777 -0.1588201 0.083827905 -0.0013173138 -0.061324503 -0.061609358 -0.043236826 0.07948564 0.16969869 -0.27842703 -0.1674429 0.001884103 0.2608882 0.109803155 -0.2390735 -0.15984122 0.1308479 0.10260044 -0.21081989 0.2513645 0.28053677 -0.015511723 -0.49958256 -0.45782465 0.29614848 0.4326967 0.08182846 -0.500343 -0.24163787 0.25280356 0.38259763 0.30860972 -0.38224822 -0.5319202 0.6788816 0.47731128 0.36319414 -0.4565337 -0.28433874 -0.25897527 -0.19777668 0.03955928 0.37459135
the 0.07414973 0.018837668 0.1295334 0.20849611 -0.35902905 -0.17578165 -0.014435966 0.23941343 0.1724498 -0.46764684 -0.34005728 0.12347121 0.17792468 0.1870483 -0.36253288 -0.47566238 0.16866009 0.25702882 0.20414771 -0.3666438 -0.11804424 -0.048654094 -0.04513213 -0.0448009 0.08724391 0.04538932 0.006017648 -0.2685865 -0.32115114 0.6344071 0.38135633 -0.06288068 -0.3482046 -0.2559979 0.64416045 0.26113343 -0.13787082 -0.15059601 -0.2290362 0.36750466 0.62152123 -0.3961062 -0.41742387 -0.31017727 0.6151823 0.20505163 -0.08906699 0.099002145 0.13641337 -0.34249353 0.09680013 -0.08496924 -0.13970865 -0.011110914 0.18131638 0.22911733 -0.13547914 -0.07600651 -0.05765976 0.07278369 0.07632084 -0.035404254 -0.009311803 -0.020598268 0.028888399 0.3160596 -0.122641265 -0.2600568 -0.20215581 0.40248373 0.18120836 -0.17650966 -0.011698432 0.026970206 -0.051405914 -0.35095295 0.06285822 0.39706928 0.3563569 -0.79225767 -0.44221136 0.10789477 0.50996345 0.32131645 -0.8916614 -0.43649065 0.078460686 0.32326558 0.33078974 -0.6043616 -0.8736267 0.34064245 0.4748889 0.39593193 -0.6737697 -0.084676795 -0.18184187 -0.18913683 -0.292338 0.5512196
are 0.10699858 0.05349521 -0.040799573 0.32378033 -0.23694105 -0.08397062 0.04811176 -0.1831172 0.46919626 -0.009805693 -0.112574175 0.31234136 0.23381609 0.49547574 -0.21645641 -0.17222555 0.3441144 0.005664395 0.16602275 -0.08026083 -0.027793877 0.15333724 0.04184551 0.040035166 0.05688847 -0.012746586 0.002319088 0.0710562 -0.79217887 0.104747504 0.18466881 -0.26745802 0.11313429 -0.54004294 0.10626156 0.10944644 -0.3738194 -0.40297282 -0.51687706 0.2938968 0.21570666 -0.527236 -0.039605644 -0.018658355 0.10999745 0.016398262 -0.13871333 -0.016297502 0.4777779 -0.09637936 0.12156325 0.07918222 0.11372577 0.040195026 -0.073661596 0.091050744 -0.17125286 -0.12828022 0.013763386 0.027247686 -0.028765984 -0.062634945 -0.0507363 -0.11220488 0.05375537 0.12760781 -0.01708242 0.0740748 -0.375494 -0.0292933 -0.09541994 -0.18700953 0.022066697 0.27858388 0.17685188 -0.042779528 0.13117525 -0.2071671 0.9138964 0.03274113 -0.38154137 0.13832793 -0.13911726 0.6577643 -0.05664657 -0.19139148 0.31740114 0.07365395 0.67721945 -0.18466148 -0.35667604 0.6135685 0.11489504 0.32748908 -0.16280845 -0.36431322 -0.062084913 0.08535966 -0.54724807 0.22551699
in 0.095547356 0.039508082 0.08894247 0.2589491 -0.049278762 0.09657354 -0.07494647 0.20654202 0.13002227 -0.17107576 0.053153224 0.034726035 0.15620668 0.14426576 -0.15083055 -0.099511564 -0.0019967416 0.11576289 0.22590534 0.049640473 0.09074894 -0.46942973 0.13512045 -0.025574286 0.37881196 -0.216236 0.15634237 -0.20024978 -0.22050504 -0.0048489827 -0.26337847 0.1448803 -0.4469965 -0.06302409 0.21898933 0.030372346 -0.15532711 -0.14099085 -0.090283066 0.16892074 0.06703669 -0.1168615 0.048877288 -0.36034676 0.25359562 -0.10405693 0.77435577 -0.26023853 0.17191084 -0.6317876 0.11376555 0.00013589053 -0.09385042 -0.048863422 -0.13176498 -0.016392482 -0.028526451 -0.058665026 -0.24577883 -0.07205176 -0.1561502 -0.03039513 -0.056402683 -0.12498211 -0.11875039 -0.16640371 -0.11866702 -0.12780201 0.14147815 0.25178844 0.04460455 0.16724198 0.05680624 -0.03130395 -0.17501406 0.12080002 -0.3176129 0.26810086 0.6846366 0.33589992 0.48461783 -0.4502824 0.7066961 0.28503817 -0.10204182 0.5118966 -0.15521768 0.5293712 0.32199037 -0.3310114 -0.19815786 0.16683848 0.17815517 0.4851834 -0.25712016 -0.01518206 -0.64498997 0.2129849 0.23225445 0.34468177
for 0.12800072 0.10942848 0.06025409 0.17366476 -0.21742508 -0.20362344 -0.31665885 0.21220455 0.2035829 -0.19870289 -0.08154326 -0.10029542 0.1486872 0.18455973 -0.17807354 -0.053247005 -0.101249345 -0.011781699 0.059626203 -0.06587429 0.21078517 -0.26841283 -0.07993291 -0.35696948 0.015107056 -0.17461863 -0.1119373 -0.06507897 -0.08091098 0.30596158 0.22881266 0.55296916 -0.37559992 -0.28361642 0.40315473 0.13787194 0.12734081 -0.17990223 -0.27355316 0.29216152 0.094563425 0.070020266 -0.18318956 -0.2940254 0.116304934 -0.18445504 0.53384846 0.14461364 0.5925257 -0.005661272 0.008179449 -0.03787409 0.113552466 0.079543404 -0.010248078 -0.123115696 0.03716805 0.021952588 -0.059297793 -0.0051767617 -0.21810926 -0.10786607 0.07787867 -0.039977286 0.027495278 0.10241033 -0.0137808565 -0.20451163 -0.2342129 0.28763762 0.00828256 0.039322738 0.13347134 0.14282772 -0.099195905 0.23169051 0.10922493 -0.2298895 -0.024617953 -0.13004126 -0.4362384 -0.63307273 0.22419655 0.2997898 -0.4312686 -0.0530134 -0.2521083 0.39739338 0.42575207 -0.5333179 -0.24142185 -0.11972353 0.2148613 0.41248637 -0.3884502 0.0009159411 -0.5717843 0.01007956 -0.29003295 -0.068927616
to 0.018640803 0.22802788 0.21151392 0.025650294 -0.24027543 -0.17942974 -0.14099565 0.13925067 0.11303014 -0.08646431 -0.11107013 -0.035918698 0.11034794 0.19133112 -0.054500245 -0.119444616 0.029324813 0.12786655 0.15430452 -3.6622405e-05 0.06515897 -0.2059201 -0.18424378 -0.088745706 0.12861927 0.0033965618 -0.21225901 -0.099810936 -0.034674022 0.25974908 0.15567102 0.30250916 -0.23348716 -0.29658142 0.11580365 0.01026099 -0.13881344 -0.3399712 -0.12559317 0.23156928 0.16375652 -0.07037198 -0.17614985 0.023749415 0.13824576 -0.08632308 0.3204046 0.24010332 0.1688622 -0.16596808 0.054645784 -0.034549974 0.0073313257 -0.19838244 -0.09653246 0.0073134634 0.017218651 -0.115359016 -0.10077472 -0.018636743 -0.13165398 -0.12230515 -0.16545363 0.017343763 0.12908848 -0.05665674 -0.09973514 -0.17694087 -0.067952126 0.24299674 0.028129699 -0.06520417 0.027068883 0.22412103 0.04025056 -0.21327919 0.31364125 0.16979983 0.033724193 -0.22246373 -0.47148526 -0.21227726 0.30657038 0.21622609 -0.31824183 -0.21980129 -0.1365073 0.2231548 0.3571885 -0.27228597 -0.2664032 0.26802948 0.41299567 0.23569131 -0.27709496 -0.19026008 -0.2559071 -0.11657182 -0.134516 0.079382576
be -0.04532936 0.17241324 0.16650109 0.11493352 -0.33222994 -0.094862446 -0.13939677 0.08740167 0.044620197 -0.17720392 -0.10325242 -0.052274182 0.07652339 0.06528992 -0.14213042 -0.12345346 0.0068304925 0.055021625 0.024523454 -0.029290179 0.1519036 -0.12934886 -0.104246706 -0.15832801 0.21577151 0.107693575 -0.14099899 -0.15692851 -0.08929919 0.3171401 0.058873568 0.26192898 -0.07848626 -0.07023597 0.22946766 0.14245938 -0.065965116 -0.14997435 -0.19303262 0.30254892 0.07989863 -0.02683852 -0.19404088 -0.10878766 0.3281722 -0.15866092 0.22289586 0.18342425 0.23473099 -0.37786934 0.13835041 -0.011381151 0.041423574 0.014958066 -0.15607658 -0.100178584 -0.029788917 -0.03193343 0.024468407 0.050003204 -0.16753443 -0.157533 -0.04133393 0.0029898975 0.14551666 0.09069076 -0.040055912 -0.092728965 -0.16257459 0.27850306 0.006784405 -0.051906206 -0.0052483818 0.0571117 -0.02760192 -0.17630135 0.2523849 0.19798131 -0.042590883 -0.25712073 -0.29049304 -0.21134381 0.16440792 -0.01921361 -0.36328727 -0.109086536 -0.12897682 0.19913551 0.095119044 -0.4869223 -0.42098063 0.105438195 0.30050823 0.26421443 -0.44934383 -0.0309115 -0.22080772 0.005795927 -0.14260185 0.10503864
by -0.0030762171 0.0020229365 0.032174844 0.15183292 -0.1839898 -0.2123581 0.004621031 0.0063887946 0.34521705 -0.026827695 -0.17751703 0.07252624 0.08462068 0.2057826 -0.050808117 -0.20862849 0.023420991 0.11124749 -0.022491613 -0.1093419 -0.09417888 -0.360698 0.004340117 0.037807263 0.20075095 0.019226857 0.010894116 -0.034500714 -0.31870893 -0.010554107 0.301409 0.025251321 -0.121840514 -0.65526915 0.1339621 0.0209237 -0.06431128 -0.06577467 -0.36175033 0.34181297 0.16681239 0.029416984 0.0941572 -0.1238977 0.06757282 0.09289849 0.52958596 0.007931649 -0.16691692 -0.26927227 0.12836297 -0.102498785 -0.16715343 0.1273427 0.016157694 0.14833519 0.06407067 -0.10185032 0.17317711 0.17305288 -0.086428575 0.03674099 -0.06549352 0.12987384 0.26769665 -0.14437996 -0.14390928 -0.006655438 -0.46094218 0.15190326 -0.06160791 0.10001847 0.12131575 0.0875761 -0.0668228 -0.27956712 -0.022282686 0.105597384 -0.15403673 -0.027066011 -0.4142774 0.1657378 0.06589026 0.70860976 -0.00262022 -0.34217957 0.108893506 0.14463308 0.69078135 -0.018740522 -0.3025801 0.13627842 0.08721248 0.3895298 -0.26396722 -0.34513235 -0.4557714 -0.08755239 0.22990188 0.30501983
with 0.20155892 0.121025644 0.17295098 -0.009252902 -0.2203124 0.07937281 0.12920325 0.32496944 -0.13390005 -0.2760492 -0.09081623 0.14374608 0.11353903 0.14018916 -0.121581286 -0.10751725 0.00517791 -0.08991293 0.13972363 -0.14648698 -0.12136604 -0.19908732 -0.13265596 -0.19408783 0.35036966 -0.5061322 -0.25328222 -0.4478169 0.116580725 0.34271845 -0.07578099 -0.24251339 -0.45869753 -0.07407418 0.3991063 0.04894534 -0.23318984 -0.30095693 -0.18613866 0.0107735265 -0.05924392 -0.024379984 -0.0831859 -0.1502564 0.3884466 0.22442612 0.3625765 0.19387059 0.22022825 -0.49431252 0.09592328 -0.3136593 0.20735312 0.11585908 0.1681235 -0.11441209 -0.006984291 -0.12469711 0.0043266495 0.051737823 -0.17595288 -0.023006057 -0.29407105 -0.085311785 0.11974171 -0.12890436 -0.10314563 -0.113152474 0.17690378 0.09393921 0.028965447 -0.05737461 0.032361194 0.009857502 0.03502487 0.40859917 0.079958655 0.50260824 -0.08162191 -0.1839445 0.043843918 0.156006 0.47705317 0.13125743 -0.27107245 0.099056 0.12599376 0.49067214 0.4563147 -0.08694003 -0.2305662 0.20757577 -0.30175367 0.15626372 -0.4782924 -0.022547495 -0.31516433 -0.12875234 -0.28371644 0.36477694
as 0.18380103 0.11258795 0.24767719 0.18862134 -0.32149053 -0.22267582 -0.10098583 0.29468447 0.31318146 -0.55078787 0.034465518 0.10266868 0.13715036 0.18278843 -0.34018934 -0.21954827 -0.03877286 0.07633626 0.17319112 -0.14271778 0.15226033 -0.18195178 -0.1507262 -0.3537569 0.2152666 -0.32332724 -0.3300399 -0.35576254 -0.36491838 0.6466795 0.31568593 -0.02045349 -0.33012298 -0.52614504 0.7554603 -0.3017266 -0.2261096 -0.13960993 -0.19118507 0.54604036 0.4749821 0.19870144 -0.27339104 -0.46370733 0.41907257 -0.17018646 0.403647 0.18871951 0.5611019 -0.41507593 0.08844106 -0.053375904 -0.039498016 -0.15066187 -0.113607764 0.06996082 -0.15479945 0.034393977 -0.06927165 0.10277402 -0.18782395 0.014978718 -0.23095949 -0.13938583 0.3473499 -0.100149535 -0.054119326 -0.14565799 -0.10036977 0.26081103 0.10999576 0.001971185 0.03754907 -0.030713273 -0.090816624 0.35938162 0.18337393 0.32083368 0.19474111 -0.61820716 -0.3268773 -0.07362829 0.2603609 0.4715575 -0.72804034 0.3225702 0.3513264 0.17520277 0.29721776 -0.729671 -0.53177637 -0.10299575 0.24391682 0.46115926 -0.19290695 0.15226693 -0.5560534 -0.05827939 -0.43580487 0.4219821
an 0.124015026 -0.010867075 0.04352785 0.3162168 -0.059627555 0.018172732 0.19464958 0.34564683 0.27558795 -0.34235 0.03153041 0.26105738 0.21449472 0.20824723 -0.18827339 -0.11475415 0.29051632 0.21337089 -0.29987282 -0.3348374 0.19622646 -0.1426755 -0.12908773 -0.23096071 0.1746827 -0.27398238 -0.11843527 -0.19031745 -0.6345212 0.24111505 0.107022315 -0.43148664 -0.5446505 -0.43462726 0.53703624 -0.2157506 -0.36005363 -0.3422035 -0.5365233 0.19677179 0.21559995 -0.38216996 -0.48459604 0.33328077 0.658956 -0.15822405 0.4365606 0.3408314 0.25139594 -0.45929748 -0.09823587 -0.02935179 -0.12349872 0.09551713 0.023397213 0.074368596 -0.1441606 -0.036512297 -0.0817897 0.12831824 -0.059031866 0.09305471 -0.044780083 -0.44742018 -0.017792761 -0.20712034 -0.08353715 -0.13382383 -0.119178936 0.14735341 0.069352545 0.023684632 -0.0021400359 0.007815278 -0.029240143 0.22991316 -0.012186263 0.06897123 0.70994323 -0.076380305 -0.11941377 0.45995212 0.6110633 0.3493671 -0.5744934 0.026517153 0.4666471 0.3300712 0.69331604 -0.30512506 -0.19776395 0.46017048 0.4297122 -0.6097843 -0.60457593 0.1831892 -0.67046976 -0.30601987 -0.19196807 0.49467462
two 0.01916524 -0.016176792 0.048010644 0.12683424 -0.17757387 -0.3341953 0.048883386 0.15858503 0.2982992 -0.361105 -0.23210615 0.13679875 0.15571378 0.22196375 -0.2582294 -0.22305435 0.15250635 0.21789846 0.15997314 -0.37554947 0.25564286 -0.059987165 -0.15209548 -0.1300072 0.29690024 0.019720722 -0.085493416 -0.08314183 -0.2510417 0.37099907 0.59632236 -0.1830069 -0.30612317 -0.4308994 0.60392946 0.20981152 -0.23192905 -0.15317763 -0.30103657 0.27229857 0.37553415 -0.1778729 -0.3758903 -0.3006118 0.74938 -0.38853976 0.26205173 0.28474364 0.28226843 -0.60177326 -0.12302073 -0.04683698 -0.0009717603 -0.058431204 0.057592146 0.18025587 -0.082346894 -0.043262124 -0.0396115 0.09288772 0.018075677 0.08078973 -0.027599743 -0.08995328 0.0940619 -0.02952889 -0.0574085 -0.029044291 -0.13706489 0.155956 0.023780648 0.016118726 0.01757227 0.026877042 -0.041427147 -0.04429521 -0.024536489 0.01914073 0.18309072 -0.1748562 -0.5874713 0.21318941 0.31881657 0.40771005 -0.60793 -0.427642 0.2759282 0.26619166 0.32900757 -0.44687316 -0.3294981 0.23090145 0.3973451 0.3246303 -0.7323364 0.5976289 -0.3924079 -0.32673496 -0.33052367 0.572308
on -0.046562146 0.057575114 0.18659571 0.34355927 -0.06682265 0.0569782 0.22009178 0.1430269 0.7956184 -0.2932984 -0.040032074 0.07515878 0.13391826 0.3348539 -0.19497447 0.12394656 -0.0063602137 -0.25241837 0.30948547 -0.059778128 0.11720446 -0.34991086 -0.07115107 -0.212998 0.0011378067 -0.05169161 -0.29730034 -0.4276912 -0.6510699 0.27722114 0.020155879 -0.4443588 -0.2315906 -0.95347226 0.41762534 0.084720835 -0.09125341 -0.43408647 -0.37313974 0.46340668 -0.18132314 -0.119664066 0.3331193 -0.79874814 0.22200105 0.04897959 0.5562727 0.08784855 0.41475806 -0.20063268 -0.17768846 -0.051175565 0.07591076 0.12891683 0.24148312 -0.03563585 -0.23580873 -0.049180664 -0.10992015 -0.029925257 0.22110553 -0.020817025 -0.28798875 -0.32769927 0.059981287 -0.16088457 -0.021154022 -0.09896993 -0.34013528 0.21279445 0.010209559 -0.09027369 0.01854089 0.10705928 -0.0005601209 -0.12138037 0.16758412 0.48982215 0.6134658 -0.13639122 -0.021332778 0.36932626 0.20516333 0.9102019 -0.48942745 -0.27389085 0.24443759 0.50274694 0.5269972 -0.28323418 0.30368686 0.027177224 -0.55137724 0.5602776 -0.18304428 -0.07781085 -0.5705091 -0.07234286 -0.38020927 0.11502875
time 0.17963333 0.34042916 0.16321333 -0.24114834 -0.18576029 -0.122299366 0.01929745 0.015352447 -0.020443842 -0.07474388 0.27455616 0.176879 0.12674166 -0.014853095 -0.32555625 -0.0009866331 0.11452101 0.09527274 -0.036385655 -0.2996715 0.21132112 0.022172373 0.06970135 -0.28308576 0.070042364 -0.094279684 -0.013044586 -0.13875814 0.39424947 0.054500684 -0.13208376 -0.20077719 -0.046082232 0.075381115 0.26877984 -0.052317865 -0.05520489 -0.07474819 0.34849057 -0.025814135 0.0707305 -0.5173985 -0.13183366 -0.24658336 0.21288198 0.36839795 0.018552372 0.32079184 -0.26903334 0.17368512 0.177402 0.29155225 0.21787561 0.0097464295 -0.13163133 -0.15737842 -0.11068682 -0.074806154 -0.13659881 0.16506223 0.25892448 0.15820369 0.2515022 0.074346155 -0.3853907 -0.11974676 0.071941175 -0.05233726 0.2562138 -0.010096176 0.11024801 0.011217178 0.036467835 -0.19406821 -0.082100414 0.40721303 0.3781011 0.25831455 -0.44793007 -0.19372892 0.15273494 0.16840696 0.373349 0.2153725 -0.4508557 0.28376296 0.39580494 0.2766483 -0.0070452834 -0.54969025 -0.10699296 0.41736254 0.29088727 0.58890295 -0.5426129 0.25925204 -0.5575411 0.03284535 -0.34180766 0.47494397
it -0.051700264 0.14698255 0.10185191 0.2854875 -0.2721184 -0.4027708 -0.29442194 0.031673856 0.13387917 -0.013145214 -0.015031871 0.04984983 0.23341931 0.30619273 -0.19913149 -0.34959826 -0.24516253 0.23525456 0.2885493 -0.19629572 0.35680428 0.16258594 0.012973238 -0.17132303 0.03617643 -0.025271552 0.16629872 -0.17356971 0.055056494 0.13101138 -0.25622723 -0.2799072 -0.27736875 -0.20496324 0.4197401 0.015750935 0.029709335 -0.011795457 0.06893855 0.028720517 -0.08451483 -0.5007446 -0.025121205 -0.38461232 0.32933277 0.4261305 0.3085979 -0.06314246 -0.12160622 -0.18973258 0.31403986 0.2933951 0.14774175 0.2079836 -0.3401064 -0.36146843 -0.37105545 -0.17209604 -0.14641155 0.3491519 -0.09695339 0.06615695 0.25698265 0.34137484 -0.26452336 -0.20062622 0.020657357 -0.11340081 0.1311395 0.074775375 0.1096252 -0.06510587 0.17297675 0.019665979 -0.1537868 0.40036455 0.1633165 0.34447438 0.29510364 -0.60054636 -0.28509858 -0.01562679 0.37914616 0.5895864 -0.75012046 -0.054551177 0.124232166 0.4334636 0.5752827 -0.56889117 -0.20854805 0.2994201 0.33073947 0.7002186 -0.7287307 0.3036246 -0.08341047 -0.25531802 -0.62183535 0.35420057
our 0.21066487 0.21924652 0.3652603 0.18305379 -0.29267812 -0.16121674 0.03690432 0.23779768 -0.15842757 -0.1632607 0.014208316 -0.053488515 0.1109772 0.17886372 -0.12328078 -0.1332422 -0.027273098 0.22076434 0.04038067 -0.16893646 0.26796037 -0.25825012 -0.26930314 0.29380766 0.28736734 -0.18661015 0.26924717 0.08447196 -0.24023624 -0.15058455 -0.26079592 -0.22252525 -0.096027814 -0.16599369 0.21845987 -0.1580994 0.09229804 0.01779997 -0.11982288 -0.06385979 -0.0529242 -0.50294447 -0.38513458 -0.45999703 0.25351432 0.33174556 -0.0073676836 -0.06199912 0.4472217 0.061075766 0.24268429 0.12914726 0.16870254 0.4873034 -0.07108401 -0.16841072 -0.23402724 -0.01745082 -0.21159382 0.1564008 -0.14531848 -0.09045257 0.0463076 0.4037926 -0.050670337 -0.1955352 0.20604183 0.19465792 -0.13226788 -0.15658781 0.18711273 -0.090521835 -0.0025188446 0.037788894 -0.019216996 0.67598194 0.18859568 0.4467215 0.30022663 -0.37627393 -0.13223635 0.46690902 0.57989186 0.19478205 -0.6655391 0.077580094 0.15821168 0.37619114 0.4108856 -0.35239804 -0.27638873 0.6371827 0.5555821 0.48430204 -0.5413904 0.11461854 -0.45301908 -0.5993523 -0.12913401 0.42114112
at -0.021723764 0.17251569 0.057569075 0.20025828 -0.26969978 -0.16111094 -0.014302927 0.07791884 0.06088416 -0.12695603 0.052383896 -0.030974213 0.06249958 0.08360837 -0.24733311 -0.16304408 -0.0777117 0.1057297 0.13573271 -0.23203652 0.28964356 -0.12860686 -0.22022712 -0.10581648 0.31285754 -0.11275668 0.20507501 0.15084758 -0.013735498 -0.19177756 0.022557192 -0.13497156 -0.12639302 -0.2520196 0.3365016 -0.05701456 0.06277864 0.123907894 -0.0046509975 -0.16140209 0.30266273 -0.3473147 -0.19098826 -0.2912626 0.3435696 0.15497304 0.0573432 -0.15811746 -0.020908266 0.15599456 0.035452344 0.11836324 0.034696434 0.1664185 -0.1612727 0.037015133 -0.16036943 -0.1305193 -0.17405671 0.29145798 -0.13817754 -0.09770125 0.06452769 0.08401522 -0.19026446 -0.165401 0.14177036 0.12505902 0.027715985 -0.16664177 0.13609716 -0.06283784 -0.023715172 0.058661025 -0.047239214 0.31239232 0.19657174 0.047651537 0.3253216 -0.42211226 -0.507938 0.22361133 0.39948028 0.4287585 -0.80567545 -0.13797002 0.07618612 0.20119044 0.32242447 -0.5437526 -0.7228117 0.32263273 0.4740118 0.49298388 -0.79316825 0.35085052 -0.26039508 -0.34960097 -0.39370596 0.622902
we 0.2906015 0.28912356 0.16043979 0.29679084 -0.52138823 0.030439982 0.060415264 -0.14219412 0.17540942 -0.17598356 0.004600018 0.16398287 0.06271582 0.2592859 -0.106024355 -0.030794216 0.11840967 -0.05945564 0.4126393 -0.13979602 0.01812849 -0.025120098 0.24551171 -0.13569051 0.09414477 -0.030143267 0.038336355 -0.15831374 -0.28189203 0.02500791 -0.17276156 -0.014941044 -0.0928664 -0.49840462 0.12461574 -0.1350651 -0.0644628 -0.11053164 -0.09516012 0.09916559 -0.0019666343 -0.44646475 -0.34119818 -0.047789376 0.47980854 0.10653899 0.15732643 0.41959962 0.023346461 -0.14536828 -0.0023315 0.1666256 0.37216073 0.17296664 -0.33011243 -0.029045284 -0.024805693 -0.13891633 -0.28756675 0.0040476457 -0.19980387 0.31581905 0.17679293 0.30641508 0.04279359 -0.028972404 0.13004272 -0.095181726 -0.15423465 -0.12601982 0.10124528 -0.121033646 0.020906609 0.2776596 -0.056443688 0.48864743 -0.004710101 0.30117792 0.6832435 -0.79365534 0.026278626 0.30813667 0.047565565 0.99945146 -0.38264316 0.041625064 0.3191992 0.19926308 0.6866441 -0.3809975 -0.24540393 0.48773724 0.21903494 0.6969671 -0.33404216 0.0070989844 -0.27241054 -0.011714849 -0.3398867 0.5726825
model 0.103570096 0.35594314 -0.16942573 -0.14927603 -0.27240512 0.048395332 -0.033253357 0.04345419 0.14114685 -0.32468578 0.3733653 -0.05642707 0.5880229 0.21953969 -0.022304418 -0.15785989 0.17044318 -0.07484616 0.3893854 -0.26024765 0.13581699 0.05967372 0.1269342 -0.2938586 -0.06907758 -0.062354453 0.382158 -0.14039662 -0.44084513 0.098923676 0.07255966 -0.017385658 -0.01867932 -0.47249588 0.07764851 0.164167 -0.19885255 0.19230962 0.08833178 0.29008666 0.21538593 -0.21202356 0.042647723 -0.46376967 0.22030175 0.36347666 0.18956995 0.118723616 -0.3578484 -0.5339599 -0.026099201 0.06657083 -0.046878554 -0.19325544 -0.03844459 -0.10041855 -0.22765598 -0.10675037 0.1827925 -0.2828232 -0.09772416 0.16410486 0.24915883 -0.034654316 -0.029310962 -0.1377083 0.13580042 -0.20708737 0.009562643 -0.09418073 -0.13059482 0.11661901 0.027705712 0.076466545 -0.026429458 0.14258274 0.6531206 -0.07946985 0.15473294 -1.1092243 0.046346247 0.3838901 -0.15322816 0.2487112 -0.84109145 0.41465414 0.079797074 0.76191616 -0.08954087 -0.17204429 -0.4482323 0.65211457 -0.010733396 0.927616 -0.6319723 -0.056754358 -0.19057366 0.10227598 0.19368136 0.32332474
when 0.24583308 0.06288841 0.2671673 0.21586955 -0.06280298 -0.26446554 -0.2566055 0.28699866 0.27716634 -0.20410344 0.08786205 0.0981813 0.08904426 0.24266493 -0.5361119 -0.25074717 0.10723764 0.05000146 0.30592358 -0.06685275 -0.22252302 0.08402435 -0.050455354 0.044015177 -0.039523598 0.10969317 0.17977251 -0.15441751 -0.08306313 0.2390179 0.01289855 -0.083521396 -0.020168807 -0.19332428 0.12944715 0.16644743 0.05856996 -0.19504954 -0.14859839 0.001647569 0.16320693 -0.20969497 -0.03391454 -0.31472257 0.16919035 0.03505911 0.07306793 0.48130262 0.31385922 -0.4203942 0.16418682 -0.032822646 0.14714697 -0.034321092 -0.109818324 -0.4784588 -0.47288698 0.24717262 0.17844917 -0.04766055 -0.10503403 0.06912211 0.022342362 0.11002101 -0.27122763 -0.0312519 0.017137684 0.006102904 0.004858022 0.21567902 -0.026674293 -0.0036246825 0.04623776 0.10337078 -0.15565303 -0.19730452 -0.036468398 0.8549854 0.9281693 -0.5528735 -0.5530386 -0.0851306 0.49489045 0.7889742 -0.33453578 -0.14010338 0.13828467 0.1774393 0.3750629 -0.8040195 -0.64459336 0.5504252 0.03219227 0.855873 -0.36692 -0.22432874 0.11090813 -0.41673505 -0.12858655 0.1549061
that 0.34519756 -0.11215586 0.097410716 0.033845868 0.0073052053 -0.20090231 -0.047142785 0.12363662 -0.09243381 -0.18925703 -0.060102656 0.21781397 0.30436084 0.50595397 -0.3100548 -0.29672533 0.2671944 0.18473883 -0.045099307 -0.20659363 -0.025479406 0.064064585 0.039093573 0.060518786 -0.10450998 0.35746178 -0.049889114 0.046243526 0.11653254 0.18274137 0.19692503 -0.2506398 -0.17227502 0.009811911 0.1934808 0.015164978 0.0586894 0.010749 0.058266487 -0.028390957 0.25036666 -0.4147751 -0.25391892 -0.033436067 0.26371488 0.19597502 -0.11460164 -0.018081822 0.20487532 -0.1482056 0.23935811 -0.07165383 -0.025911823 0.04951222 0.054040976 -0.3718262 -0.09849561 0.04063477 -0.42781442 -0.1856259 -0.0133767165 0.17824769 0.1970531 0.4048287 -0.07207981 -0.03584786 -0.14066562 -0.12750311 -0.026672205 0.19622912 0.03448316 0.17485994 0.20360023 0.061549705 -0.12600255 -0.018161017 -0.042477217 0.34803376 0.22670189 -0.31716666 -0.2823937 0.2771679 0.46536568 -0.31487405 -0.60186714 -0.011996448 0.38757393 0.4798276 0.65319765 -0.51789504 -0.68687934 0.9927002 0.66935444 0.20274247 -0.65528053 -0.272278 0.327871 0.110742465 -0.16506617 -0.17741092
magnetic 0.41203547 -0.01492621 -0.007934099 0.09972854 -0.15662426 -0.13247974 -0.09604739 0.16959727 0.10698183 -0.33083683 -0.27670515 0.13674918 0.1486695 0.14538823 -0.33698735 -0.32007578 0.13698825 0.23018356 0.13217588 -0.332435 -0.15461247 0.024375962 -0.04702793 0.02145805 0.021776514 0.29879096 0.04983044 -0.22259878 -0.032345362 0.30990097 0.2063448 -0.1555343 -0.21884044 -0.09575886 0.3196682 0.023236316 0.083987184 -0.033311844 -0.09493943 0.059141964 0.39816535 -0.23485276 -0.27774188 -0.20328368 0.3931721 0.064089455 -0.121906795 0.038592156 0.1957726 -0.28801185 0.14987971 -0.049344715 -0.043600462 0.07100326 0.028186161 -0.19583362 -0.16639838 0.19379933 0.042435754 -0.30009043 -0.31896776 0.07299964 0.03420589 0.1618391 -0.021044219 0.1002371 -0.089312874 -0.05940643 -0.059460286 0.14227647 -0.11688709 0.103052534 0.09347378 0.1365606 -0.1470388 4.5059267e-05 -0.10066072 0.33784464 0.42593992 -0.8142784 -0.26616293 0.10959798 0.43393996 0.3504655 -0.90278965 -0.5361946 0.19747724 0.1785423 0.32087728 -0.451544 -1.0790639 0.55148125 0.61479247 0.48488382 -0.88683844 -0.33314428 0.22769156 0.054561 -0.084236555 0.015778799
have 0.18584152 -0.15978645 0.013618416 0.055992283 -0.31168935 -0.10645883 -0.028434286 -0.18345994 0.4546953 0.069184214 -0.1704735 0.3139522 0.3782072 0.46754038 -0.24641043 -0.12943918 0.2065493 -0.1155707 0.03818861 -0.0058666663 0.1765361 0.32836187 0.0382787 0.14002882 -0.032772724 0.30472526 0.11528306 0.18390515 -0.4204048 -0.41212785 0.17498218 -0.036189187 0.035926882 -0.031968337 0.032159396 -0.028752258 0.017513085 0.12814301 -0.14234789 -0.035759863 0.1305776 -0.22017561 0.03615776 -0.07613173 0.093730025 0.17423609 0.10586211 0.027151322 0.7379402 0.040050678 0.09671165 -0.17934227 0.043291327 0.18171166 -0.080356024 -0.122194536 -0.17660926 -0.4546367 0.44486308 0.29054263 -0.07793104 0.28136253 0.29405195 0.22739337 -0.2353614 -0.063094 -0.02508583 -0.056803275 -0.2722511 0.09801881 0.011077764 0.010387439 0.05510715 0.141474 -0.23140486 -0.062163685 0.114655666 -0.107275784 0.8567944 -0.24686773 0.13150488 0.21378128 -0.43677408 0.70332164 -0.18971823 0.022359863 0.60232013 0.46677133 0.91252196 -0.42487583 -0.2510286 0.8671825 -0.018442862 0.1638504 -0.30088016 0.01741488 0.27272946 -0.040670317 -0.28970453 0.0042361286
between 0.090035535 0.1535377 -0.008157526 0.07143372 -0.20526057 -0.097576655 -0.0070384764 0.031572573 0.13258414 -0.1465458 -0.16498116 0.17438051 0.0202575 0.19846077 -0.10983026 -0.058135614 0.009490333 0.07624758 0.09330772 -0.054741137 0.15303881 -0.4477882 0.12701264 -0.19877847 0.5000414 0.115534425 0.25405765 -0.14550343 -0.23755927 -0.33142215 -0.24487057 0.2164189 -0.3304883 -0.14810109 -0.12882046 -0.44353437 0.15391327 -0.28444222 -0.057193868 -0.009288676 -0.05777187 -0.2940253 -0.044882447 -0.021427762 0.45714572 0.089780346 0.16186939 0.044223014 -0.2168049 0.09727255 0.5508887 -0.104358286 0.35126922 -0.19876935 -0.26385862 0.0149120325 -0.10883917 0.031558204 -0.10690962 0.049117286 -0.030031858 -0.012234263 0.20437552 -0.08540056 0.06853754 -0.20027307 0.17801009 -0.2431571 -0.3662673 0.08507396 0.20820934 -0.40531912 0.17413093 -0.13681383 0.24682607 0.022640016 0.12238522 0.17348951 0.35574752 -0.101431735 0.19568408 0.09271225 0.36116233 0.094336905 -0.40900445 0.08485615 0.102304704 0.16526558 -0.068989486 -0.10513793 0.0010787363 0.08880639 0.15207668 0.4258846 0.027279599 0.16947965 -1.0235672 0.17019339 -0.08236517 0.64922166
show 0.09834039 0.11986307 0.17199326 0.21440029 -0.2084938 -0.1304563 -0.28844744 0.20137955 0.12641168 -0.096260116 -0.106981754 0.037369825 0.045154788 0.1822246 -0.12024296 -0.14953692 -0.14605273 0.05065616 0.08645741 -0.04348266 0.2872848 -0.16812003 -0.19776447 -0.45416895 0.08946392 -0.0017131259 -0.006272054 0.26061845 0.21786298 -0.06494622 0.100843266 0.17636566 0.07128298 -0.040680163 0.08952758 -0.22435743 0.050336815 -0.114657596 -0.0930609 0.23641895 0.14536871 -0.06410589 -0.33741292 -0.43643597 0.39412618 0.24399881 0.26483855 -0.09285367 -0.08130223 0.010323404 0.12406139 -0.18226112 0.36529186 0.16057038 -0.29441586 -0.2106468 -0.14446145 -0.08056857 -0.07442516 0.14103967 -0.17592008 0.050918598 -0.08509201 0.011364129 -0.18478495 0.13174914 -0.0857687 -0.007889063 -0.19894534 0.2631669 0.21253115 -0.19890094 -0.009591996 -0.3123803 0.013150608 0.14118704 0.2602371 0.121482395 0.3138486 -0.5585872 -0.2745827 -0.51689374 0.48199132 0.46715966 -0.4281537 0.049134143 -0.24937844 0.22985293 0.13834792 -0.17913918 0.1315203 -0.00943303 0.019441994 0.18116938 -0.12992094 0.33849016 -0.6596455 -0.0478684 -0.7036264 0.031074828
which 0.09703349 0.14181148 0.14482722 0.015923519 -0.1889566 -0.11739801 -0.16061321 0.057171177 0.0711347 0.04291455 -0.095090725 0.17535387 0.19356805 0.12600844 -0.09761017 -0.12790684 -0.047301065 0.07911336 0.09004755 0.0030295155 0.20019194 -0.16858704 -0.18898766 -0.12264146 0.12975004 0.19484954 -0.090927005 0.065542 -0.08641675 -0.075067304 0.17025861 0.03281463 -0.14504263 -0.095098585 0.12409401 -0.102815665 0.06482526 -0.10307616 -0.09513598 0.16617358 -0.017685542 -0.22059844 -0.2987607 -0.07747111 0.34275487 0.25265875 0.030468274 -0.033680983 0.2242493 0.09284267 0.083183825 -0.42426917 -0.10185659 0.3381186 0.045505647 -0.13376163 -0.13162903 -0.072068825 -0.062448356 0.06892192 -0.055831432 0.24299069 0.1614362 0.11879461 -0.18192923 0.29347593 -0.2900917 -0.16126758 0.019092243 0.3621116 0.06364065 -0.33393046 -0.29845816 0.061577626 0.22202604 0.07639692 0.6355159 0.4735998 0.05350965 -0.5672947 -0.13205227 -0.27507958 0.3451967 0.34420395 -0.14345248 0.12331487 -0.23104362 0.13719161 0.27394614 0.06259153 -0.05838539 0.084759094 0.24718194 0.23725578 -0.062142573 0.08755017 -0.4832262 -0.44062802 -0.37022153 0.2315841
its 0.023582984 0.1021836 0.12627286 0.14473122 -0.30394563 -0.036117133 -0.15288182 0.056339312 0.04422968 -0.06741207 -0.20283453 0.091550484 0.12027698 0.13025889 -0.15898931 -0.1028356 -0.058774408 0.03254412 0.018993534 -0.023973199 0.24752426 -0.066746935 -0.18021315 -0.19505373 0.30753198 0.23231494 -0.046775494 0.01276427 0.0980869 -0.1796617 0.07781205 0.010101836 -0.030125882 0.07314935 0.079668075 -0.1877702 -0.004523409 -0.04017042 0.013347236 0.2245868 0.17517428 -0.10108998 -0.22114891 -0.29143083 0.49514353 0.13562462 0.07235256 -0.1252377 -0.0070230393 0.16297549 0.23119102 -0.28849098 -0.075294994 -0.03277995 -0.06878008 -0.04375231 -0.10386044 -0.07519858 -0.10266688 0.1526499 -0.32781202 0.12242348 0.045878332 0.103579536 -0.05386302 0.35444072 -0.1593352 -0.23608036 -0.079360284 0.4092261 0.181866 -0.22154878 -0.16694659 -0.18362889 0.2874195 -0.31448153 0.41416028 0.35866454 0.35406837 -0.6697603 -0.036091823 -0.24130957 0.1275282 0.15496229 -0.3415802 0.1659507 -0.15034635 -0.033561796 0.052195862 -0.020321375 -0.0046830135 0.09125687 0.11828766 0.04983098 -0.18618515 0.3193261 -0.33627138 -0.17508864 -0.31066337 0.36477482
data 0.08716305 0.0004680772 -0.012021698 0.23590952 -0.14790508 -0.2207871 -0.12080622 -0.020417953 0.19537082 0.0073414557 -0.10078872 0.117869556 0.0652333 0.059061863 -0.1697992 -0.14541863 0.04517499 0.0318558 0.06396728 -0.036815196 0.076424025 -0.3223757 0.04063233 -0.084927395 0.10418215 0.22763513 -0.047352172 -0.11301299 0.22008067 -0.15015401 0.14342985 -0.11457666 -0.09212909 -0.07326846 0.076356776 -0.0022649518 0.060337197 -0.09525209 -0.2545534 0.11400031 -0.108935684 -0.15903148 0.035497047 -0.57194966 0.23565407 0.14106742 0.11383702 0.2329887 -0.17196032 -0.16494508 -0.116600916 0.0020522615 0.16365792 0.4868104 0.11278075 -0.025460605 0.07756546 -0.057274904 -0.071280815 0.11908152 0.0670448 0.2508061 0.11083883 0.22859724 -0.12477762 0.108883604 -0.21644892 0.054352712 -0.30914637 -0.103217065 -0.12386511 -0.2417572 0.07156089 0.05694558 0.31203333 0.11521805 0.076705284 0.06819627 0.5310633 -0.40430164 -0.2878001 0.024066301 0.12327036 0.6603075 -0.29155904 -0.11367232 -0.09458348 0.18096721 0.21450175 -0.25989804 -0.25278288 -0.0028902297 0.19202255 -0.10051094 -0.2858192 -0.16109326 -0.8498066 -0.179814 0.24321057 0.5670581
these 0.1675746 0.1764583 0.007852892 -0.056341626 -0.29802108 0.23223244 0.03233253 0.37344247 -0.19089611 -0.23279144 -0.113449074 0.14773163 0.092070915 0.012060925 -0.15351029 -0.14270984 0.030730946 -0.021948664 0.04867982 -0.09324489 -0.15918514 -0.106096216 -0.13840851 -0.3102516 0.320772 -0.21953529 -0.095539734 -0.351988 0.07628979 0.13415943 -0.0074155335 -0.0150939645 -0.1040425 -0.38974324 -0.062139764 -0.37397298 0.056149818 -0.44931367 -0.4181334 -0.0029614738 -0.16273253 -0.11646929 -0.057576824 0.12951542 0.34607723 0.0556053 0.0013679466 -0.043834 -0.06877286 0.08832183 0.11540748 -0.21985416 0.050838772 0.07186735 0.05463112 0.04251454 -0.02228622 0.07105179 -0.010179841 -0.026797872 -0.026199875 0.032424938 0.12875347 0.09285118 0.040006332 -0.09929367 0.038945444 -0.05781499 -0.025114411 -0.15547182 -0.55942565 -0.06439717 -0.15154888 0.30647644 0.22916277 0.6203565 0.42922747 0.72497755 0.01667646 -0.66924256 -0.010089309 0.4557211 0.5399314 -0.0066465475 -0.6272151 -0.014718353 0.3085693 0.2214481 0.47120932 -0.18043639 0.35311404 -0.26144746 0.27638394 0.2789649 -0.3659925 -0.42635393 -0.45735446 -0.22418925 -0.07382103 0.71275353
can 0.08958449 0.059477396 0.26479027 0.23173408 -0.20220809 -0.11708037 -0.029134719 0.2664117 0.23576705 -0.5318592 -0.031102356 -0.07819864 0.2166828 0.18000695 -0.32625544 -0.18524283 -0.030754756 0.062765844 0.11516019 -0.17231087 0.05587677 -0.13821253 -0.17429382 -0.32405436 0.20606893 -0.031463534 -0.01660691 -0.1696044 -0.17797379 0.34179622 0.06620475 -0.15872829 0.16842917 -0.13130696 0.020315416 -0.3653002 -0.18828374 -0.08164608 -0.17085789 0.35250774 0.1507498 0.06811187 -0.29625484 -0.29993922 0.31256562 0.14366327 0.25664526 -0.08990837 -0.036743246 -0.111165315 0.18277411 -0.073127955 0.07927748 -0.08764691 -0.087868765 -0.1126059 -0.06192044 0.030997552 0.088927895 -0.13779859 0.10134933 0.07004218 -0.009854253 -0.016795443 -0.060257472 -0.2740531 -0.046614427 0.061023656 0.122373 -0.075802386 0.07869996 0.027196921 -0.11081178 -0.20133184 -0.020819107 0.33193666 0.34756643 0.6658796 0.67678607 -1.0314424 -0.5439382 -0.09619518 0.52049375 0.77198017 -0.9922653 0.24390875 0.34239858 0.17079605 0.3990531 -0.55553776 -0.31536213 -0.19390047 0.3658623 0.48163113 -0.70379835 0.28954792 -0.27463657 -0.33279046 -0.7128901 0.36182895
