37 100
from 0.16385531 0.28320885 -0.19566064 0.051499784 -0.08812703 0.106272094 0.2139614 0.22160248 0.29935792 0.3156453 0.04039747 -0.0041389707 -0.014435458 0.03376587 -0.09940452 0.027940175 0.10267575 0.19761118 0.03844726 0.44078287 0.24977306 0.014872295 0.028615428 -0.021997424 -0.3827527 0.25822604 0.080412425 0.17206721 0.21292436 -0.4576719 0.108916655 -0.029825114 -0.08631032 0.05221431 -0.31875515 0.023464598 -0.07499189 -0.015622079 -0.2056958 -0.021817315 -0.12988621 -0.09063249 0.06625575 -0.08212144 0.16884562 -0.31922346 -0.3084628 0.21831128 -0.15962395 0.40353382 -0.18644035 -0.029728051 -0.0812274 -0.19628297 0.4874382 -0.067374356 -0.19146249 -0.2868476 -0.4861142 -0.19136943 0.041597303 0.11868674 -0.010150838 -0.041532826 0.15147817 0.12890428 0.051020384 -0.2806778 0.20032172 -0.5822091 -0.1103845 0.30426311 -0.24514359 0.13301787 0.29010203 -0.21880355 0.039875362 -0.048800435 0.14504282 0.49559814 0.035760444 -0.014782374 -0.049429834 -0.2114109 0.07579023 0.042311613 0.09561511 -0.029580709 -0.00044414785 0.049504813 0.0013040432 -0.067265056 0.08602984 0.04284501 -0.07237919 0.09305393 0.17552891 -0.07653447 0.12271016 -0.19854882
using -0.086538285 -0.03172826 0.063996285 -0.2045351 0.15491188 -0.36204585 0.11128639 -0.31020334 -0.18470839 0.23146777 0.10667909 0.02636727 0.074541196 -0.21133272 -0.049487453 -0.3871746 0.15899192 -0.12144065 -0.07643455 0.23949982 0.2213648 -0.08302408 -0.1966739 0.21622822 -0.3081721 0.26842302 -0.23250061 -0.3334032 0.3484645 -0.4110846 0.24060704 -0.15924989 -0.13114233 0.024939377 -0.07387942 -0.0020778552 0.049932882 -0.020273844 0.27620053 -0.12892693 -0.12366734 -0.041593324 -0.100468166 0.30012003 0.1026011 -0.009939445 0.06998426 0.36080906 -0.33096915 0.23994958 -0.3724164 0.2703302 0.15475273 -0.108699694 0.30752894 0.26511374 0.07805902 0.52088195 -0.07748957 -0.14165767 -0.18827 0.044330213 0.015710972 -0.024515912 0.14835145 0.40087593 -0.1933891 -0.09517339 -0.042960815 -0.23497376 -0.39663422 0.03867722 0.05102416 -0.0040163035 0.32296735 -0.3866688 0.1639975 -0.053344335 -0.19679463 0.40223393 -0.07029393 0.14302215 0.13065825 -0.09586736 0.046317574 -0.047014296 0.04878831 0.15911674 -0.32762814 0.14314382 0.119099885 0.012544655 0.012879199 0.028226763 -0.20756388 0.0043681334 -0.09889693 -0.13789876 0.2726156 -0.15729232
<sep> 0.35117954 0.4603245 -0.14931768 -0.06708492 0.34930515 -0.36242664 0.0676225 -0.19396918 -0.021240225 -0.21723725 0.0434175 -0.053094108 -0.08503339 0.05374856 -0.06286054 -0.46643505 0.05427371 -0.19725822 -0.29205695 -0.014359457 -0.047408205 -0.17008391 -0.21494144 0.2725392 0.0685795 -0.16885 -0.34407786 -0.2642016 0.4190751 0.09325887 0.2732529 0.27767533 0.025877645 0.16404927 0.379253 -0.12338933 -0.18041399 -0.015974106 -0.005235548 -0.06901568 0.026262136 0.080289826 0.34816816 -0.008176209 -0.15384275 -0.107509665 0.029790793 0.34194633 -0.35844672 -0.1873581 -0.09478468 0.09149334 0.15010937 -0.33187813 -0.2835417 0.34601033 -0.027247123 0.07339681 -0.17078646 0.10148322 -0.0077136694 0.19056284 -0.051902782 -0.15474162 0.08945926 0.46286938 0.12807113 -0.085747786 0.3701843 0.38899148 0.21587764 0.33639506 0.045489118 -0.20092538 0.16706108 -0.093820095 0.2431299 0.14413983 -0.24757582 -0.07363319 0.016647447 0.02521226 -0.015994312 -0.106886275 -0.16614942 0.15551205 0.20963758 -0.0383065 -0.097783655 -0.0112873 -0.28771454 -0.39794415 -0.20307562 0.042052776 -0.038348887 0.08337755 -0.13856438 -0.07704967 0.2309706 -0.025410011
this 0.21318936 0.019643717 -0.18236364 -0.35643044 0.023667267 -0.2981093 0.13472511 -0.028729778 -0.027338665 -0.09105851 0.05266577 -0.086264156 0.024677698 -0.083503045 -1.7753271e-05 0.008718007 0.1921247 0.0053737992 -0.013473606 -0.074068695 -0.046214797 -0.008228714 -0.21031679 0.42943802 -0.079050526 -0.0221566 -0.08131212 -0.19455321 0.55851567 -0.089254744 -0.013907658 -0.0810486 -0.18328162 0.020500585 -0.09147634 -0.024916599 0.1047044 -0.056419753 0.29443893 0.006410296 -0.35906026 0.08061143 0.10198383 0.15111768 0.012471745 0.030213581 -0.15483233 0.49841538 -0.28488535 0.016402664 -0.116511814 0.1968529 0.12735213 -0.24208069 0.07713335 0.41383824 -0.0863053 0.0722306 -0.13989718 0.12346813 0.054295287 0.093670085 -0.0331628 -0.1038781 0.0053517846 0.13482308 -0.16235802 -0.29931828 -0.089443326 -0.02240012 0.15276416 0.16551143 -0.099609286 -0.47695738 0.13418335 -0.14640789 0.1521906 0.049047865 -0.40498364 0.012520075 -0.040965535 0.06291276 0.035964455 -0.020073127 0.02645157 0.06897443 -0.054778483 0.07102869 -0.29428875 0.02426367 0.21426173 -0.0487727 0.0092554325 0.17362082 -0.010955664 -0.028509563 0.035197426 -0.1517494 0.1690794 0.05816665
is 0.1150625 0.04180222 -0.18701425 -0.12254107 0.3081695 -0.40949827 -0.2069746 0.074067704 0.009620026 0.15817751 0.032759912 0.028418753 0.0109665 0.018786669 0.18138237 -0.5675463 -0.25243524 0.11897187 -0.036568988 0.13015619 0.12535271 -0.49277037 0.09649617 0.23642102 -0.37656873 -0.08343995 -0.72317624 0.23654535 0.13983573 -0.45569986 0.21024852 -0.27207854 -0.0647057 -0.098527215 -0.06901594 0.08082963 -0.07629587 0.01843027 0.20915423 -0.34409955 0.14460585 0.14495505 0.0066213883 0.028879425 -0.3709267 -0.29177204 0.27679086 0.237786 -0.2518677 0.3299148 -0.0026685256 0.5524711 -0.16889921 0.062494192 0.15743192 0.4106011 0.38266855 -0.1108905 0.09954759 0.078255564 -0.0979968 -0.0072730915 -0.026762253 -0.030165795 0.0692297 0.43005013 -0.064469606 -0.24355234 -0.08438572 0.08647655 0.0150282085 0.5253961 -0.34941402 -0.2091948 0.307849 -0.18520194 0.43556497 -0.22378176 -0.20002058 0.3643371 0.12592468 0.15427315 -0.028613456 0.17031379 0.008416667 0.012892719 0.14748043 -0.018908992 -0.063327916 0.331186 -0.25385487 -0.21001586 0.13601382 0.040364448 0.007099311 0.1719782 -0.0077927117 -0.07784975 0.111703895 -0.2422946
a -0.06994119 -0.06639165 0.0692479 -0.18558146 0.15905611 0.112526745 0.3507684 -0.1886507 0.16709614 0.15232952 -0.33217356 -0.25626948 -0.012712118 -0.4205873 0.33079028 0.01207352 -0.06816753 0.09824307 -0.042347867 -0.005717177 0.2528908 0.0020161555 -0.10508959 0.026270818 -0.60502607 0.026898371 -0.1535526 0.1685633 0.26614827 -0.6146278 -0.41227913 -0.44460532 0.41865188 0.06067727 0.3176687 0.12167722 -0.012379899 0.20840545 0.28817922 -0.3705213 -0.03815694 -0.13745347 0.15523449 0.19496097 0.28297424 -0.22581057 0.17053127 0.048897654 -0.08802902 0.7688285 0.03462456 0.41129258 -0.1610299 0.18146634 0.79763156 0.26214713 0.2583514 -0.06672605 -0.12296398 -0.31778067 0.38897458 0.2404558 -0.20095746 0.33242774 -0.10733396 0.14268328 0.4778715 -0.4014075 -0.17054692 -0.21901493 0.22763142 0.13379598 -0.15760826 0.13465682 -0.25947767 -0.015862763 0.21551222 -0.18570414 0.08215518 0.3789531 0.32696286 0.41257262 -0.20599371 -0.022941584 -0.14421752 0.24694751 0.46806845 -0.21542795 0.16204424 0.06729215 -0.14662094 -0.12757969 -0.002781729 -0.21843845 -0.056982305 0.24171257 0.06813231 -0.01420342 0.29622823 -0.32309496
of -0.068821885 0.06568173 0.16825756 0.06916756 -0.0040561464 -0.3752601 0.002272509 -0.23535225 0.020488672 0.33041936 -0.023115326 -0.022184433 0.5374585 -0.1340708 0.33572832 0.011891688 -0.023715563 -0.113768466 0.21185835 -0.08435179 0.39937827 -0.05773789 -0.12873851 0.19054723 -0.5375277 0.62474 -0.3468479 -0.042440664 0.12996976 -0.52124006 0.08244042 -0.032256007 0.0041928627 0.13796988 -0.046642188 0.31197244 -0.14496921 -0.19540288 0.10011834 -0.4166937 -0.11373787 0.2349193 -0.21231213 -0.43846336 0.17030703 -0.6046006 0.00893053 0.2291519 -0.2814844 0.8448385 -0.9195302 0.3956765 -0.32019502 -0.37465477 0.79931444 0.11094547 -0.12830037 0.20887296 0.085185215 -0.19848469 -0.194805 0.33639336 -0.63581467 -0.26437515 -0.03379125 -0.06092698 -0.1709516 0.5276453 -0.09841523 0.14401072 0.09612648 0.0969585 -0.12154546 -0.21458721 -0.15427472 -0.46906444 0.21468607 -0.1559607 -0.09311718 0.35584417 -0.15937622 0.049716644 0.035015218 -0.08787722 0.016665729 -0.3857432 0.12690438 -0.18782404 -0.019488072 0.1342223 0.13359785 -0.18121015 0.22506501 0.28252947 -0.03957242 0.11271322 0.07602835 -0.49173245 0.14756374 -0.37454623
and -0.16342478 -0.15893683 0.010601788 -0.17973125 -0.10008587 0.22499368 0.59441817 -0.046614308 -0.07809421 0.3211091 0.3802657 0.44496262 0.58779436 -0.46525294 0.09155456 -0.15398797 -0.1313227 0.023662964 0.049756993 -0.057284128 -0.032262493 -0.5001421 -0.36332747 0.43566445 -0.020626657 0.058769293 -0.5234547 -0.007919804 0.509658 -0.0032940758 -0.45742723 -0.5633912 0.44917932 0.012934319 -0.5720697 -0.25986153 -0.59250355 -0.23596501 0.42206407 -0.20827718 -0.43849945 -0.043702606 -0.1455815 -0.069891185 -0.19694608 0.3144513 1.0644033 0.4689724 -0.67490447 0.3227663 -0.10570278 0.8049224 -0.09203345 -0.41354248 -0.036136843 0.19008613 0.003622128 -0.3100114 0.0039747423 0.2915718 -0.38621557 -0.018685335 -0.70810974 0.2595538 -0.0030288605 0.88727826 0.6053778 -0.01016607 -0.17215191 0.4650506 -0.050515704 -0.087656915 -0.44161898 0.15693775 0.119999185 -0.047346782 0.33301502 -0.0769772 -0.20556273 0.038836367 0.17051521 0.24094117 -0.4338278 -0.045703348 0.2667882 -0.0069736857 0.20317337 -0.42218888 -0.028497733 0.14550582 0.26903743 0.06802276 0.35187843 -0.06483645 0.11864829 -0.40518284 -0.52319664 -0.4789709 0.44457737 -0.15512268
the 0.13355866 0.03152209 0.13774373 0.06601043 0.04641422 -0.09890259 0.22385044 -0.29923382 -0.29161355 -0.013157976 0.107995935 -0.11400903 0.44830394 -0.42281675 0.10402802 -0.11594261 0.039344564 -0.0043782433 0.26573133 -0.036280293 0.12345868 -0.071266375 -0.27998924 0.45797825 -0.020407878 0.10323266 -0.3938236 0.09775461 0.34627172 -0.015486714 -0.35725456 -0.15416782 0.5253938 0.2724632 -0.005991368 -0.020483071 -0.18087909 -0.006641479 0.41397536 -0.041826043 -0.24466409 0.05056081 0.010466505 -0.10256477 -0.16675952 -0.04305962 0.11862213 0.2842922 -0.78724796 0.03934192 -0.42211396 0.49741626 -0.25974482 -0.61039865 -0.05749953 0.49413761 -0.062082626 -0.10806721 0.05345336 0.078316644 -0.2664279 0.32967484 -0.68244916 0.1137472 -0.21788187 0.60773367 -0.07672556 -0.053839944 -0.6107655 0.26132622 0.1690396 0.029751442 -0.31483784 -0.016546858 -0.0587977 -0.11261287 0.29537538 -0.21065065 -0.3077834 0.004138009 0.32273588 0.1276804 -0.31053522 -0.1435099 0.042507146 0.11993037 0.26896366 -0.38944295 -0.16296236 0.030900829 0.09266602 -0.101489 0.18874153 0.0452331 0.08821408 -0.1652075 0.10766438 -0.40390897 0.47924682 -0.11818309
are -0.1494527 0.042142466 0.11853521 0.04813553 -0.056986395 0.07198393 0.077683434 -0.32318094 -0.12446927 0.11861277 0.1336205 0.53671974 0.059692293 -0.29732588 0.16794191 -0.045653865 -0.19258207 0.100634724 0.090272665 -0.28317508 0.25741765 -0.35447872 0.0029774883 0.34005454 -0.3053573 0.048651572 -0.38578105 0.3008823 -0.062113695 -0.20042615 -0.3266086 0.12184372 0.3742286 -0.08323801 -0.2243334 -0.14840914 -0.43275374 0.25955257 0.12474962 -0.18886991 -0.3851167 -0.13064982 0.015384157 -0.025568869 0.37729076 -0.25529614 0.42910227 -0.06861514 -0.54853195 0.4760806 -0.18716237 0.4240828 -0.49285743 -0.06054276 0.51266855 0.018630112 -0.27959955 0.11046914 0.058090337 -0.03829017 -0.047775544 -0.3858297 -0.39957628 0.36012864 0.19671835 0.45986858 0.49559164 -0.2447894 -0.18295527 0.33307764 0.016150698 -0.20059954 -0.15657355 0.13200751 0.22805353 -0.046946377 0.30748305 -0.35510987 -0.018048588 0.23931052 0.05775895 -0.12322313 -0.15801552 0.11474323 0.16566066 -0.040636003 0.010603766 -0.30052656 0.107464865 0.17264745 0.1939529 0.14008099 0.09242653 -0.11071458 -0.267828 -0.039314408 -0.44723043 -0.08080181 0.3442286 -0.23099741
in -0.40427145 -0.44113454 0.17774118 -0.39627632 0.2936276 0.037603363 0.17604776 -0.21314749 0.04928251 0.08141411 0.087813824 0.25431037 0.0220575 0.11156564 0.30161518 -0.10300702 -0.065119825 0.048213225 -0.00047285412 0.25400653 0.35785896 0.16017686 -0.06820344 0.30942646 -0.7250122 0.35868528 0.25047356 -0.2780038 0.11937537 -0.5603413 0.045940444 9.351142e-05 0.04698371 0.13898705 -0.16579446 0.0017663985 -0.106564455 -0.12918305 0.18934506 -0.49307638 -0.3861171 -0.45816267 0.16919975 -0.092398554 -0.08532184 -0.38239676 -0.17976284 0.07952291 -0.3723979 0.4800777 0.030538546 0.15221688 0.057498783 0.15301062 0.22358847 0.06510859 -0.14121789 0.048034318 -0.20558132 -0.3408199 0.08457854 0.057379358 -0.21236625 -0.40250355 -0.16607723 0.3892199 0.39656132 -0.16162105 0.013290244 -0.27791485 -0.038273357 -0.01098722 0.048983254 -0.020181207 0.5575774 -0.09604654 0.041982066 0.1470793 0.021177717 0.37471864 0.34191754 0.39956656 -0.31792185 -0.07138785 -0.049908407 0.1616125 0.1649674 -0.066182114 -0.10100394 -0.011218266 0.23938404 0.2101143 -0.10075261 0.029039042 -0.17387246 0.384527 0.19826296 -0.10270603 0.18376626 -0.1257606
for 0.14714912 -0.023473462 0.5718597 -0.20271157 0.19622691 -0.18215863 0.17627957 0.03226166 -0.16301405 0.069719255 -0.3774271 0.1586862 -0.07943357 -0.18849365 0.24404404 -0.1858229 0.18566346 -0.08163461 0.082622655 -0.0044169887 0.42887783 -0.16504067 -0.26724613 -0.024387676 -0.4583552 0.18814662 -0.102934234 -0.27921495 0.24907796 -0.33652407 0.11589646 -0.1401786 -0.18369427 0.18176669 -0.12537967 0.4236147 -0.20623152 -0.14389257 0.20234706 -0.36147043 0.45244926 -0.21714829 0.36453816 0.07080517 -0.2024971 -0.14795977 -0.020537598 0.5886002 0.017054485 0.27631575 -0.27923647 0.100336306 -0.18720157 0.04130712 0.08971434 0.3310304 -0.17564477 0.0988868 0.2416736 -0.2673249 0.048919026 -0.07487977 0.25423667 0.31115758 -0.0788403 -0.032091264 -0.09535938 -0.001614776 -0.26487282 0.15630905 -0.46683624 0.30145636 -0.23419975 -0.14524694 0.38340217 -0.280993 0.10430915 0.03924443 -0.12896197 0.24188432 -0.27729726 0.19046535 -0.066809975 -0.15094712 0.12745538 -0.06271601 0.047901466 0.15372986 -0.19247323 0.064384416 -0.0056089237 0.018396687 -0.032123484 -0.15989926 -0.0048375097 -0.15006998 0.2384776 -0.54402333 -0.078089006 -0.07838936
to 0.21992674 0.09667298 0.6756314 -0.33455047 -0.2796222 -0.010449703 -0.008577527 -0.2338392 -0.06652941 -0.02770909 -0.1808323 0.14884278 -0.21982683 -0.16817342 -0.070904925 -0.397801 -0.34909984 -0.06977892 -0.0623361 -0.3114934 0.16041769 -0.26691687 -0.37744728 0.6146198 0.0123426225 0.13185509 -0.013427523 -0.48000655 0.31897303 0.49375635 -0.04352469 -0.048586 -0.04529312 0.14883558 0.19818552 0.1460799 -0.24314284 -0.030656045 0.37591204 0.24582314 0.044436034 -0.3705276 0.43733013 -0.014176418 -0.027725708 0.05564303 0.1469206 0.40186527 -0.60004205 0.14032406 -0.30726725 -0.08940757 -0.18682002 -0.05210964 -0.084586844 0.1746632 -0.10498034 0.115100235 0.14820507 0.06594737 0.3232111 0.20446557 0.02072717 -0.15857208 0.3741749 0.5714394 0.71532476 -0.17051114 0.060383633 0.34739298 -0.43379706 0.2578822 -0.09685248 -0.34843576 0.00927295 -0.15529571 0.04348839 0.105020046 -0.17499456 -0.2926548 0.16753927 0.38737205 -0.439512 -0.084806755 0.23491693 0.055943727 0.20992436 -0.26264027 -0.1875237 0.26830113 0.15064012 0.19400777 -0.2512667 0.060831748 0.13331708 -0.3526605 -0.019997979 -0.5922998 0.21113722 0.02978722
be -0.06659423 -0.25763625 0.6773616 -0.24871083 0.095023 0.15296209 0.13044438 -0.16797893 -0.22901362 0.05893562 -0.013744065 0.17001186 -0.07125671 -0.19271024 -0.0034712928 -0.09569375 0.14820556 0.018095894 0.13992034 0.010277378 -0.040966097 -0.17293702 -0.3124552 0.29132694 -0.06061071 0.2784446 0.08637862 -0.5811575 0.23953502 -0.054477558 0.018945368 -0.031960864 -0.11300343 0.17257938 -0.058004223 0.12050967 -0.15496373 -0.19333114 0.18497953 -0.024927162 0.22629285 -0.36302572 0.47107893 0.027351454 0.06711839 0.4457803 -0.065672964 0.47907704 -0.3527412 0.15477389 -0.04265459 0.16381992 -0.09695807 0.032551415 -0.017122233 0.034718666 -0.14483565 0.06301962 0.3126101 0.003753216 0.3599258 0.06340517 -0.10959398 0.05628795 0.09073335 0.009408432 -0.014121367 -0.23441587 -0.2826908 -0.022026373 -0.20696421 0.32089245 -0.11933851 -0.11095499 -0.1348365 -0.18054573 0.058746185 0.20750554 -0.1326003 0.028180338 0.14838862 0.2625633 -0.43828732 -0.1950311 0.0017085886 0.3480231 0.027308138 -0.093151405 -0.18013719 0.00056205934 0.07579138 0.023022471 -0.19167453 -0.08035632 -0.021350352 -0.22990933 0.29050976 -0.5672873 0.26064274 -0.19591531
by 0.095141694 0.53060794 0.27339345 -0.21052995 0.09799958 0.023451762 0.27899018 -0.26165962 0.07211228 0.29256162 -0.26652396 0.030023547 -0.067026325 0.011105141 0.26045758 -0.19237475 0.121164896 -0.022515852 0.1514059 -0.059387594 0.3083648 -0.42295942 -0.009161266 0.2229137 -0.11849363 0.21179369 -0.47751224 -0.2284679 0.1574193 -0.19009624 -0.07358397 -0.3130617 0.049246356 -0.067868635 -0.16003603 0.21629198 -0.16873847 -0.08751602 -0.054030273 -0.15114494 -0.0772083 0.15118715 0.30183214 -0.29179987 -0.024235016 -0.29419234 0.4130994 0.18071647 -0.36185232 0.19357188 -0.28908947 -0.073495395 -0.03196586 0.037156492 0.037322704 0.2434356 -0.23105258 0.18953772 0.097010635 -0.39181143 0.2834427 -0.0009409732 -0.06553495 0.06285151 -0.26903147 0.34267125 -0.16039608 -0.123180605 -0.0033094247 0.17932922 -0.39350626 -0.068395115 -0.12661485 -0.005901259 0.17422464 -0.19968118 0.20490313 0.07689126 -0.02601654 0.1233555 0.1848089 -0.0085251415 -0.34426922 0.20853291 0.19103354 -0.13133149 -0.15391143 0.0019519308 -0.034216624 0.25288352 0.10494659 -0.1424248 -0.07937337 0.08222785 0.12642813 -0.052416123 -0.503858 -0.22942209 0.35988578 -0.037620876
with -0.24420032 -0.29933727 0.11341765 -0.19048478 0.4391221 0.050073225 0.1126026 -0.15578209 -0.14422762 -0.0745609 -0.21476665 -0.19066164 -0.02659402 -0.46501148 0.3421373 -0.24199857 -0.14737636 0.25376457 0.05075141 0.28313154 0.19211556 0.060315523 -0.10361267 -0.048110943 -0.5211786 0.33720973 0.07699592 0.13321741 -0.09279483 -0.527888 0.05497259 0.014389086 0.19461648 0.119112864 0.16728365 0.12828673 -0.24642074 -0.14225495 0.04773195 -0.88760084 -0.01432486 -0.029877918 -0.033810254 -0.07606476 0.06259832 -0.20228249 -0.27823362 0.058948133 -0.03143085 0.33314744 0.085701264 0.34786132 -0.30300948 0.21584694 0.12525283 -0.09436639 -0.27072164 -0.010881809 -0.08259793 -0.25559986 0.09047456 0.39282587 0.1911051 0.65221435 0.38607174 0.3357159 0.1859344 -0.46506238 -0.2555455 -0.44063425 0.19127934 0.31337413 -0.01054867 0.26781425 0.27516684 -0.030780742 0.058984406 -0.060163748 -0.042403765 0.2993712 0.08111112 0.094606705 -0.15260324 0.19897121 -0.25913844 0.008845757 0.23196451 -0.0034182577 0.20091881 0.42604047 -0.04451278 0.07905743 -0.12480911 -0.029810855 -0.09219375 0.27877885 0.34066468 -0.029566785 0.11843325 -0.09622072
as -0.14271374 0.20640658 0.10387559 -0.18081139 0.2399891 0.030305892 0.009240988 0.31093988 -0.17911638 0.028638765 -0.10967432 0.13064289 0.47450635 -0.09083896 0.2131616 -0.051674884 -0.001350553 0.13050818 -0.017837983 0.04051867 0.3648561 -0.2538284 0.078773476 0.03552704 -0.18766898 0.36322814 -0.14246286 0.0671038 0.10411395 -0.45895204 -0.14286904 0.06705477 -0.2106005 -0.09156958 0.102942206 0.7547761 -0.36316362 -0.23011528 0.4486078 -0.61461353 -0.04421088 0.13788967 0.04938407 0.021890266 -0.09307378 -0.08531166 0.24472763 -0.019374546 -0.29397762 0.17709821 -0.36292168 0.10728253 -0.21907271 -0.10897183 0.29587078 0.29668075 -0.09078526 -0.09332205 0.37868503 -0.31650323 -0.49448344 0.22204214 -0.40615243 -0.4276745 0.24468088 0.15345874 0.048998818 0.121397406 -0.23229444 -0.0022176625 -0.4647943 0.23783545 -0.42576945 -0.04836638 0.16139697 -0.28286123 0.26008692 0.021324294 -0.15679412 0.14696904 0.14368765 -0.028911483 -0.07059844 -0.10247222 -0.14026776 -0.4331535 0.22693463 -0.06292454 -0.45007345 0.4068711 0.027980722 -0.13830338 0.11422937 0.12242806 0.036660977 -0.156947 -0.08452399 -0.19503807 0.06574881 0.070093654
an -0.24761382 0.03201024 0.24154572 -0.30815127 -0.21916935 0.26929697 0.15630801 -0.08199861 -0.13920149 0.15967903 0.08043076 0.16064467 0.27003703 -0.46952283 -0.024477517 -0.28108558 -0.31726924 0.17994483 -0.11100643 -0.318857 0.52962005 0.24453448 0.0466022 0.24316266 0.29518634 -0.016950935 -0.37146628 -0.3405909 0.28121093 -0.04067678 -0.25702354 0.007303857 -0.047801487 0.014978142 -0.19184409 0.31597927 -0.22822791 0.026557047 0.5888481 0.44129288 -0.23913752 -0.29187146 -0.17413862 -0.061921425 -0.1168222 -0.26873228 -0.06126793 0.13333914 -0.14562398 -0.30051512 0.24147534 0.4569671 -0.095369056 0.0027539257 0.12712176 -0.026665915 -0.37255988 0.17947264 0.25535277 -0.11258758 -0.50162995 -0.20027475 -0.385369 0.13511738 -0.56827515 0.6686098 0.6002812 -0.19413577 0.046868913 0.43368095 -0.45883632 0.002824755 -0.46395114 -0.033519767 -0.046518628 -0.22552888 -0.07752929 -0.13758807 -0.17224589 -0.24209273 0.102664985 -0.08430975 -0.19909333 0.20270616 0.10796341 -0.1172547 0.2894809 -0.1334527 -0.20726006 -0.16000302 0.36965194 0.2054141 0.19701687 0.020483622 0.13645737 0.09724748 0.33899838 -0.25290745 0.030293139 0.3289807
two -0.1859595 0.060677115 0.24559149 -0.10554848 -0.047640435 0.351858 -0.055671554 0.015532283 -0.27262563 0.092041284 0.20607994 0.017477112 0.30646574 -0.23402037 0.095067516 -0.019173378 -0.09589298 0.36540678 0.0052258866 0.050108876 0.084599786 -0.20127007 -0.08183279 0.029647794 0.005716325 0.20927578 -0.1730481 -0.03434693 0.4521624 -0.0055741942 -0.29501122 0.057309605 0.028014956 0.09740383 -0.09412883 0.05299449 -0.23401578 -0.30740443 0.5274581 -0.09810523 0.1461547 0.07831788 -0.035857733 0.0873635 0.025346404 -0.273745 0.049087703 0.14163193 -0.11734315 -0.075505145 -0.14933367 0.23177257 -0.3323932 -0.37356725 0.022783713 -0.15495281 -0.05509963 -0.0080061285 0.4155643 -0.0066619054 -0.3736471 0.1401221 -0.050148 -0.2048838 -0.03435834 0.16043623 0.044747397 -0.4014562 -0.25647426 -0.0068638152 -0.12685989 0.3376816 -0.3600267 0.027082173 -0.09173587 -0.029640783 0.17610908 -0.02354148 -0.12396743 0.027743228 0.13316548 -0.05510263 -0.18943991 -0.079468094 0.0029095085 -0.1354628 0.14609736 -0.0070492215 -0.44425443 -0.012161834 0.05464917 -0.049664743 0.021889187 -0.13851915 0.09197772 0.06673953 0.10573277 -0.27011597 -0.0047176215 -0.04520614
on -0.18310541 0.22012825 0.048397787 -0.044359155 0.1269563 0.11010671 0.18606976 -0.06262976 -0.047603317 0.25914526 -0.0039493022 0.39361337 0.052402075 -0.065355495 0.11593641 -0.34076896 0.14336489 0.24772504 -0.11664802 0.0570679 0.43358064 -0.18263182 0.02530691 -0.018953107 -0.1379009 0.05292853 -0.57064795 0.33747953 0.28294387 -0.30260056 -0.21362722 -0.20485584 0.1140499 0.052351914 -0.016229196 0.50774086 -0.52969366 -0.0107692955 0.055418298 -0.56533563 -0.11555633 0.03793897 -0.02052812 0.13582808 0.016993407 -0.11844203 0.24096471 -0.051052384 0.009897759 0.22741786 0.21726017 0.34448692 -0.47074655 -0.025624618 0.2531271 0.26633564 -0.039115526 0.02490581 0.15245998 -0.47976604 -0.49915752 0.08943523 -0.058915492 0.05161209 0.49480957 0.68744636 0.06787838 -0.3854744 0.16091377 0.14861713 -0.36804762 -0.2197465 -0.186896 0.14788432 0.12956092 -0.11351244 0.26186165 -0.13518773 0.13235053 0.19774543 0.10412032 0.0025796648 -0.15614603 -0.007424949 0.17687197 -0.24505018 0.26387343 -0.1593794 -0.07924739 0.5335219 0.26853293 0.23803784 -0.0957576 -0.1045271 -0.05494761 -0.06141906 -0.36730495 -0.039896928 -0.016280785 -0.032600705
time 0.06436496 0.14546838 -0.07424164 -0.17755038 0.10428751 -0.11045299 -0.053414546 0.1767109 0.067740545 0.35095733 0.019952899 0.06491477 0.017938899 0.057963744 0.10285459 0.087782204 0.10858963 0.082795545 0.100769825 0.117485 0.18518353 0.21181078 -0.16721325 0.071502246 -0.29601187 0.015454045 0.038139824 0.0022718743 0.031884912 -0.09896376 0.03052426 0.043221463 -0.1728528 -0.036961943 -0.16939883 0.057767175 -0.09758488 -0.010241008 -0.07910009 -0.14348733 -0.07398385 -0.08277512 -0.17107973 -0.00055360683 -0.33323568 -0.06950425 0.19568333 -0.06102287 -0.078572094 0.30413184 -0.051247578 -0.08124619 -0.055702336 0.032821957 -0.047191747 -0.11656717 -0.12346748 0.19815636 0.1472527 0.0039545367 -0.16712688 -0.16827741 0.17057303 0.033133943 0.11808577 -0.2994716 -0.20421053 0.059937514 -0.09292385 0.21640399 -0.07183384 -0.03275645 -0.08029481 -0.077553086 -0.018371565 0.019507298 0.22144692 -0.037032474 0.067995116 0.38451993 0.18331103 0.07172738 -0.10585996 -0.21657452 -0.04330048 0.04859038 0.25664952 -0.13002475 -0.17902529 0.24273784 0.1745278 0.13723092 0.035201017 0.22738665 -0.026110852 -0.03887302 -0.017097678 0.035742782 0.20912522 0.05232585
it -0.12409277 0.036035053 0.28099322 -0.23619147 0.20982403 -0.20415217 0.08031225 -0.05235932 -0.15795676 0.24183092 -0.0733904 0.058784872 0.065544315 -0.2723811 0.12831709 -0.11736907 -0.007106137 -0.06254735 -0.22743782 0.20270287 0.075886615 -0.096597165 -0.05358641 0.104666114 -0.13990232 0.04198837 -0.08191388 -0.036545992 0.17997997 -0.1029261 0.08638853 -0.0118689295 0.06556268 0.048401456 -0.104047276 0.14057812 -0.009402405 -0.046431847 0.043337394 -0.10542606 0.30328724 -0.15778571 0.10556504 0.12736619 -0.1989793 -0.31252664 0.0311809 0.21771528 -0.075474344 0.30491975 0.06825065 -0.05572405 -0.095463075 0.11678384 -0.02394317 0.101442866 -0.11519096 -0.08146937 0.086332016 -0.06554337 0.028387401 -0.034386646 -0.019797187 0.11706878 -0.032897312 -0.012938743 -0.09577325 0.14143609 0.12318389 0.16526276 0.0496135 0.008590025 0.1646058 0.0033720974 -0.044440143 -0.43961325 0.21345833 -0.06324265 -0.19738002 0.32043508 -0.025270395 0.13815396 0.13227572 -0.22133751 0.04008821 -0.33383146 0.10321842 0.22080249 -0.03345685 0.2254919 -0.09875604 0.031413965 -0.35106197 0.024054442 -0.025244119 -0.04155317 -0.013297279 -0.2360758 0.011870802 0.04824296
our 0.24837476 0.38472548 -0.018585425 -0.2660459 0.16665468 -0.2129732 0.10123405 0.10774615 -0.16970454 -0.13776605 -0.014914752 0.12604435 -0.09130457 -0.10902078 0.030176064 -0.019858776 0.33936885 -0.09720104 -0.13318852 0.22959466 0.19188508 0.061024576 -0.22462523 0.14219898 0.28115177 0.017967151 -0.1041505 -0.0004582437 0.093549795 0.01592789 0.15764704 -0.0333228 -0.06515927 0.061682478 0.099228606 0.0014017784 -0.017078072 -0.024470497 0.06471873 0.07199618 0.35706273 -0.07820936 0.17286332 0.21350507 0.07981871 0.17777652 0.32877517 0.10729143 -0.29496816 0.05284466 -0.0014718635 0.057936594 0.033344056 0.0051084883 0.25791255 -0.10935117 -0.20225573 0.1801043 0.13547894 -0.18207262 -0.18304236 -0.23988034 0.19242571 0.023125347 -0.22201419 0.1487014 0.13859606 0.49418426 -0.1407159 -0.030206125 0.06770616 -0.08849988 0.025798319 -0.04913691 0.0033752345 -0.11134539 0.2027029 -0.09465871 -0.1884298 -0.18773328 0.07873608 0.19253387 -0.2129963 -0.13532339 0.09334758 0.10418594 0.26815397 -0.10076284 -0.3230272 0.11721576 -0.28002268 -0.005858665 -0.33388272 0.086932614 0.18230473 -0.1165168 0.019243473 0.011630921 0.082554996 0.035767935
at 0.22729607 -0.0008350035 0.06433693 -0.3343655 0.056239754 -0.18801688 0.03866568 0.16117951 -0.11505496 -0.051515337 0.085590616 -0.019493794 0.034041785 -0.2232745 -0.013251233 0.039676975 0.008837231 -0.03278084 -0.19414696 -0.08449913 0.22423092 0.010552905 -0.25815892 0.015631739 0.023552433 0.027364068 -0.011344601 -0.027607458 0.12263542 0.028149664 0.15809697 -0.0027411827 -0.11409699 -0.03190989 0.05118794 -0.026423465 -0.013748673 -0.06981321 0.14613684 -0.056500334 0.078138426 -0.15376545 -0.0056220884 -0.0068857633 0.07750199 0.13293135 0.0752786 0.11325727 -0.36254588 0.114076965 0.06616808 0.016346822 -0.11029629 0.024325779 -0.04821329 -0.18807352 -0.12062816 0.18331197 0.14249603 -0.015636627 -0.15138635 -0.054453243 0.20149109 0.14374153 0.0029935914 -0.13129905 -0.06930772 0.2857349 -0.11864129 0.053250164 0.17158876 -0.033055577 0.048811037 -0.073641986 0.06824467 -0.15124562 0.20932093 -0.04143601 -0.25649408 0.022204582 0.14137469 0.06037154 -0.10634116 -0.092236556 -0.021291474 0.2713022 0.15910381 -0.026454603 -0.2689352 0.109324016 -0.01240834 0.12858886 -0.29313767 0.13436864 -0.12568723 -0.16247818 0.034060128 -0.08186862 0.010758597 -0.07159573
we 0.019290268 0.13593285 -0.015801413 -0.08968067 0.2770021 -0.28942794 0.024616117 0.089860134 -0.11541466 0.1510002 -0.15177262 0.020197723 0.003935774 -0.09168483 0.31081223 -0.25409687 -0.24079363 0.0506914 -0.17647319 0.25380015 0.14150319 -0.14787456 -0.12102509 0.027030895 -0.030306641 0.038093876 -0.051965546 0.023541188 0.022401541 -0.16184434 0.19328386 0.112111725 -0.13609055 0.043448437 0.006360221 0.086266614 -0.17804734 0.019845368 0.07267514 -0.12760602 0.3968708 0.22361986 -0.10880726 -0.03770839 -0.09804733 -0.04580704 0.3543247 -0.07502636 -0.14643714 0.21678407 -0.027032658 -0.11343402 -0.07213869 -0.11353096 -0.046049334 -0.10127418 -0.057664413 0.18011129 -0.074925095 -0.13090788 -0.12436473 0.036922134 0.1518384 -0.03170645 -0.14503066 0.06495182 0.32860276 0.041301347 -0.22118984 -0.08569665 0.058095127 0.186245 -0.03853305 -0.015796917 0.06181811 -0.12181496 0.26704183 -0.16412848 0.04515337 0.25301552 0.082712114 -0.07036161 -0.049542252 0.13942939 0.1477363 -0.051545996 0.22997785 -0.1094135 -0.008892193 0.17027204 -0.27252194 -0.4482085 -0.03884957 0.023343991 0.008768367 -0.107469074 -0.087773606 -0.058197975 -0.084770866 0.0199299
model 0.12970077 0.059947606 -0.021549044 -0.09771798 -0.06481339 -0.081390575 0.031841252 -0.05282852 0.14129686 0.09272514 -0.23666845 -0.38098964 0.03619228 -0.48359445 0.16438067 0.07721719 0.20956805 0.10371098 0.15784672 0.12469757 -0.029511742 -0.11389631 0.019256605 -0.08261384 -0.13460878 0.010676662 0.036025736 0.02417221 0.045306705 0.08248643 0.05261757 0.048529133 0.038577076 -0.088377394 0.06403088 0.07923637 0.04531743 0.017889192 0.27244148 -0.058042143 0.14748694 0.2772033 -0.21125567 0.026664875 -0.11559237 0.0700571 0.20039785 -0.102845326 0.00023790948 0.07769671 0.26136687 0.24983646 -0.105295286 0.08158826 -0.15768702 0.037073202 0.09796409 0.060114536 0.14516717 0.0118846 0.11336435 0.06598627 0.18637489 0.21651019 -0.019185312 -0.020224199 -0.31560555 0.11705393 -0.17331144 -0.025550816 0.2930558 0.36987153 -0.02066356 0.35076421 -0.14761186 -0.13631181 0.1909004 -0.006653095 0.18018644 0.51253766 0.058266304 0.23450014 -0.059047345 0.07333571 -0.0888092 0.18972372 0.23625611 -0.26539603 -0.06798711 0.035791706 -0.16280304 0.03266149 -0.08674656 -0.16972929 0.16961494 0.08460607 0.005280329 -0.06348417 0.11095416 -0.13331291
when -0.0051785633 0.05719503 0.029242862 -0.052942134 -0.03385534 -0.07622109 -0.02478271 -0.061797865 -0.078122295 0.15553263 0.15820158 -0.007801773 0.47361904 -0.19902481 0.21751912 -0.22740693 0.017402934 -0.14776817 0.091124944 0.0327671 0.17233557 -0.037198134 0.09104395 0.026356155 -0.12432546 -0.10925749 0.045585055 -0.10640755 -0.00349781 0.074445926 -0.06482598 0.040713385 0.08873913 -0.060797267 0.038892347 -0.023093522 0.090303876 -0.32818046 0.0031673103 -0.13655365 -0.06925856 -0.09722712 0.05981686 -0.10358869 0.16441748 -0.188841 0.01323674 0.0041794837 0.01278941 0.13269393 -0.08544745 0.049607497 -0.17949131 -0.051411532 -0.014888576 -0.075313315 0.0065247687 -0.12522149 0.08301203 -0.06666531 -0.025637455 -0.04640365 -0.27436334 0.084640004 -0.086857066 0.18686818 0.04523036 -0.053739864 -0.0036678815 -0.08237986 -0.15776913 -0.10381141 -0.44241872 0.085581385 0.04471977 -0.4778326 0.10358045 -0.071903594 -0.0974225 0.40849152 -0.06753528 -0.18362108 -0.0025008898 0.26609167 -0.013738103 -0.2239598 0.19566603 -0.025261063 -0.20304874 0.16221143 -0.1036809 0.032927167 0.37013096 -0.030012986 0.100439705 0.07531869 0.0672491 -0.13892135 -0.07574926 -0.12228293
that 0.016499799 0.01718257 -0.12410388 0.0027076113 -0.045765687 0.10213619 0.20832363 0.10308522 -0.024864465 0.10898927 0.3445238 0.4003555 0.53840464 -0.35762694 0.060920138 -0.20304973 -0.11436484 -0.14875579 0.033827376 -0.16047733 0.09493476 -0.14196144 0.121845044 0.10954393 -0.17378308 -0.022206683 0.039337028 0.048376426 0.043189634 -0.17120203 -0.04172162 0.034014635 -0.0752078 -0.10909144 -0.005126662 -0.3297656 -0.3228251 -0.27427092 0.22848606 -0.1637315 0.44551212 0.5502285 -0.059993185 -0.06565463 0.44518793 0.096601725 0.23989332 -0.09136915 -0.11564599 0.18955119 0.10182409 0.12948784 -0.2391102 0.16561927 -0.03307721 -0.17528988 -0.213072 -0.12398318 0.10135136 -0.14561264 -0.33968872 -0.16183165 -0.23295277 0.10106981 0.06228585 -0.19972835 -0.06155178 0.049360823 -0.03611508 0.045183916 0.034398735 0.2822562 -0.27869895 0.22215728 0.2630459 -0.15819745 0.286301 0.00052170036 -0.31502303 0.11641727 0.17527094 0.12782466 -0.03240688 0.008930341 0.30011702 0.14289832 0.3313931 -0.25410745 -0.101897664 0.1185371 0.17785604 -0.010852812 0.16784538 -0.20478271 -0.13299376 -0.12233304 -0.15455654 -0.22391224 0.13329051 0.0046219137
magnetic 0.004600725 0.030696722 -0.05247151 0.05291456 -0.0046482794 -0.055478856 0.006470033 -0.021086553 -0.21687874 -0.0076248683 -0.008138705 -0.16378266 0.41425937 -0.2502326 0.016662832 -0.076018125 0.097222984 -0.031927902 0.089648955 0.019724695 -0.085738234 -0.10204065 0.114483766 0.10412293 0.03007832 -0.23984477 0.058697376 -0.0010620345 0.021596966 -0.0100889085 0.087758206 0.018594405 0.03807825 -0.021303695 0.008852468 -0.14701559 0.0830882 -0.20651542 0.19063947 -0.07392212 0.20661311 0.014654273 -0.1873961 -0.34400806 0.029031934 0.1269116 0.1065942 -0.12256212 -0.15575671 0.030398611 -0.1421834 0.10023738 -0.25038335 0.03731662 -0.022381729 -0.04553646 0.039332286 -0.038468026 0.12010402 0.011407759 -0.016171038 0.029097807 -0.1070304 0.23353821 -0.10248952 -0.099602945 -0.024187582 0.029544722 0.23626406 -0.13818407 -0.14365108 0.12252537 -0.37566003 0.054983947 -0.093841806 0.04926025 0.19139333 -0.013934585 -0.38161796 0.017941171 0.23387484 0.017445225 -0.0990901 -0.021580072 0.07354883 0.043863136 0.19986348 -0.29060182 -0.23612204 -0.0013835428 0.20211872 -0.027560035 0.22391224 -0.25365993 0.17451791 0.01805568 0.024530435 -0.17753914 0.06823737 -0.053822994
have 0.0748742 -0.07125318 0.011696293 0.1453978 -0.02738556 -0.0040596533 0.1429368 -0.12556012 -0.1756652 0.16873688 0.2136071 0.30015665 0.13818388 -0.1783061 0.07110952 -0.20100415 -0.08368119 0.05308228 0.07074287 -0.061076578 0.19793607 0.09054337 0.06889603 0.088936105 -0.12864621 0.062100295 0.07691597 -0.036739167 0.07482143 -0.056839157 -0.09076202 -0.054176994 0.07127202 0.029447546 0.046612885 -0.13558097 -0.17522626 -0.07532955 0.14678642 -0.007925072 0.17922834 0.033826366 -0.19472128 -0.16897458 0.2168188 -0.019368093 0.036922712 -0.11954651 -0.049113214 0.08947981 0.20020188 -0.093675055 -0.13836089 0.2061678 -0.030519633 -0.117724106 -0.061755124 0.028793087 0.07376942 -0.062432483 -0.36544877 -0.49361345 0.15577881 -0.006847563 -0.08563272 -0.07782006 -0.3244634 0.14363798 0.05159437 -0.15399188 -0.047578517 -0.41590488 -0.11527685 -0.008825105 -0.059847243 -0.3903833 0.21713969 -0.15503117 -0.26236972 0.34874812 -0.014704741 -0.077981584 -0.02233755 -0.12801489 -0.109805994 0.17972073 0.13794145 -0.31380618 0.13761021 0.22866055 0.090686865 0.5184391 -0.03577233 -0.05242309 0.14198714 -0.0137857245 -0.12478131 -0.08746453 0.092850745 0.07144913
between -0.28487659 -0.3033318 0.16725878 -0.29442 0.25787568 -0.010576285 0.11915592 0.11177113 0.1343684 0.3324551 -0.06028325 -0.027227027 0.06755482 0.031698093 0.33709756 -0.037630744 0.20517448 0.02550837 0.106489226 0.36101493 0.050961528 -0.18721804 -0.06460841 0.12412799 -0.61631376 0.04005704 -0.03588296 0.036282264 -0.009620385 -0.13805479 0.078350164 0.027086442 0.056954116 -0.14685866 -0.14079306 0.0026661896 -0.00865585 -0.09477383 -0.25726062 -0.18023704 0.19594626 0.16156116 -0.16891642 -0.0022610137 -0.35650685 -0.13060613 -0.040046785 -0.07164003 -0.10407275 0.33473352 0.11464154 0.104984 -0.09227775 -0.090170726 0.14701664 0.023380008 0.1790585 0.024560887 0.042443186 0.25227463 0.08178291 0.067793384 -0.056482073 0.2058474 -0.22630616 -0.16440189 -0.26464298 -0.102580614 -0.3001948 -0.22254366 0.018454678 0.10588868 -0.00032513638 0.07835209 -0.010799259 -0.0627343 0.084356554 0.027078133 0.0796013 0.14564396 0.16767515 -0.0063867625 -0.1849182 -0.0023130935 -0.31580168 0.0825741 0.09846378 -0.16161953 -0.13593726 -0.053784974 -0.009712727 -0.007525226 0.13608457 0.043601595 0.14332314 0.15494244 0.049238905 0.08395322 0.03998858 0.09759824
show 0.044439003 -0.0031010252 0.34498292 0.08153395 0.034337744 -0.2956421 0.1547802 -0.05088155 -0.23606804 0.21410726 -0.24341987 0.16269645 -0.09228199 -0.20417131 0.2645882 -0.42309454 0.14434399 -0.12634432 0.18652974 0.10205727 0.5482529 -0.19042936 -0.14537936 0.214199 -0.50086194 0.10728272 -0.066378966 -0.05973303 0.13267498 -0.12183513 0.09922151 -0.09604628 0.13353631 0.15101671 -0.13527623 0.15413123 -0.12500058 0.28745344 0.17713714 -0.1140949 0.1780389 -0.13095222 0.067141965 -0.09110016 -0.06293776 -0.2646501 0.14446238 -0.021302365 0.087882794 0.19226429 -0.23802964 0.15728725 -0.1188796 -0.042628765 0.16988103 -0.29271734 0.053049453 -0.03058346 -0.03479307 0.21687032 0.15802218 -0.06346803 -0.062074743 -0.16155517 -0.09548182 0.4102498 -0.13059336 0.51388395 -0.11142896 -0.12470175 -0.09170485 -0.044795856 -0.14024824 0.31359813 -0.099650815 -0.11712458 -0.0058570043 0.076062396 -0.075246535 0.107997134 0.17250027 0.047363937 -0.16433327 0.042155433 -0.21499223 -0.06320524 -0.0010278064 0.0078425575 0.19980441 -0.02246878 -0.089121245 0.021821732 -0.04974851 -0.08915116 0.10953778 -0.08965673 0.15155868 -0.075331874 -0.37213773 0.12455082
which -0.12651373 -0.16876511 0.31700957 -0.2927996 -0.11256813 -0.25944424 0.0064237956 -0.11823761 -0.14220193 -0.21536553 -0.17800823 0.17324023 0.040324207 -0.16923122 -0.1230289 -0.4034001 -0.21959159 -0.20100099 -0.1492252 -0.14394213 0.11983083 -0.43544847 -0.014092232 0.5178516 -0.013780445 0.012819977 -0.09207099 0.024395166 0.12652956 -0.03269669 0.06877042 -0.08003116 -0.012874812 0.01204967 0.021100359 0.28917366 0.046489716 0.09550155 -0.06568619 0.19513795 0.44058776 0.30003577 -0.08111491 0.12951846 0.2923487 -0.17158023 0.09968414 0.042113032 -0.2653686 0.08756412 -0.03243816 0.26142722 -0.10792556 -0.11834261 0.042737383 -0.07108483 0.20135209 -0.06222648 -0.17877698 0.055868533 0.09054122 -0.013154813 -0.1538122 0.17155826 0.12238022 0.3854653 0.030530969 0.24101044 -0.12687635 0.24392818 -0.13353026 -0.19332802 -0.08012964 0.081219785 -0.0042448123 -0.020791939 0.03373121 -0.00094550947 -0.10687168 0.015259721 0.02395425 -0.08487296 -0.23850286 0.2051792 0.12915845 0.06670189 0.12569533 -0.12433608 -0.09623559 0.31729338 -0.097074896 0.057925463 0.05264727 -0.040445145 -0.12432578 -0.17830181 0.14673206 -0.24512635 -0.088166624 -0.013987634
its 0.14380063 -0.09245222 0.40070504 0.01991601 0.06349046 -0.08840642 0.09157154 0.06688393 -0.16294347 -0.0111428015 -0.22396006 0.11361939 0.041137688 -0.14842674 -0.065279104 0.06812534 0.25001785 -0.080780454 0.041612145 0.057914972 -0.052592907 -0.2077338 -0.12811632 0.38611922 -0.030456154 -0.07791136 -0.033203226 -0.012109164 0.18349698 -0.012908355 0.13627458 -0.06290702 0.06829822 0.16209486 0.045610435 0.29848093 -0.08245097 0.062273778 0.013894129 0.099609815 0.14469959 -0.09717137 -0.15355843 -0.1326677 0.014118279 0.035005346 0.2018747 -0.055095594 -0.087131634 -0.0031996337 -0.1293059 0.20688145 -0.18323895 -0.040561754 -0.049601432 0.025000073 0.12375665 -0.022087254 -0.14988483 0.0102330735 0.098123595 -0.102238424 -0.11088377 -0.09064896 -0.02693293 0.43684143 -0.28005505 0.24630505 -0.2005507 0.08841726 0.025375409 0.09540829 -0.1074228 0.20118085 0.034255847 0.119066656 -0.0090474235 0.07886354 -0.17674282 0.045034815 0.019750267 0.054664765 -0.31896362 0.17040725 -0.06502099 0.23947996 0.12820241 -0.21224737 0.031123066 0.016167376 -0.1672506 -4.7371414e-05 0.10029147 -0.010382393 -0.0364422 -0.0536918 0.04026658 -0.05771666 -0.096420705 -0.11505149
data -0.18887946 0.16492283 0.25159073 -0.11713845 -0.06901989 -0.31625435 0.074571185 0.020640813 -0.01599227 0.27344048 -0.1750307 0.081893526 -0.04403318 -0.033370584 0.18286377 -0.36483854 0.080470845 -0.06705324 0.064079165 -0.009710073 0.36347526 -0.19856457 0.008887619 0.1370873 -0.32444817 0.09008688 -0.120681286 0.061633736 0.07304501 -0.20477025 0.043728497 -0.14220057 0.1667754 0.07052945 -0.20359753 0.20724905 0.06055383 0.04902333 -0.015641937 -0.14974669 0.3184969 -0.069901414 -0.09361931 -0.026026499 0.07328583 -0.15206917 0.14676687 -0.14572917 -0.046909276 0.030290982 0.045722384 -0.016011357 -0.15904455 0.123220846 0.0032307988 -0.20137799 0.01677531 -0.029188942 -0.07097227 0.120641015 0.018521512 -0.09849345 -0.052635245 -0.069709346 0.19995894 0.21028012 0.2101235 0.086366616 -0.1965938 0.15240791 -0.06506634 -0.078197636 -0.017333629 0.06621657 -0.2403255 -0.17055711 0.110728994 0.012835349 -0.13299967 0.18730584 0.22687846 -0.1824846 -0.17636736 0.19359492 -0.09733834 0.04732178 -0.09434776 -0.12630172 0.025030836 -0.10817115 -0.12560531 -0.04896325 0.098302886 -0.02187164 0.029805502 -0.22048041 -0.24471024 0.04885948 0.040792055 0.28348368
these -0.20353284 -0.28321558 0.07388939 -0.23863477 0.15991719 0.17651895 0.26889366 -0.23006053 -0.02383797 0.031197838 -0.2502966 -0.023436809 0.01699255 -0.47954765 0.5539833 0.0895699 0.15538731 -0.110094614 0.099898964 0.09450327 -0.14379464 -0.28120786 -0.033901222 -0.28098503 -0.21459387 0.13407594 0.19170582 -0.08876455 0.13537268 -0.065648414 -0.020681022 -0.17854016 0.11531967 0.09326925 -0.115287304 0.08812986 0.12405293 -0.05093961 0.33694673 -0.22627768 0.21012764 0.10168836 -0.18152517 -0.06836538 -0.2566811 0.08392948 -0.080955595 0.08354538 0.092047945 -0.10659327 -0.1452201 -0.17471357 0.11972133 0.0077122767 0.054449126 0.01605757 0.0517305 0.03959042 0.33029714 -0.0600731 0.15950382 0.09289173 -0.2079881 0.12547326 -0.33053416 0.113240324 0.24081413 -0.07590822 0.09223321 -0.13551095 0.015246947 -0.099168636 0.044804383 -0.028168034 -0.0864674 0.058248956 0.079589605 -0.13417388 -0.118197344 0.12223084 0.037571963 0.019539963 -0.14371718 -0.25265473 -0.09558743 -0.15648425 -0.08925209 0.16083847 0.007747053 0.39509672 -0.14475603 -0.11480888 -0.07235861 -0.17072769 0.12795596 0.18718848 0.39109424 -0.08242799 0.21565749 0.24633104
can 0.08686047 0.011440902 0.24318485 -0.080151625 0.0995634 -0.23954171 0.060914952 -0.09642445 -0.038103465 0.20852628 -0.38630047 0.13792722 0.48021835 0.18160018 0.26784074 -0.17674765 0.14800857 -0.080745004 -0.2278721 0.12984496 0.35505074 -0.14149503 0.30389157 0.14336511 -0.18117918 -0.09193537 0.016124334 -0.15158308 -0.001574261 0.0030371274 0.16272447 -0.01403801 -0.21328497 0.11811633 -0.18800706 0.062279504 -0.10330533 -0.33713678 0.13375354 -0.13506502 0.07873703 0.035777062 -0.06097988 0.011888128 -0.12518683 0.1158834 0.08598434 -0.14615892 -0.1354879 -0.14426388 0.05043128 -0.033579268 -0.070298344 0.21855177 -0.09172112 0.047122214 -0.05544968 -0.19992068 -0.1138897 -0.0274031 0.13237701 0.025949795 -0.19452561 0.099197194 -0.26374534 -0.054569285 -0.06384947 -0.030129042 0.19041654 -0.12751919 0.14314821 -0.06762968 0.0051579173 -0.047289047 -0.021383168 -0.15164761 0.18387692 0.10907192 -0.2700001 0.1674558 0.05244327 0.041738953 0.25811207 -0.0030559918 -0.058203857 -0.18532814 0.19990478 0.14305535 -0.3736047 0.21927413 0.014970938 0.068474725 0.29926708 -0.2601736 0.1619566 -0.472405 0.1097876 -0.32070306 -0.046920676 0.30667657
