37 100
from 0.03302241 -0.5112749 0.053611208 -0.28276157 0.1500018 -0.057029866 -0.04711224 0.2349401 -0.21479599 -0.06872504 0.18968695 0.00097190146 -0.10713846 0.09289695 0.0859208 0.22013877 -0.20709418 -0.20010169 0.18549468 0.23669218 0.3322839 -0.362311 -0.31302842 0.026811495 0.3384278 -0.03488037 0.5829158 -0.0017513322 0.30565748 -0.17648092 0.019129219 0.14379166 -0.23089184 0.36900276 0.02373602 -0.25547567 0.16030005 0.26360798 -0.04644873 -0.21863572 -0.18293121 0.54277724 0.34158576 -0.115018696 -0.41065386 -0.37418067 0.35374257 0.26456922 0.15036543 -0.39388257 -0.08598164 -0.2536324 0.13201556 -0.186135 0.0027566233 0.012346217 -0.33617243 -0.007765963 -0.48428953 0.17156957 0.18002358 -0.18160884 -0.16996652 -0.24620189 0.21471573 0.07263955 0.07664805 -0.25052944 0.3683717 0.11591539 0.4330209 -0.1225049 -0.35348848 -0.041384783 0.4093597 -0.044772353 0.5123865 -0.035089616 0.31903875 -0.17842199 0.08213554 -0.034014367 -0.28149033 0.13751683 0.07485823 -0.17216516 -0.27137372 0.083393484 -0.1125956 -0.0076158307 -0.34606722 -0.108073205 0.045606457 -0.29165855 -0.07574446 -0.4096583 0.34703663 0.3637317 -0.23263434 -0.27240637
using 0.14740938 0.14863579 0.021331746 -0.28110987 -0.001617635 -0.05793059 0.2868338 0.103150874 -0.15706351 -0.16058464 0.020130279 -0.11039887 -0.15558945 -0.0013554633 0.064615235 0.08437638 -0.43471795 -0.23224765 -0.015364277 0.16159275 0.20486006 -0.30354288 -0.2968304 -0.11444051 0.2267931 -0.124178454 -0.15748335 -0.037903488 0.24962756 -0.011126008 0.1267135 -0.24782275 0.0365057 0.17032158 0.32220912 -0.08138902 0.06640419 0.1646369 0.03790344 -0.15994146 -0.21072537 0.4105064 0.17923929 0.12280945 -0.26015502 -0.20982057 0.34197506 0.32980263 0.17022337 -0.22714713 0.08742547 0.09218845 0.07222741 -0.15770282 -0.045543976 0.16127637 0.2855029 0.025114335 -0.27074012 -0.0058188527 0.20575532 -0.16788211 -0.16766234 -0.091681786 0.18754016 -0.041026227 -0.29194185 -0.10740066 0.1487555 0.10582994 0.10886502 -0.3230626 -0.48279417 -0.12326679 0.08810553 -0.21056019 -0.17667365 -0.003216081 0.33178905 -0.02161316 0.021867309 -0.3544174 -0.20931706 0.21026218 0.07722313 0.072993554 0.17320114 0.23102911 -0.10363956 0.037276156 0.036773715 0.5972202 0.39652163 -0.0886411 -0.0568507 -0.2784855 0.36694145 0.38117278 0.070034 -0.28411984
<sep> -0.19738585 0.016882027 -0.43000692 -0.30815804 0.15185106 -0.18788143 0.05331493 0.14164576 -0.2367896 0.032303475 0.03209781 -0.0094791325 -0.06469497 0.010750299 0.10945709 0.085124835 -0.21134591 -0.173774 -0.06400612 0.03237365 0.05350865 -0.07351896 -0.52559406 -0.1255711 0.18527949 0.16910887 -0.028731814 0.5855285 0.25740975 -0.30775568 0.44864166 -0.05487045 0.023733627 0.3602501 -0.028856317 -0.08097952 -0.054587144 0.32382584 0.017678773 -0.286684 -0.05546518 0.18575193 0.46449524 0.19089845 -0.04559619 -0.11494315 0.15697518 0.5380468 0.30727077 -0.22300789 -0.13970225 -0.017776443 -0.15647288 -0.16622107 -0.059434585 -0.14951453 0.12903386 -0.41680655 -0.40113586 0.085266426 0.17469332 -0.059987128 -0.50023526 -0.14697896 0.13058524 0.08799352 -0.07072139 0.160549 0.13445646 -0.104499236 -0.13241106 -0.043151546 -0.20895186 -0.38428897 -0.052711796 0.21581696 -0.04959718 0.42239168 0.376836 -0.05288494 0.051898666 -0.039845143 -0.4094705 0.29621783 0.038982805 0.018297749 0.013125147 -0.16622083 -0.04247018 0.0760265 -0.088512614 0.31073818 -0.07737584 -0.06221594 -0.02658177 -0.040539768 0.013683866 0.6140412 -0.120956086 -0.16100575
this -0.40825272 0.27052477 0.23830268 -0.20398556 -0.2075184 -0.36117688 0.37092027 0.16322175 -0.11203836 -0.59288067 -0.02723221 0.10237846 -0.0049283043 -0.09273339 0.23984165 0.35238907 -0.35079443 -0.22653997 0.04766509 0.76681507 -0.004109961 -0.101567805 0.0010389927 -0.10635083 0.70339495 0.5771365 -0.42041233 -0.2692095 0.2580655 0.18413138 0.49955535 -0.4829275 -0.08474212 0.03834876 0.43872648 0.2524781 -0.2661891 -0.118820444 0.17917533 -0.29572523 -0.32187334 0.423633 0.13383277 -0.058709007 -0.8683888 0.09950652 0.22933897 0.04395068 0.042975154 -0.67087084 -0.08553509 -0.02631124 0.08940016 -0.037513405 -0.19984218 -0.5451609 0.17830335 0.29710993 -0.060029525 -0.36503288 -0.13399024 -0.30262917 0.0274599 0.01597574 0.34626055 0.4952245 -0.27972758 -0.23723118 0.16203843 0.61248213 0.11394389 -0.21374103 -0.1448881 0.14397435 0.8065874 0.3507365 -0.16646011 -0.2726915 0.16880842 0.22039789 0.2380176 -0.269276 -0.21271499 0.12160103 0.8037801 -0.17029291 0.08097863 0.16789682 -0.0992116 -0.33489516 -0.45945346 0.33023518 0.40013206 -0.016159896 -0.8658293 -0.14119355 0.042013805 -0.049443327 0.25197306 -0.8888936
is -0.2750497 0.108182825 -0.17193654 -0.4547991 -0.08566044 -0.15185732 0.26853386 0.2898589 -0.15091738 -0.23167191 -0.03355742 -0.03240847 -0.08090953 0.19426267 0.06929753 0.1513617 -0.4805299 -0.3785281 0.16177616 0.37073672 -0.059580322 -0.2405218 -0.46035495 0.035290334 0.25755444 0.3658751 -0.0115978075 0.27593258 0.3941346 0.043028574 0.13759218 -0.375206 -0.19143067 0.16633712 0.16293073 0.1500044 0.07344934 0.20268098 -0.15124229 -0.06387467 -0.12878555 0.5527838 0.57448244 0.21572058 -0.37235132 0.04169731 0.40223807 0.39893943 -0.20383503 -0.34836885 -0.091455236 0.09856376 -0.054187614 -0.37331516 -0.06630954 -0.21612003 0.28214678 0.035218712 -0.3986457 -0.1864057 -0.07059579 -0.21235234 -0.27080533 0.10961848 0.20677602 0.29482794 -0.29232678 -0.14507692 0.14910446 0.20076586 0.22130384 -0.022622436 -0.16020587 0.18626404 0.22633961 0.23558718 -0.22782624 0.12283188 0.5715825 0.14410715 0.09861091 -0.22769734 -0.5002483 0.18064444 0.32825717 -0.16395378 -0.057233483 -0.06351332 -0.37048125 -0.09782407 -0.18373369 0.47422794 0.28465822 -0.6434058 -0.47823766 0.1328663 0.033321843 0.6174188 0.03881091 -0.21636468
a -0.20346649 -0.111627 0.27047166 -0.4281455 -0.07701807 -0.19440849 -0.09830317 0.20618477 -0.27795473 -0.16727264 0.12279707 -0.015364953 -0.3593095 0.28407222 0.2131692 0.29046476 -0.46208963 -0.25988123 -0.014972869 0.37263784 0.3590784 -0.93624914 -0.68944883 -0.2696462 0.82237643 0.22267193 -0.06509839 -0.32503104 0.38027442 0.16895539 0.115234554 0.28296906 -0.026171438 0.28855857 -0.006134066 -0.35420495 0.2568001 0.49516007 -0.3590949 -0.47729856 -0.30330008 0.64043725 0.037876755 -0.06352098 -0.2919606 -0.39770448 1.120481 0.736291 0.2704004 -0.88814276 -0.31960434 -0.21113995 0.1661636 -0.4060902 -0.010180278 -0.2510268 -0.100826696 0.31722957 -0.043190405 -0.32811242 0.2950512 -0.22529206 -0.7077309 0.124856554 0.5421347 0.18216065 -0.18630904 0.020014253 0.043630578 0.10780272 0.34757435 -0.814569 -0.5319727 -0.18214798 0.6798674 0.077156484 0.44777685 -0.26505426 0.61110586 -0.08520933 0.22148593 -0.15002683 -0.3574189 0.25142115 0.3506671 0.031563137 -0.08694808 0.3604494 -0.39160532 -0.07421954 -0.2896077 0.2665693 0.46509743 0.18107344 -0.46753597 -0.32583374 0.8587781 0.7185829 0.26618275 -0.7955962
of -0.09992797 0.38807687 0.13737798 -0.17462423 -0.31862852 -0.1497864 0.2568514 0.17991671 0.031983398 -0.2123258 0.13317782 -0.17052104 -0.117744036 0.030304492 0.2213892 0.28206605 -0.2663833 -0.18286374 -0.20665842 0.3199369 0.22233874 -0.3763085 -0.39322525 -0.2486872 0.22220136 0.2328505 -0.39818048 -0.120432466 0.08274324 0.4328729 0.18901904 -0.14126013 -0.06911699 -0.04657525 0.22035982 -0.33890074 0.45085657 0.27242506 0.13808635 -0.46730953 -0.26887178 0.3347273 0.16502622 0.2954468 -0.26372278 -0.26227787 0.38678625 0.39310116 0.29032522 -0.27217358 -0.13224047 0.39997664 0.2846378 -0.11505467 -0.25072342 -0.20544642 0.13059059 0.18905647 0.12535486 -0.2725789 0.2636935 -0.34512645 -0.32107204 -0.013390686 0.36885014 0.11071275 -0.24042717 -0.12937367 -0.110982575 0.12240954 0.29402408 -0.28546163 -0.34838074 -0.3086157 0.23490654 -0.1065994 -0.35893196 -0.06781156 0.40130207 0.20090003 0.12631759 -0.3661357 -0.23239644 -0.04820156 0.21531892 0.03519097 0.022614151 0.01349539 -0.18461296 -0.07190433 -0.3533915 0.22732249 0.21136515 0.14705272 -0.42005536 -0.1901607 0.41966325 0.41368574 0.17467317 -0.19268553
and -0.41521126 0.10769301 0.073784664 -0.36864877 -0.12259364 -0.14326575 0.05880124 -0.21855508 0.062444996 0.26139694 0.10429137 0.055420585 0.0049307006 0.041145626 -0.16536002 0.18033762 -0.12951759 -0.5076831 -0.22228332 0.20453994 -0.19585614 -0.08043315 -1.0497265 -0.61929107 0.2811483 0.4793866 -0.11718911 -0.2560797 0.2998193 0.13599582 0.23737615 -0.03877365 0.44171718 0.018121067 -0.37966654 -0.27057168 0.1193475 0.11986408 0.18384655 0.15846391 -0.090196304 0.27195314 0.47686678 0.22814329 -0.2759621 0.19118313 0.08767984 1.2490519 0.62009394 -0.42420784 -0.29073507 0.09330314 0.0011036011 -0.32926625 -0.013554304 -0.2105098 -0.013646429 -0.16015552 0.3253827 0.2240063 0.14948544 0.05921127 -0.43946716 -0.15855601 -0.09890876 0.09667239 -0.18515897 -0.13457777 -0.09779632 0.099044934 -0.18576916 -0.046814524 -0.826752 -0.55860966 0.12622412 0.4141346 -0.054906595 0.26882273 0.6076767 0.04490578 0.059890732 -0.110642955 0.009718037 -0.18852438 -0.17105395 0.042316586 -0.18638997 -0.101259865 -0.2637625 0.15502636 -0.34959117 0.020928882 0.5795444 0.26859516 -0.1063566 0.20344308 0.07498194 1.0505619 0.5540332 -0.22602952
the -0.4155346 0.31087685 0.13263759 0.07351896 -0.68281835 -0.5836919 0.51013064 0.12269099 -0.12382985 -0.50213194 0.43508443 -0.3258338 -0.045125324 0.120104805 0.5427629 0.00035502808 -0.21601494 0.06505175 -0.14304724 0.53905714 -0.23938929 -0.13854909 -0.062848486 0.16297668 1.1872504 0.4198414 -0.43144616 -0.05313771 -0.11350489 0.7274829 0.6694301 -0.6001252 -0.047822084 0.07350505 0.15325499 -0.69107723 0.7024311 0.09699785 -0.08851849 -0.98564905 -0.018406615 0.066210076 -0.047340795 0.34369978 -0.45922944 0.36841264 0.0020640173 -0.003079123 -0.04933897 -1.2408706 -0.45059335 0.28807148 0.123035036 0.13414751 -0.6645335 -0.3440424 0.5375324 0.017183332 -0.20900165 -0.36751428 0.3792297 -0.57488996 -0.08326168 0.2745224 1.0911576 0.09828502 -0.15264505 -0.057940535 -0.124424875 0.28180248 -0.090104796 -0.17213853 0.031209115 0.055214956 0.92624044 0.55823755 -0.24174212 -0.26650012 0.060498334 0.6412522 0.5413279 -0.49600548 -0.20168038 0.1965246 0.8056175 -0.35312864 -0.0074680625 0.035534192 -0.12890512 -0.39721933 -0.0026381032 0.5445415 -0.07685472 -0.09555968 -0.6207981 0.16232428 0.23719236 0.13646162 -0.25750262 -1.292026
are -0.06841738 0.44647735 0.32125193 -0.40905192 -0.2843656 -0.2999182 0.07353979 -0.013782537 -0.023888133 -0.08113023 0.2427178 -0.03460221 -0.12035937 -0.12744704 0.040503837 -0.09463609 -0.39882216 -0.423759 -0.06327638 0.24408643 0.08654571 -0.5573848 -0.78877294 -0.29277322 0.46838948 0.020045176 -0.50327593 -0.43355313 0.23029763 0.29220465 0.26641828 0.09860199 0.22796163 -0.014500306 -0.07211164 -0.3165193 0.39581478 0.3196047 0.11936843 -0.2506385 0.2320618 0.5040358 0.53024185 0.123435475 -0.29561618 0.03249282 0.6415345 0.94623435 0.3542635 -0.50184786 -0.04771442 0.14141333 0.23507129 -0.43391356 -0.21499747 -0.31799415 0.04324432 -0.18671036 -0.052978374 -0.012737978 0.33442464 -0.22526895 -0.39207062 -0.10299059 0.24445064 -0.05581789 -0.30248684 -0.21113068 0.118170135 0.20620295 0.050136533 -0.27700716 -0.6117944 -0.4299453 0.28423494 0.2221367 -0.41237184 -0.14706932 0.62530845 0.25222832 0.35172537 -0.3197592 -0.20328559 -0.030281406 0.2405462 -0.23009379 -0.16094884 0.0729799 0.1915563 0.08388252 -0.05509333 0.34595084 0.30897495 -0.033300735 -0.22929591 -0.1595272 0.5592667 0.8132209 0.24254802 -0.5125919
in -0.04499047 -0.3916668 -0.0011397176 -0.519332 0.16776931 -0.25691783 -0.014568605 0.39647076 -0.03225324 -0.21841866 -0.23370561 0.13432817 0.029018532 0.19790453 -0.14976934 0.36854306 -0.44596583 -0.26207405 -0.13719764 0.47650772 0.15834121 -0.2659907 -0.47505483 0.09746511 0.2645402 0.084997594 0.21980515 -0.08381758 0.6622318 -0.006104116 0.40047184 -0.045180168 -0.5246632 0.16697794 0.33549276 0.13776945 0.04546417 -0.01967411 -0.081467755 0.021282597 -0.34493095 0.5636367 0.28212416 0.28893417 -0.5531179 -0.08811109 0.24467562 0.41023707 -0.07415499 -0.18660307 -0.20500934 0.1914223 0.4541733 -0.034907978 -0.36574373 0.20778607 -0.094217144 -0.091596566 0.055597477 0.109869115 -0.012812646 -0.4098029 -0.33140963 0.0018959043 0.3533974 0.1821818 -0.22714552 -0.317115 0.11480886 0.31745425 0.115571365 -0.15567851 -0.21285883 -0.12723702 0.13738868 0.14958476 0.5059911 0.0869849 0.60780776 -0.2773866 0.1255209 0.061263055 -0.4672223 -0.18122241 0.20509312 0.32682738 -0.49323273 -0.1644635 -0.4032774 0.38645634 -0.38911083 0.32435447 0.23236267 0.02965564 -0.4367776 -0.27561513 0.32738444 0.48425302 -0.111241646 -0.3645633
for 0.015668424 0.26195446 0.046664458 -0.19286256 -0.11676743 -0.17091884 0.21600148 0.24268647 -0.07631028 -0.26274997 -0.10745729 0.19449884 0.2597809 0.12128867 -0.030623537 0.36706173 -0.3964219 -0.30039603 -0.29963237 0.35305464 0.119953 0.02823246 -0.16053736 0.013987118 0.1348468 0.029964568 -0.27902412 0.012632542 0.08786444 0.23994662 0.30599457 -0.33953962 -0.3229645 0.02440359 0.44681242 0.04812759 -0.16258654 -0.18419415 0.010488051 0.014117032 -0.46946827 0.460354 0.3080599 0.36360362 -0.4070494 -0.061274648 -0.11725078 0.1266045 -0.033134352 -0.030174704 -0.12658904 0.35663965 0.27951956 -0.030709496 -0.1880448 0.005292724 -0.083096415 -0.20231816 -0.05307917 -0.01213379 0.07291046 0.06271361 0.084422484 -0.11318261 0.14942081 0.19377576 -0.30440006 -0.16470832 -0.06876992 0.2624538 0.14507511 -0.046551637 -0.17339797 -0.031705286 0.0645803 0.054256953 -0.39222455 -0.15379147 0.21385328 0.16333675 0.12233584 -0.034726724 -0.18891747 0.13727185 0.16017069 0.25578603 -0.21697272 -0.33190054 -0.28892988 0.12163049 -0.30179253 0.34916165 0.2736893 0.27578974 -0.34276024 -0.18222009 0.120572366 0.24617575 0.062138353 -0.21642964
to -0.2311019 0.089156754 -0.47854066 -0.38238862 0.22355916 -0.25111568 -0.05965712 0.43370944 -0.12196962 -0.139954 0.0369813 0.10358662 0.29405624 0.220366 -0.06085629 0.19392622 -0.22273591 -0.45964628 -0.4658419 0.021721225 -0.12034486 0.25429705 -0.51326394 0.08738735 0.12657374 0.2959533 -0.13935845 0.6041234 0.22361279 -0.20415853 0.39656195 0.029520772 -0.4865732 0.12004288 0.14754969 0.023250354 -0.055408396 -0.17038156 0.0010738635 0.016606197 -0.23197356 0.27741453 0.6301595 0.58727354 0.05107443 0.24751315 -0.3056073 0.47555548 -0.11961569 -0.09007048 -0.054603998 0.04469308 0.39718914 0.10598559 0.02720519 -0.13789043 0.012008416 -0.104323186 -0.07399852 0.08550666 -0.01503803 0.06389323 -0.21585082 -0.25641882 0.0904429 0.15372922 -0.099218525 -0.22226527 -0.13596764 -0.048854794 -0.07740251 0.10507968 -0.45606777 -0.010495239 0.0073322593 0.31459916 -0.14328864 0.4641946 0.5471977 -0.24172164 0.14012787 0.2167932 -0.5728819 0.115381755 0.10110795 -0.0822185 -0.11135034 -0.7013304 -0.47557297 0.15826684 -0.22602399 0.20906435 0.24042216 0.43618363 -0.050758418 0.043528236 -0.13648567 0.5013553 0.046850815 -0.13008687
be -0.7015908 0.36625186 0.20725721 -0.026023207 -0.32201222 -0.0061397455 0.2120772 -0.015277247 -0.013095315 -0.61459774 0.09237082 0.14560531 0.053229664 0.013878211 -0.3187642 0.20080484 -0.6335748 -0.043636836 0.028371414 0.7125618 -0.16689864 0.29525706 0.18482664 -0.07612195 0.4621607 0.8158203 -0.3775976 -0.17575166 -0.011361247 0.35601532 0.1730705 -0.3692834 0.04217365 -0.054325227 0.8572396 0.008446225 -0.15127783 -0.07726356 0.01570146 0.26380786 -0.26684418 0.9457991 0.07132964 -0.13393974 -0.81604296 0.22733782 -0.43328777 -0.20177768 0.0762626 -0.32776523 -0.2549492 0.4404026 0.17852072 -0.2369675 -0.91284716 -0.08484256 0.22541456 0.0072400747 -0.10795482 0.24360842 -0.08632875 0.056746073 0.103833534 0.069332 0.16862841 0.3428549 -0.46885073 -0.096026815 0.10797859 0.66370827 -0.097105205 -0.055466186 0.07545974 0.011005984 0.32657027 0.84034365 -0.4756427 -0.23127273 -0.09047227 0.43586797 -0.21230501 -0.14070623 0.07141661 0.16398442 0.4738405 -0.28393432 -0.18109438 0.04096083 -0.036254883 0.4789485 -0.19449416 0.48606613 0.031133085 0.023347372 -0.5883248 0.052652217 -0.11168684 -0.12066799 0.07739261 -0.63841224
by -0.23347966 0.10105362 -0.052696608 -0.2732976 -0.077200174 -0.0017102284 0.112450935 0.29758406 -0.2622647 -0.17978282 0.039404813 0.071947545 0.1744042 -0.15802288 -0.18824175 0.08225658 -0.46536446 -0.36844897 -0.04062154 0.34068406 -0.075247414 0.2717311 -0.33607677 -0.29218715 -0.072297014 0.29397193 -0.31338102 0.07826398 0.1399145 0.07166746 0.018071214 -0.21097893 -0.3946965 0.2700445 0.23067075 -0.006157622 -0.02090632 -0.124437876 0.21390122 0.14424895 -0.13192607 0.57333225 0.46653956 0.15918165 -0.42597824 0.09703518 -0.4383399 0.28744 0.38281927 0.15377127 -0.2438252 0.30620703 0.3992184 -0.051578205 -0.3218555 -0.047884077 0.09910686 -0.099911734 0.06802816 0.033532586 0.068441465 -0.2246088 -0.1369561 -0.37924877 -0.0066658813 0.18400306 -0.34834468 -0.29306558 -0.058080297 0.2362973 -0.052347645 0.20084535 -0.2561791 -0.15575923 0.025868665 0.16613191 -0.041364305 -0.023391752 0.43128473 0.12937036 0.016500581 0.117676884 -0.2367387 0.13758378 0.0735277 -0.11968368 -0.15307678 -0.38738886 -0.060618248 0.2536303 -0.08576148 0.44764122 0.2163106 -0.08253556 -0.27682614 0.026548525 -0.06818694 0.37826723 0.19083875 -0.051262468
with -0.29024822 -0.18945448 -0.007624868 -0.20205107 -0.0056814295 -0.26839763 -0.37280464 0.19738314 -0.32557708 -0.052657034 0.3015179 -0.002385439 -0.18127805 0.13613626 0.21993425 0.17324561 -0.41518447 -0.269992 -0.37073955 0.4078631 0.20987229 -0.23685405 -0.69826394 -0.13238108 0.5509631 0.52181804 0.12591438 -0.059664983 0.35882935 0.13069774 0.34982648 0.6024577 -0.0134330625 0.6010738 -0.09332693 -0.3789079 -0.015958134 0.279987 -0.35899147 -0.26405367 -0.2866106 0.5677636 0.3523018 0.36328754 -0.5431984 -0.28929904 0.17526634 0.93442476 -0.026110325 -0.6600059 -0.41166925 0.028846785 0.24707495 0.044842534 -0.31063396 -0.174114 -0.47590357 0.14258514 -0.34925228 0.102319926 0.31509945 -0.28110686 -0.24981457 0.114595234 0.34345558 0.036345225 -0.09916337 -0.011151494 0.109638445 0.084602065 0.044833835 0.103602074 -0.41695052 0.07559681 0.20450285 0.026403895 0.2667237 0.050341327 0.061351333 -0.12806176 0.14195769 0.1713067 -0.43833625 0.16101351 0.20712523 -0.22351386 0.116882496 0.030425368 0.121359974 -0.20685306 -0.086456 0.3922439 0.21480395 0.38441437 -0.35508886 -0.17244394 0.3381734 0.580135 0.26182264 -0.54589736
as -0.10045968 0.40189353 0.2814902 -0.020303084 -0.15018466 0.076801896 0.2001313 0.31130108 -0.12254261 -0.0010417878 0.10661232 -0.21972762 -0.19967827 -0.0715906 0.2160965 0.23991528 -0.022245364 -0.124136694 -0.24338086 0.19166197 0.19847569 -0.22144152 -0.24237213 0.009275934 0.30590096 0.18330424 -0.57969934 -0.4364299 -0.06188501 0.2842386 -0.16410917 -0.32973203 -0.35746902 0.16034001 -0.031095158 -0.16935866 0.3906225 0.2551803 0.03734127 -0.34877494 -0.3215274 0.039753053 0.14748526 0.33644116 -0.31525174 -0.23870121 0.27909932 0.28434974 -0.079035945 -0.4533054 -0.19666232 0.40751305 0.37926683 0.08698087 -0.25600797 -0.027892161 0.103179514 0.21781743 -0.15815099 -0.062391583 0.24131195 -0.3058761 -0.17667066 -0.16038209 0.35215256 0.059876937 -0.06882373 0.048373632 -0.073822945 0.1266823 0.0681137 -0.16744421 -0.049087644 0.16957188 0.24314432 -0.032505203 -0.21636899 -0.11857084 0.14784499 -0.023948802 -0.09739437 -0.057235893 -0.2290025 0.15772247 -0.015623313 -0.060957875 0.07202473 0.12643608 0.17050998 -0.08867148 -0.18329564 -0.030033227 0.059773996 0.21989904 -0.12457018 -0.17570765 0.2226574 0.24556935 0.06251541 -0.20546569
an -0.21786092 0.20230405 -0.09197083 -0.08384426 0.048307586 0.043542035 -0.045361824 -0.3636239 -0.06990448 0.16927439 0.20740083 -0.09274313 0.018096816 -0.12938257 0.09627823 0.046482127 0.0068469928 -0.5508024 -0.45222473 0.12597148 0.16640437 0.09234708 -0.5942664 -0.23024775 0.047880117 0.30479375 -0.29467145 0.11410205 0.011835388 0.018506741 0.0043179463 -0.083472274 0.80709785 0.17066659 -0.22653864 -0.33596352 0.1490724 -0.068735436 0.024806924 -0.051856834 -0.13672227 0.013179426 0.66700906 0.5515835 -0.26754966 -0.31489027 -0.15346114 0.60896194 0.13802579 -0.07614557 -0.24573596 0.16717163 0.25221345 0.21811545 -0.07396602 -0.055523925 -0.13621768 -0.32040703 -0.29593477 0.26533225 0.28917143 -0.1622464 -0.24454662 -0.18795666 0.1608287 0.13584699 -0.09475755 0.0937291 -0.07993764 0.025538575 0.32493886 0.043785714 -0.18738136 0.12264269 0.031669497 0.08843462 -0.090243705 0.07475641 0.19037418 -0.11221989 -0.14262736 0.19596505 0.04129112 0.010270519 -0.09810643 -0.07413591 0.10195165 0.03191476 0.33307397 -0.1502969 0.0055152667 -0.0135434875 0.47415602 0.44381326 -0.089192666 -0.02982915 -0.028895233 0.6059143 0.380347 -0.0024174605
two -0.40538728 0.4097879 0.19761083 0.046598073 -0.5095722 -0.35900202 0.04676938 0.17736715 -0.10003815 -0.48003864 0.11990977 -0.14075886 -0.033576787 -0.063543186 0.37581128 -0.29524213 -0.18572856 0.13889973 0.05692601 0.23328342 0.027206076 -0.45534027 -0.0424055 0.33379272 0.8876237 0.5273515 -0.4414173 -0.21568988 -0.17455097 0.7766255 0.63713235 -0.038882557 -0.30661008 0.0034650099 0.46840423 -0.41843304 0.34239054 0.102086395 0.07246039 -0.6730443 0.401944 0.11214931 -0.22743942 0.059329394 -0.28002265 -0.13348868 0.5174762 0.03245078 -0.3626161 -1.1333816 -0.14949335 0.4665765 0.13442756 -0.050011985 -0.7113135 -0.44075498 0.15795074 0.058407154 -0.03902455 -0.30525357 0.15420793 -0.29433733 0.003926825 -0.11260618 0.5338899 0.13609211 -0.114664555 -0.0006174729 -0.048981592 0.03334216 0.1742801 -0.3993637 -0.08700503 0.23616754 0.5153697 0.27315462 -0.3262567 -0.20723577 0.11720808 0.2697531 0.10783333 0.073624834 -0.10103831 0.24451247 0.5275749 0.17457843 -0.020439403 -0.023956606 0.068013884 -0.051937774 0.29641184 0.15572374 -0.1192264 -0.098690964 -0.12413845 0.009788048 0.47714603 0.08769872 -0.37188455 -0.82067716
on -0.09299617 0.22339186 0.11459669 -0.46567747 -0.26383406 -0.27549964 -0.19291009 -0.15097545 -0.3761709 -0.028035017 0.057745542 -0.25386795 -0.039299153 0.30243203 0.14861923 -0.046752412 -0.15608111 -0.19671968 -0.19173102 0.09778462 0.2544269 -0.30080524 -0.35455298 -0.008662056 0.25478354 0.08833645 -0.36788577 -0.1892532 0.6154566 0.3617922 0.33486226 0.124613725 0.30668557 0.6638868 0.060863934 -0.14487308 0.40198407 0.14584304 -0.356111 -0.24035038 0.13280408 0.2852565 0.26116124 0.18591434 -0.120249234 -0.33157668 0.36995703 0.39588192 -0.077452384 -0.27490607 -0.106272146 0.35678256 0.21190833 -0.4448622 -0.34473106 -0.19384757 -0.4299257 -0.1596884 -0.21155614 0.11177518 0.0018123027 -0.47758448 -0.27723664 0.12077272 0.24892813 0.026651649 -0.2520823 -0.0058213263 -0.01747793 0.04974846 0.20383972 -0.32742363 -0.15842389 0.22022875 0.18569589 0.12216672 -0.07447399 -0.05129595 0.32084793 0.17122926 0.28847948 0.20919196 0.025442896 0.11353267 -0.006831705 0.037070468 0.21161072 -0.05253017 -0.20655212 -0.09315023 0.02303291 0.13511619 0.1420834 0.24019207 -0.066289976 -0.26048985 0.30808392 0.35423413 0.09929516 -0.28404653
time 0.058476545 -0.2808673 0.09750943 -0.1364147 0.020091306 -0.047729276 -0.12485876 0.100863345 -0.1182552 -0.0076392265 0.10040531 -0.11664005 -0.28306508 -0.00055373873 0.22251499 0.027659917 -0.17749467 -0.090552315 0.056481387 0.11214772 0.22295831 -0.32743365 -0.17685682 -0.12912606 0.28179458 0.0037201084 -0.05039048 -0.075559705 -0.045138597 0.07089795 0.06519543 0.71231997 0.1302042 0.356146 -0.33774385 0.09424413 -0.06475415 -0.14285183 0.0112704355 0.122520745 -0.08055577 -0.049696356 0.32685712 -0.35992497 -0.11682492 -0.16700561 -0.07061222 0.08627165 -0.14042664 -0.08815238 0.019039167 0.24988568 0.133839 0.18702643 -0.19482374 0.023225963 0.18006009 -0.009413877 0.39097872 -0.11702109 -0.01411266 -0.0645987 -0.1097646 0.14580281 0.07559946 -0.08851814 -0.09272096 -0.0036910297 -0.15856609 0.0151007315 -0.20594136 -0.031624336 0.1919254 -0.1117551 -0.111527115 -0.10132641 0.31088725 -0.30569127 0.101640955 0.11917468 0.095574476 0.17153163 -0.2726417 -0.14847668 0.119172335 -0.15481558 0.084429026 0.34364736 -0.2842801 -0.24354246 -0.17511642 0.38777354 0.34605604 -0.1209359 -0.34068987 -0.23926315 0.54099476 0.19473733 0.10253601 -0.3602904
it 0.08662917 0.07516448 -0.007215826 -0.15596908 -0.0044859373 -0.06189353 0.20406406 0.0874588 -0.09267421 -0.10797106 0.037440795 -0.012546492 -0.06862238 -0.004390895 0.107726716 0.0772174 -0.19465525 -0.037771076 -0.016603956 0.10434394 0.1174843 -0.18724252 -0.18970583 -0.13018252 0.122191824 -0.037968975 -0.055430222 -0.013314922 0.036203045 0.0050948136 -0.22296667 -0.2512339 -0.18417029 0.3381244 -0.1408813 -0.0077676415 0.07107659 -0.097919956 -0.04869884 -0.031357437 0.014499187 0.069972016 0.050240368 -0.13102463 -0.1332394 0.19415142 0.28338578 0.3388951 -0.077492535 0.22923583 -0.12743938 -0.094691046 -0.059195764 0.13425708 -0.10458058 -0.036825426 -0.1251698 0.043349423 0.14734939 0.11322693 -0.011472207 -0.0052161873 0.0155619765 0.0024157031 0.021051906 0.0771799 0.19752544 0.14131948 -0.06747496 0.053913012 -0.05437541 0.15730962 0.23649295 -0.02087638 -0.059846867 -0.04872769 -0.07051862 0.07438833 0.20167844 0.14076172 0.059778046 -0.31661475 -0.3114134 0.15304853 0.012667302 0.005770909 0.1367875 0.110391095 -0.04221174 -0.13848743 -0.2178662 0.3174129 0.11809616 0.06656789 -0.3187706 -0.116666235 0.3093484 0.21405384 0.16189846 -0.1269632
our -0.09621276 -0.0038486423 -0.28670272 -0.089040235 0.16918284 -0.15561394 0.053765725 0.009419071 -0.13820608 0.10334538 0.036770105 0.076590575 -0.19469018 -0.08348188 0.111435734 0.07044817 -0.110799335 -0.1584371 -0.018968457 -0.00278342 0.019466829 -0.0940767 -0.41778332 -0.23373957 0.20244181 0.027880358 -0.03115135 -0.104910865 -0.026861036 0.092365086 0.07162611 -0.063464 0.556613 0.44843727 -0.19797611 -0.17308041 0.115421124 -0.025549823 -0.11932299 -0.011421741 -0.06906399 -0.11104486 -0.0544427 -0.20238067 -0.018028352 0.38241395 0.0777431 -0.18141094 0.12391878 0.17571929 -0.025941668 -0.047831632 0.23916864 0.2287332 -0.025993997 0.22195074 -0.050082173 0.22762153 0.3453079 0.05823006 -0.059422836 0.031786446 0.086817265 -0.01650679 -0.070611976 0.061885662 0.09092296 -0.14171661 -0.047709487 0.058959767 0.037914354 -0.035203222 0.097804 -0.024501828 0.03193455 0.29284072 0.038764797 0.25013423 0.044462945 -0.17082003 -0.0030466898 -0.005802852 -0.29131877 0.018347606 -0.23831293 -0.033759173 -0.032643065 -0.013045244 0.006450441 -0.060254503 -0.21450555 0.11798286 0.4395869 0.05795609 -0.12949507 0.030326294 0.19180366 0.5509318 0.28474852 -0.27066845
at -0.30437544 0.27339056 0.1680972 -0.24019946 -0.16092432 -0.31958142 0.37905544 0.12890057 -0.10642947 -0.3568165 -0.11448173 0.06675994 0.049105883 0.038951185 0.24565831 0.19696812 -0.2647139 -0.09356942 0.045975078 0.3394035 -0.16510305 -0.034022223 -0.0029582228 -0.052844085 0.40251628 -0.07436926 -0.0037342145 -0.055184286 0.056988794 0.12815383 0.4773773 -0.16888167 -0.33867884 0.11351837 0.25935325 -0.09899967 0.22058848 0.06619637 -0.0024743008 0.07571444 -0.20694914 -0.09026875 0.0073042223 -0.0056647314 -0.37539524 -0.27644238 -0.0044539645 0.34540305 -0.21497434 -0.6063182 0.1476548 0.0848336 -0.12984136 -0.04732117 0.0407493 0.2755535 0.010967527 -0.056914322 -0.12909229 0.12110467 0.14930773 0.010760884 -0.015839769 0.044447776 0.11683987 -0.22690049 0.06735799 0.18565077 -0.045923524 -0.3018665 -0.12430247 0.04540104 0.04682361 -0.0065237884 -0.4291913 0.3455598 -0.5111307 -0.17304517 0.41361147 0.26036152 0.3028444 -0.65343934 -0.27777463 0.41221225 0.75794864 -0.1613673 -0.061890338 0.047990814 -0.028297065 -0.46969828 -0.20535475 0.34446773 0.03955047 0.008877064 -0.69125795 0.13300231 0.04229263 0.07204545 0.07173195 -0.6021545
we -0.27077582 0.08900766 -0.14062078 -0.17910658 -0.04691027 -0.13954757 0.13190211 0.11292261 -0.1425984 -0.14343525 0.030826299 -0.07884501 -0.09712275 0.00020257152 0.03369886 0.06613445 -0.29036897 -0.2417456 -0.05177724 0.18500039 -0.07045344 -0.27901664 -0.3000584 0.06631557 0.22126207 0.019027442 -0.18821348 -0.08630989 0.1055696 0.109780885 0.2337335 0.098032646 0.19169666 0.69727355 0.114378035 0.025229422 0.2320973 0.0389347 -0.12039069 -0.102181904 -0.11974746 0.013962644 0.089295946 -0.017084388 0.011258261 -0.30765378 -0.048921462 0.060816508 -0.20073299 -0.19836204 0.01839345 0.048431095 0.046952475 0.27916673 0.03974481 0.0032848236 -0.18156381 -0.037326116 0.23389249 0.049107183 0.10507743 0.0021061033 -0.008378525 -0.15950783 -0.032525796 -0.123877004 0.084252104 0.050505392 -0.20235896 -0.13758647 -0.071263745 -0.10804489 0.120063275 -0.10185795 -0.06629265 0.40284052 -0.29594386 0.16663955 0.21036068 0.08853844 0.31712458 -0.009598994 -0.22882147 0.20775987 0.28332552 -0.14728905 0.17139004 0.11878566 -0.04375787 -0.07848887 -0.042260423 0.5025015 0.47855905 0.07590064 -0.29433188 0.07794745 0.5027876 0.5030514 -0.013971143 -0.3619833
model -0.0690763 -0.09161736 0.19183004 -0.21680273 -0.021746274 -0.11963649 -0.22154275 -0.0016039159 -0.37002388 0.05374394 0.25907886 -0.037089556 -0.34495926 0.12559082 0.30739433 0.20565988 -0.13608852 -0.09743297 0.02093198 0.19674906 0.25863978 -0.49635106 -0.3335693 -0.11434011 0.4299563 0.22478835 0.2122064 -0.0036393192 0.14955989 -0.030148093 -0.0039202296 0.0774012 -0.2313523 -0.128895 0.19129145 -0.24188183 0.05610201 0.57134664 -0.069559745 -0.40338334 -0.25653502 0.008329496 0.1840057 -0.15024115 -0.16944797 -0.3083811 0.256299 0.16060205 -0.14341132 -0.25502384 0.1343995 0.08702767 -0.07167603 0.21458685 0.026315033 0.045733 0.018932212 -0.009073922 -0.1350135 0.08593055 -0.041583143 0.18002325 0.22371377 -0.15361257 -0.13829747 -0.08686475 0.26302224 0.112592876 0.08416898 -0.16939679 -0.124374606 0.39918688 0.29498783 0.076716736 -0.2901886 0.101508506 0.11771747 -0.269834 0.30585724 0.031200489 0.17661421 0.16212146 -0.33243608 0.6040521 0.13092488 -0.29468292 -0.18250528 0.46251938 -0.20013353 -0.34085423 -0.38153613 0.12770362 0.22936592 -0.14049056 -0.3100674 -0.43003207 0.7322827 0.50700957 0.15375815 -0.7256922
when -0.14669606 0.14544079 -0.008901453 -0.109759204 -0.29000765 -0.07539809 0.13325404 0.0448477 -0.017207585 -0.16017161 0.17357993 -0.21963508 -0.20332165 -0.056255404 0.27073267 0.17598382 -0.18646742 -0.13143416 -0.14117287 0.2031362 0.13131367 -0.24492541 -0.26519826 -0.15588598 0.12236501 -0.0601367 -0.2065136 -0.25827897 0.06916291 -0.040635828 0.030968327 0.025255358 -0.008739154 0.007726163 0.083976306 -0.18628208 0.08247736 0.20189454 0.013073389 -0.29234892 -0.09220821 0.22040075 0.23076509 0.033199314 -0.14015797 -0.11248562 0.29727677 0.31111458 0.14439182 -0.08597422 0.025275892 -0.20651206 -0.13720882 0.04473056 0.07770188 0.051138736 -0.045500748 -0.071573645 -0.074636586 0.009840976 -0.018698052 0.08482703 0.070946306 -0.026658958 -0.043212373 -0.05751671 0.10631557 0.06987307 0.06271883 -0.06890271 -0.120762624 0.15409605 0.15615334 0.068192564 -0.10272694 0.0721293 -0.2402558 -0.02473055 0.21736388 0.2986003 0.12547496 -0.25516385 -0.10235399 0.090760075 0.31514296 -0.25959533 0.18368283 0.19101371 0.03747965 -0.4195011 -0.33974916 0.30172467 0.2486359 0.2054046 -0.39745045 -0.15789808 0.40923682 0.43032053 0.27867112 -0.16803454
that -0.39658716 0.0014118574 0.13341232 -0.30531347 -0.08967511 -0.19756012 0.049484722 -0.37832472 -0.14874798 0.14904328 0.1977686 -0.018927861 -0.074173346 -0.14364712 -0.0390605 0.16084258 -0.11482065 -0.09127043 -0.18479943 0.016531708 -0.109943554 -0.07276633 -0.5484048 -0.3321765 0.16803 -0.033892494 -0.05709911 0.12802942 0.076077096 -0.0013043985 0.10149942 0.06434266 0.018333888 -0.19597007 -0.10119515 -0.15108307 -0.17026833 0.25306168 0.122568384 0.014869513 -0.06681381 0.04548909 0.035595782 0.053968 0.0015548472 0.13466586 0.11058033 0.1283933 0.21225834 0.030037217 0.07061777 -0.06752421 0.09576269 0.087044835 -0.05572867 -0.0030644343 -0.04084039 0.035483718 -0.21247329 -0.12410027 0.10272699 -0.049254153 0.16273624 -0.04336039 0.002522414 -0.009003598 0.062040467 0.32064673 0.11098684 -0.16532195 0.08442427 -0.0022697242 0.53477204 0.12689696 -0.11439872 0.45363066 -0.028277582 -0.19628103 0.43523663 0.23180494 0.26604772 0.009141509 0.31438252 0.22625692 -0.19417709 -0.40429753 -0.055606484 -0.109096535 0.12503928 0.16619067 -0.3133351 0.12175234 0.106711335 0.20520857 0.034692418 0.19297668 0.16612999 0.6364514 0.6741763 -0.1949304
magnetic -0.20387526 0.26020244 -0.034619752 0.07312349 -0.27605912 -0.4602987 0.2171341 0.037036646 0.08123834 -0.12362999 0.25669515 -0.35208562 -0.034698587 0.08511713 0.5425881 0.14422551 -0.28022823 -0.0047801337 -0.042355087 0.28124157 -0.11626771 -0.045968298 -0.038440116 0.024122331 0.667881 0.1283686 0.032601498 -0.14531904 -0.037930526 0.3188047 0.03709568 -0.2910984 -0.02881637 0.27635705 0.1154022 -0.08726016 0.21324605 -0.077985816 -0.14865154 -0.5777784 -0.18960406 0.13876617 0.060770195 0.022052925 -0.45482975 -0.22749262 0.09572619 0.09740207 0.05396854 -0.60477823 0.2899305 -0.1639931 -0.114382625 -0.0024617573 0.34392622 0.07687658 -0.26223317 -0.05464464 0.13918273 0.06202114 -0.11173203 -0.048798863 0.022195887 -0.021485118 -0.36839053 0.13628393 -0.012254091 0.00018320131 0.03640509 -0.24101831 0.0801889 0.044722676 -0.003930468 -0.025484879 -0.52469105 0.16633773 -0.1630317 -0.03687618 -0.088717096 0.46313506 0.717892 -0.3603908 -0.08112386 0.020093843 0.5808062 -0.4348749 0.5956294 -0.014014022 -0.16631734 -0.52553743 -0.34512475 0.4974012 -0.034056854 0.09200461 -0.5177532 0.08766555 0.13356866 0.13451958 -0.11815895 -1.0433395
have 0.02652081 0.2278717 0.18216464 -0.17251989 -0.096200086 -0.11429716 0.001452941 -0.12181402 -0.12023226 0.03245997 0.18400924 -0.18490931 -0.091082014 0.101445906 0.12912202 0.031507764 -0.22588511 -0.09973359 0.05522176 0.13138524 0.014408989 -0.28597116 -0.43427262 -0.0960909 0.26796913 0.05571172 0.050456133 -0.0034218354 0.39850956 0.115659125 0.22382605 -0.07695871 0.13508202 0.022135312 0.009977501 -0.18708998 -0.018217271 0.10313753 0.036989093 -0.016492328 -0.08603671 0.078132704 0.10828094 -0.1639207 -0.12248348 -0.0871862 0.082654946 0.24796295 0.03447568 -0.17635605 0.10369983 -0.090111226 -0.07461802 0.1675243 0.11221526 0.12403066 -0.013991674 0.085408546 0.008406843 0.038525194 -0.06423543 0.008106949 0.22564268 0.18479313 -0.045899965 0.06924422 0.23492149 0.248417 0.0040008104 -0.15559237 0.015581811 0.15009187 0.41994008 0.19294916 -0.17625237 -0.040570535 -0.41243714 -0.30397022 0.3939742 0.21817459 0.2864656 -0.110574126 -0.039137416 0.03382672 0.029529395 -0.30913657 0.10887238 -0.10701503 -0.15593453 -0.032557953 -0.07322587 0.22665727 0.13525818 -0.0747914 -0.1469516 -0.14930876 0.52891093 0.5360081 0.08708216 -0.43434614
between -0.08032784 0.033573236 0.00396151 -0.21378013 -0.060133398 -0.22499299 -0.02425623 0.2150635 -0.16515848 -0.116629206 -0.18724003 0.0674585 0.017345931 0.14602928 -0.123964176 0.18801044 -0.18857855 -0.15147533 -0.06652475 0.24477717 -0.018539678 -0.112475164 -0.17214993 0.024714649 0.08497411 0.11276238 -0.4004447 -0.34344032 -0.12941882 0.36483976 -0.37872827 0.03004914 0.292171 -0.068621896 -0.2467211 -0.10816841 0.39992458 0.4100688 -0.04627929 -0.3604649 -0.032567088 0.229932 0.018440725 -0.05606545 -0.09631728 0.18201843 0.2657834 0.12218672 0.4647866 -0.14421727 0.15061952 -0.045439497 -0.09947833 0.27313903 0.037426658 -0.17286979 0.115243286 -0.08554759 -0.15151611 -0.027768105 -0.08103676 0.08455858 0.059022866 -0.0031639973 -0.1141478 -0.06474366 0.1485111 0.19987774 0.09506322 -0.23548973 -0.040307853 0.17682551 0.082237646 -0.047085088 -0.039567117 -0.041249968 0.30355495 0.018936098 0.23125975 -0.055768028 0.41369674 -0.11567982 -0.27493906 0.27498537 0.20610678 0.4093889 -0.1861445 -0.029616935 -0.3225795 0.2905853 -0.3883258 0.3905965 0.041346107 0.019193577 -0.29213035 -0.034248672 0.13738042 0.4741238 0.1200373 -0.29321423
show -0.081534036 0.100770526 -0.0041235588 0.07732412 -0.14110848 -0.092945 0.26911697 0.21403818 -0.06305349 -0.17437942 -0.11244623 0.16377002 0.20538852 0.114169896 -0.048609115 0.23371893 -0.22906907 -0.16034132 -0.15147322 0.22304215 -0.06506196 0.10531781 0.0010685847 0.038700696 -0.051714852 0.13264744 -0.21927857 -0.13381264 -0.06363802 0.16564876 -0.14958441 0.28836668 0.3596255 0.031020986 -0.19355938 -0.073831625 0.045140464 0.049226828 0.04795026 -0.17027876 -0.0519222 -0.028371451 -0.035356805 0.11633367 -0.05370804 0.01173669 -0.28065872 -0.1239144 0.059021525 0.10283401 0.09226971 -0.25945622 -0.13634977 0.033771846 0.14524549 0.0038614064 0.24329197 0.15761998 0.06067257 0.001770235 -0.017960863 0.030663796 0.05361989 0.068099044 -0.029816011 -0.07621099 0.11214571 0.08259795 0.059287407 -0.09240972 -0.11757252 0.010225764 0.019330753 0.03708728 -0.09273245 -0.014259964 -0.06498302 0.0813245 0.067806125 0.09881324 0.13662821 -0.5175557 -0.387708 0.047380246 0.24961074 0.17840327 -0.28646752 -0.43318564 -0.26869485 0.04402624 -0.38591677 0.32611 0.25002053 0.34201235 -0.34275705 0.101481624 -0.19356029 0.09645002 -0.07019701 0.07395032
which -0.12533182 0.08969587 -0.20505732 0.045516815 0.060361736 -0.16634914 0.046248455 0.18381286 -0.1303897 -0.07997346 0.00012683695 0.09186613 0.15616368 0.20820554 0.02617396 0.15250723 -0.11593616 -0.22626443 -0.22712305 -0.05642786 -0.15956867 0.13916872 -0.13271594 0.016833123 0.079459086 0.040638752 -0.0634444 -0.5376753 -0.20546775 0.12504792 -0.10554639 0.026387028 0.27505344 0.055285774 -0.0924385 -0.0008918492 -0.069385365 0.41162285 0.11956587 -0.22382924 0.041247256 0.015206244 0.040965863 0.10846508 -0.063161984 0.17833401 -0.16445509 0.43249512 0.24484977 -0.09192302 0.10404 -0.08391314 -0.07662523 0.17699844 0.008713766 0.052339528 0.18209127 -0.03175925 0.04025745 -0.06220773 0.024044342 0.02164671 -0.0065452117 0.14357449 -0.019285977 -0.027079683 0.035829842 0.15679689 0.22200303 0.0393047 -0.0040799524 -0.046847336 0.26359442 -0.092347465 -0.0588559 0.23238878 -0.06355543 0.49675626 0.054491077 -0.20749709 0.1977922 -0.16971847 -0.36953223 0.15885188 0.21916714 -0.09247273 -0.17531957 -0.28868067 -0.5198256 0.00024101743 -0.21204363 0.23480502 0.32183385 0.32258642 -0.06793066 0.27452803 -0.31043682 0.32224357 0.1282084 -0.115431026
its -0.28364858 0.1593504 0.011799752 0.06800497 -0.08289866 -0.16852078 0.17006889 0.07643766 0.037405625 -0.54326254 -0.023260232 0.23364879 0.05363005 -0.02638721 -0.24913356 0.20305412 -0.47912186 -0.032339007 0.055839024 0.40802044 -0.18078618 0.3197442 0.06728774 0.0014925817 0.05768298 -0.033641987 -0.25267452 -0.059660908 0.13065447 0.60237646 -0.06918799 0.14518797 0.04215181 0.04310094 -0.65000314 0.16554695 -0.16771998 -0.087096475 0.016898094 -0.41055933 0.037646852 -0.1357066 -0.086319 0.1194443 0.031836335 0.5264566 -0.16731851 -0.15044266 -0.16543834 0.23776774 0.308468 -0.15594712 -0.07689648 -0.10103731 0.44986215 -0.14595772 -0.021658918 0.12496286 0.13675897 -0.27698338 0.008888996 -0.017734181 0.00034020195 0.00158297 -0.08278493 -0.07217597 0.27526897 0.06416756 -0.17289683 -0.31419212 0.023005519 -0.054115858 -0.10961641 0.1316566 -0.1140628 0.44046095 -0.3684183 -0.1153637 0.13563184 -0.023048611 0.2283914 -0.17429921 -0.15826815 -0.15640637 0.94559234 -0.0781067 -0.29025045 -0.09076923 0.025444128 0.44646505 -0.17493922 0.41331306 -0.06711467 0.23766728 -0.41662946 0.41519046 -0.4522741 -0.103816986 -0.17355481 -0.23319097
data -0.06885155 0.15449238 -0.033791974 0.029813703 -0.015147442 -0.029632859 0.16888852 0.2460718 -0.26533124 -0.19695061 -0.024620157 0.047771506 0.08132233 -0.106649496 -0.13563961 0.08697833 -0.23143373 -0.18202741 -0.035957843 0.17887068 -0.021871101 0.136439 -0.06751452 -0.1504321 -0.07727609 0.06616258 -0.39483026 -0.42201924 -0.09524026 0.2805912 -0.02945408 0.075234644 0.2327629 -0.29161456 -0.19753343 0.018091379 0.23226835 0.31587598 0.18641488 -0.08971342 0.06814112 0.05028449 0.05758089 0.20291272 0.03826336 0.07532008 -0.11186425 0.03778498 0.3399913 0.09267337 0.016245889 -0.14597721 -0.25899655 0.07959876 0.15226655 0.02374596 0.19936268 0.16119066 -0.15529053 -0.18080872 -0.031522527 0.057601046 -0.005458605 0.0071185324 -0.021933245 -0.15055574 0.19660804 0.10067678 0.052423265 -0.13022076 0.12407294 -0.0741883 0.21211657 0.19611871 0.0202405 0.24892102 -0.15216303 0.26747853 0.15569332 -0.011416715 -0.02658448 -0.39671555 -0.5227273 0.44214654 0.40946475 0.027287288 -0.06856968 -0.117519945 0.21950601 0.24747719 0.11220246 0.30123475 0.29423773 0.040510274 -0.214115 -0.0707036 -0.27579424 0.054861568 0.16976687 0.11383778
these -0.29277146 -0.121643275 0.04429301 -0.23402719 -0.021778326 -0.20370498 -0.06349875 0.16522522 -0.210272 -0.12362288 0.18187597 0.12821305 -0.121840455 0.2543424 0.0642401 0.23890918 -0.26454994 -0.19260511 -0.09947179 0.27472788 0.16397735 -0.29388294 -0.48976135 -0.09438992 0.387574 0.29982954 -0.03643875 -0.0646126 -0.06725041 0.15789764 0.055643436 0.13049212 -0.12107734 0.21099104 -0.010965043 -0.19860123 0.19227256 0.020783965 -0.083654724 -0.15350692 0.0857006 0.16040184 -0.1144196 -0.033172175 0.0036380822 0.0676535 -0.114641644 -0.021987112 0.15648724 0.02344132 0.07354545 -0.07617937 -0.023075053 -0.10346705 0.10693299 0.031246142 0.35922894 -0.074097715 0.19530697 -0.06621807 -0.11082842 0.10291478 0.063276306 0.053474795 -0.14468572 0.052831423 0.18032414 0.01559484 0.0100617325 -0.06689811 -0.060162064 -0.06862108 0.16146453 -0.11970395 -0.106286675 0.43312278 0.33751485 0.008399579 0.41130444 -0.08433346 0.3235574 -0.09540846 -0.2547865 0.2129707 0.2408673 -0.2850368 -0.12790556 0.13751441 -0.3343805 -0.09290623 -0.31180242 0.35060716 0.30678287 0.40958184 -0.45357302 -0.17996855 0.45269236 0.68881357 0.44006145 -0.59866077
can -0.11122521 0.2707876 0.23265214 0.0009801434 -0.17141767 -0.040809944 0.2244444 0.1934482 -0.019360965 -0.111839086 0.0394083 -0.20187977 -0.13821398 0.043096032 0.14150423 0.1253931 -0.11258588 -0.19283971 -0.14480904 0.12025241 0.1136004 -0.17653072 -0.21752752 0.00598054 0.15123524 0.12641767 -0.24110304 -0.27214947 -0.102332436 0.119794235 0.06964992 0.061889987 -0.018789506 0.0261587 0.09765761 -0.13761024 0.28726134 0.13688387 0.121750616 -0.17119713 0.067662686 2.4288232e-05 -0.11684014 0.045686338 0.046652414 0.06272886 0.08227062 0.027115103 -0.07985621 0.07678008 0.061117638 -0.13929354 -0.08424375 -0.06059352 0.05180756 -0.08744059 -0.0011125768 -0.078677796 0.12768611 -0.04689199 -0.11531098 0.058078486 0.0227199 0.10467275 -0.15988345 -0.095532924 -0.049207933 -0.13623144 0.08248078 -0.12835748 -0.07797712 0.109549046 -0.0010582854 -0.032322783 -0.19775891 0.103654586 -0.4338677 -0.39095873 0.07047658 0.17488304 0.07428008 -0.25341132 -0.28097495 -0.04392451 0.14689074 0.01247296 0.32219267 0.27278784 -0.05526323 -0.08809109 -0.12403563 0.11686145 0.34364888 0.2116033 -0.04181571 -0.11842722 0.19126557 0.36820334 0.024345841 -0.057444554
