37 100
from -0.38718134 0.09230042 -0.08568614 0.12539858 -0.1419769 -0.2799574 0.014327105 -0.2607821 -0.07042009 -0.1996061 0.20837349 -0.107988015 0.24986498 -0.02353949 0.45536852 0.101641305 -0.0037346855 -0.032095686 0.24210423 -0.012596883 -0.21764357 0.014459572 -0.0005080085 -0.03516726 -0.11468323 -0.4911406 -0.068397224 0.0012195671 0.009906414 -0.06976879 -0.23989223 -0.009529839 0.23935333 0.16998197 -0.02622023 0.38773605 0.028737329 0.24572054 0.16290581 0.1781368 -0.35017055 -0.026259417 -0.035147313 0.13369797 -0.1946526 -0.588322 0.14601688 -0.20359918 -0.11254332 -0.32943103 0.28580153 -0.03853841 -0.06605833 -0.047070272 0.060039468 0.17484704 0.07746397 -0.119719096 0.021820016 -0.0021270388 -0.004506447 -0.041360974 -0.0073474357 -0.041257482 0.054954965 -0.06888323 0.14978728 -0.27056432 -0.030923357 -0.1279214 0.04247033 -0.10959588 0.20245634 -0.14730148 0.13292123 0.07416156 0.10641278 0.1441775 0.10051925 -0.10943067 -0.12987262 -0.11663219 0.16725573 -0.23900318 0.03148964 -0.5922675 0.0519325 -0.2778618 -0.085541986 -0.39895946 0.41907668 -0.14365618 0.38739523 -0.23617819 0.5044905 0.6614796 -0.03188839 -0.103199266 0.13050763 0.17896739
using -0.1254572 0.0047906083 0.25137904 -0.2890316 0.004562105 -0.036620714 0.17237248 0.18774508 -0.28469014 -0.04463071 0.600401 0.052584086 -0.22695574 0.07734073 0.17405622 0.30756167 -0.11630957 -0.13076943 0.2725757 0.33957565 -0.3131208 -0.10025241 0.1928741 -0.008998994 -0.08203963 -0.07674745 -0.23971859 0.40852168 -0.28860864 -0.10623382 0.1285883 -0.0077440306 0.09364131 0.092725836 0.07197541 0.0933642 -0.13140531 -0.3345519 0.5174825 0.21984579 -0.18066233 -0.38479626 0.34192738 -0.26572925 -0.20023598 -0.5078071 0.37126577 0.36250156 -0.22637676 -0.016629139 0.20363028 0.066814646 -0.21927099 0.10380943 0.03259426 0.019720463 0.13564393 -0.17078345 0.042076953 0.09371756 0.014078586 -0.09806261 0.050539877 -0.06596794 -0.034613073 -0.118558235 0.36648542 -0.021390943 -0.15488592 0.11643782 -0.05287634 -0.114159025 0.019479671 0.16177066 -0.1007444 -0.0934548 0.2424238 -0.1503015 0.16394076 -0.023375237 -0.19084685 -0.030949283 0.15695491 0.03246569 -0.23094311 -0.47176397 0.043599274 0.49675435 -0.47694576 -0.25547013 0.16700418 -0.0724776 -0.24941939 0.29317135 -0.028073357 0.45142227 -0.15952738 -0.42405203 0.051122442 0.07296066
<sep> -0.23038124 0.24576055 -0.09565357 0.092226885 -0.10592259 -0.20357077 0.26076716 0.13210718 0.24774589 -0.07522084 0.07659207 0.16752884 0.014139973 0.8734359 0.11181206 0.2242409 0.13144761 -0.19939917 0.22585025 -0.3901123 -0.05489077 -0.15812181 0.07445944 -0.3704334 -0.16912952 -0.12367074 0.04209188 0.11953909 0.009804005 0.0070814257 -0.07246738 0.20137882 -0.120971836 0.21869901 -0.113555625 0.28493693 -0.42031467 -0.20303437 -0.24651517 -0.28702474 -0.02847658 -0.38989842 0.0031956388 -0.52618444 0.1859112 -0.44342694 0.60523003 0.10135793 0.11254906 -0.51199955 0.123531595 -0.20078152 0.053630635 0.09319325 0.061974008 0.0046664923 -0.06434968 -0.06076159 0.045937747 -0.1327567 0.038382646 0.012136605 0.04374807 -0.0062353415 0.11051601 -0.2204281 0.47987714 -0.051563375 0.31745142 -0.26478305 0.09584908 -0.20619312 0.16263172 -0.16349018 0.073121116 -0.1073195 -0.027734933 -0.16275723 -0.13535516 -0.008400278 -0.038286984 -0.13315119 0.27187094 -0.20140247 0.14195079 -0.33696845 0.2713486 0.14637245 -0.27079627 0.03759514 0.22108895 -0.09002781 0.121683694 0.13759553 0.28778952 0.35738087 -0.2583845 -0.20267095 -0.010135933 0.5179447
this -0.16594753 0.13370654 0.26778206 -0.18849081 -0.2663419 0.16520394 0.20163095 0.26767978 -0.27083 -0.15304531 0.24392588 0.7419476 -0.32457778 0.15977189 0.7491696 0.37098482 0.04867488 0.31713668 -0.3113995 0.10087298 -0.061057765 -0.59220093 0.27722964 -0.22229056 -0.39583677 -0.08015116 -0.1187428 0.2625284 -0.5076634 -0.27776095 -0.21903703 0.29886243 0.07658966 -0.034383208 -0.031302888 0.18699136 -0.5581837 0.043653037 0.1495548 0.15930751 -0.1770479 -0.47362968 0.17387891 -0.4166686 -0.36037755 -0.1439515 -0.08852296 0.61052746 -0.2109034 -0.68896806 0.33017057 0.008957808 -0.10055803 0.06328225 0.29504633 0.2350321 -0.0838637 0.08796097 0.090592034 0.091839775 -0.033128943 0.038356345 -0.0859138 -0.053709175 0.026076972 0.09630258 0.31040367 0.22762059 0.08737492 -0.111268856 -0.063325115 -0.2988835 -0.13720936 0.012458376 0.006614528 -0.29357734 0.10175206 -0.123451516 0.4565508 -0.034035556 -0.19147669 -0.26904497 -0.12636268 0.00020595337 -0.14946915 -0.32170182 -0.083533175 0.30530044 -0.32317907 -0.6666663 -0.15554388 0.14342073 -0.6461831 0.47288996 0.48683706 0.14297429 0.47433382 -0.61520225 0.35035798 0.6530734
is -0.17474899 0.17609145 0.19185153 -0.2155314 -0.055670902 -0.33908135 -0.1346314 0.11494054 0.037695553 -0.023766663 -0.31275743 -0.017745858 -0.046817493 0.6834642 -0.19631843 -0.17525332 -0.047708414 -0.10132201 -0.2672242 -0.16281809 0.0075870827 0.032948952 0.015539077 -0.43550023 0.009778884 -0.113461666 -0.025374975 0.21228202 -0.14233626 -0.118931465 -0.119837455 0.21823129 0.075544745 0.07011031 -0.19094503 0.14269318 0.053390425 -0.28581694 -0.41009125 -0.023307143 0.32126766 -0.13462906 0.1629855 -0.38901842 0.045598716 -0.595117 0.31541854 0.16254039 -0.38520357 -0.07847548 -0.00876057 -0.26683 -0.14485508 0.15383512 0.050991558 -0.10968265 -0.063263975 -0.10681777 -0.14206594 0.06077859 0.07716125 -0.02381206 0.044935532 0.08499402 0.0066768755 -0.39712277 0.14333206 0.03808576 -0.063751735 0.021401435 0.11645595 -0.025928574 -0.060257938 0.087691 -0.022628086 0.10310168 0.21165091 -0.06406364 0.024857461 0.05058849 0.077834345 -0.020373385 0.016168496 0.17067695 -0.0042693843 -0.05490646 0.057116516 0.2908877 -0.21179599 0.061838266 0.22084656 0.124347635 -0.12573412 0.58756363 -0.013799514 0.5554221 -0.27097955 -0.105685845 0.43474317 0.19003764
a -0.30576247 -0.088260435 0.18939133 -0.14929517 -0.14458475 -0.53058845 0.060163807 -0.17822021 -0.1353724 -0.18592624 0.3460943 0.12392668 -0.09555825 0.19086625 -0.076910146 -1.2647145 -0.01619203 0.11868991 -0.2756549 -0.2997926 -0.5691537 0.024086047 0.11827357 0.21986042 0.011730651 -0.28226766 0.03736564 0.06668324 -0.16009964 -0.017350314 0.87165916 -0.06804555 0.012103812 0.35123622 0.4226666 1.0165727 -0.1321384 -0.007362004 0.04141131 0.30605876 -0.043214113 0.14843872 0.14051186 0.42565116 -0.31252715 -0.84884876 0.103011645 -0.20806724 -0.16981669 -0.4608024 0.23214133 -0.13539407 0.18845975 -0.052108828 0.20872124 -0.3772686 0.06292162 -0.14177728 -0.12804073 -0.2055164 -0.2666887 0.10736018 0.0042687934 -0.10383537 0.10639866 -0.31976643 -0.04048671 -0.07528786 -0.25516543 0.056807995 0.40120625 -0.043615945 0.2176085 0.03781728 0.31900805 -0.05177786 0.08761803 -0.30108643 0.06485029 -0.17663401 0.057891455 -0.08414256 0.06607225 -0.13519508 -0.25629988 -0.6566259 0.0033716343 -0.042554334 -0.10146384 -0.26974165 1.1087904 -0.16637912 -0.11919212 0.022491934 0.38755718 0.57100195 -0.06490276 0.0020411485 0.06274834 0.036424667
of -0.3055387 -0.016154785 0.23257346 0.20736918 -0.14885303 -0.210128 0.29908368 0.34376416 -0.43899846 -0.122293696 -0.12057297 -0.11453088 -0.22641583 0.12302453 0.05245521 -0.46508625 0.36198828 0.8304483 -0.6608328 -0.4528796 0.060017865 -0.29172266 0.35503697 -0.49844563 -0.18754429 -0.07861782 0.4244141 0.09121853 -0.053222675 -0.006138183 0.7970528 -0.46085918 -0.58160603 0.33496186 0.43008113 0.5468902 -0.223228 -0.6805887 0.63733095 0.29047042 -0.11133837 -0.071232714 -0.08264436 0.27015412 0.057315975 -0.53673923 0.4137867 0.55967706 -0.51041 -0.27472466 0.052455906 -0.35335815 -0.074189305 0.27360243 -0.0068326173 -0.23171231 0.29810312 0.22032471 -0.29362792 -0.15592809 -0.19925423 0.23335762 0.13768414 -0.20096558 0.054092277 -0.14077973 0.110196255 0.28728703 -0.38002643 -0.15381853 0.18963405 -0.21154831 -0.27111956 0.22680277 0.04879783 -0.002104725 0.11006596 0.060276724 -0.38190907 -0.05194647 -0.48021832 -0.16184223 0.08054075 0.47508156 -0.10346318 -0.31450856 0.12015542 0.48619387 -0.41306135 -0.26199543 0.6248734 -0.3506482 -0.6641148 0.5498094 0.359142 0.3173525 0.03844911 -0.42185798 0.6026094 0.31988657
and -0.057816494 -0.15382645 0.24235475 -0.3327085 -0.24039698 -0.43610573 0.48293456 0.16755497 0.3686369 -0.087876946 0.17397371 -0.32899746 -0.27501827 -0.5568945 0.057655483 -0.85192794 0.36084378 0.47790003 0.38792557 -0.09261752 -0.2977194 -0.7497305 0.021511689 -0.019642496 0.10215788 -0.3302707 0.428862 0.14608802 0.5062904 -0.24874626 0.6809576 -0.15322486 -0.4355824 0.2216531 0.26247492 0.71251714 -0.4555405 -0.11050598 -0.09805304 0.085948005 0.013476461 -0.5045529 -0.3609289 -0.59818023 -0.23745888 -0.6403054 0.48092672 0.24743734 0.09135206 -0.19670445 0.31947085 -0.42213574 0.07602821 -0.3300227 0.068561524 -0.36497676 0.122054964 0.1755636 0.12688103 -0.09343957 -0.30176044 0.45363018 0.023267193 0.38674793 -0.24770167 -0.24900214 0.46154606 0.23426804 0.3319985 0.15698208 0.25282276 -0.48104596 -0.07331888 -0.13314915 0.15361613 -0.13733836 0.3511934 -0.11375394 0.10376123 0.28039184 0.2537382 -0.121495806 0.12169846 -0.90442455 -0.19103889 -0.4023422 0.3525805 0.17644964 0.03338768 0.0814805 0.8350557 -0.1097034 -0.1535314 0.018541478 0.22424039 0.44046155 0.28595936 -0.15494958 0.09961666 -0.19350083
the -0.0943871 -0.648266 0.28693634 -0.24304943 -0.44879982 -0.111408114 0.3401798 0.2758036 -0.16078612 -0.29871187 -0.07442682 -0.33705875 -0.10303437 0.24821196 -0.040506754 -0.41753608 0.070473604 0.5305298 -0.41406563 -0.68679535 0.15891841 -0.537537 0.4037394 -0.51474255 -0.035092685 -0.033986006 0.31497237 0.17060274 0.105719335 -0.071738824 0.37440968 0.5426834 -0.5345982 0.14640613 0.9062167 0.63289106 -0.12673603 -0.41926453 0.18886437 0.7308299 -0.13538791 -0.56447804 0.30868974 0.0438546 -0.28889135 -0.3049326 0.058567286 0.518033 -0.24608333 -0.73958325 0.09505587 -0.5286362 -0.13937484 -0.11150965 0.09962429 0.006229919 -0.017904324 0.27653676 -0.09095374 -0.26732376 -0.12405475 0.17666738 0.17553216 0.0779263 -0.13394976 -0.2107398 0.408776 -0.085334964 -0.051704407 -0.10124671 0.10758667 -0.2660497 -0.30107135 0.2133117 0.38926387 -0.19497852 0.6428128 -0.15852165 0.11945332 -0.00867343 -0.2630546 -0.83795327 0.09162932 -0.08997765 -0.6242067 -0.4256811 0.211534 0.17224161 -0.19262059 -0.48231432 0.5408553 0.26698408 -0.6117575 0.16700898 0.80712587 0.21072966 0.32269254 -0.1829283 0.1809946 0.2768718
are -0.101295814 0.010942937 -0.040464945 -0.25377995 -0.09792645 -0.49762332 0.11325778 0.23423545 0.10659216 -0.06253836 0.4809438 0.019533334 -0.11130638 -0.39112702 0.2112211 -0.82817024 0.18286426 0.4134524 0.13300772 -0.23524053 -0.19364545 -0.24959284 0.1523004 -0.4562248 -0.077153005 -0.5868098 0.19851892 0.04289845 0.222251 -0.1374909 0.5448378 -0.18341033 -0.18489105 0.25939882 0.021624159 0.44468704 -0.43251455 -0.42719492 0.17100094 0.10248933 0.26546097 0.07141171 -0.11902911 -0.7071077 0.027295683 -0.55599123 0.17209823 0.29726171 -0.12577845 -0.04571744 0.3141034 -0.13353515 -0.13223688 -0.10444144 -0.0011201405 -0.38568842 -0.023646696 0.1002451 -0.037389554 0.0045777 -0.46310964 0.35906997 0.11512891 -0.044836134 -0.08129764 -0.23804878 0.12716305 0.2308358 0.38274926 -0.0349671 0.28699395 -0.0746807 -0.17180742 0.014845924 0.04849267 0.11820007 0.028481439 0.1939114 0.24219146 0.12556435 0.44234014 0.061271798 -0.12588543 -0.40579087 0.06738316 -0.19208074 0.15693381 0.30307376 0.10565949 -0.05866989 0.5880339 -0.35749072 -0.32583994 0.38336098 0.11301012 0.15221679 -0.0109630935 -0.24064365 0.20743424 -0.04608851
in -0.2982244 -0.110100515 0.38852644 0.08360406 -0.0013247435 -0.46414518 0.16813885 -0.19735779 -0.057441603 -0.3419249 -0.85564274 0.04562536 0.028661005 -0.14541076 -0.28059295 -0.30631146 -0.0019334094 -0.2667604 -0.34498152 -0.09443897 -0.5756991 0.00744217 0.5362877 0.029796833 -0.14970931 -0.7875037 0.060675476 0.11023597 -0.003586883 -0.07569495 -0.09987791 -0.119152114 -0.042849775 -0.1643034 0.057937823 0.5772344 -0.10285822 -0.17012544 -0.10076981 0.1813402 0.23919122 -0.017177336 -0.016410675 -0.02893305 0.017520403 -0.40415892 0.18145598 0.115727544 0.22864486 0.08642906 0.52683115 -0.035622504 -0.05652789 -0.004256494 0.05850822 -0.019897822 0.08906815 -0.14776099 0.123836994 -0.16709094 -0.2215967 0.019215632 0.07908002 0.062123302 -0.040148806 -0.22179222 0.05293152 0.09837581 -0.025829796 0.023715978 -0.10073261 -0.054032587 0.061131712 -0.031243006 0.037320897 0.14451507 0.016270583 -0.1743602 0.07526712 -0.009366425 0.28314018 -0.001913513 0.27883953 0.040134236 0.2573782 0.104478456 -0.07945217 0.12264443 -0.06603783 -0.01856346 0.1507152 -0.107133456 0.11941346 0.27147505 0.09762478 1.0305612 -0.055530693 -0.49639156 -0.04201659 -0.06733004
for -0.06243411 -0.3448008 0.18528424 0.18902427 -0.17908053 -0.5518855 0.27511978 0.344719 -0.3950262 -0.17830522 -0.31160834 0.37927136 0.5441964 -0.5915942 -0.36471885 -0.32416913 0.2219249 0.30532965 -0.48376077 -0.25233427 -0.36819953 0.10644937 0.26939106 0.33429372 -0.12483758 -0.41023704 -0.0977057 0.5905307 -0.5280195 -0.23241627 0.19807233 0.0688193 0.10681008 -0.20695388 -0.09401902 0.2349458 -0.17302285 -0.32773468 0.2773466 0.1553041 0.024491435 -0.029614836 -0.1542638 0.07964113 -0.07007146 -0.16380097 -0.07468385 0.21378563 -0.31441796 0.05878761 0.08246076 -0.091484055 -0.32346895 0.39827746 0.15492046 -0.16730642 -0.080206886 0.050933782 -0.1425239 -0.044651248 -0.017239794 0.0070550456 0.14040133 -0.17249422 -0.08573018 -0.15979783 0.10082501 0.12734592 -0.06692148 -0.004018706 -0.03160149 -0.14909422 0.1195758 -0.07968546 -0.09573178 0.33326656 0.164276 -0.14973418 -0.07352441 0.15402737 0.060058996 -0.09851383 -0.26005167 0.42065203 0.13956687 -0.033079974 -0.05828202 -0.06859042 0.2753803 -0.061362036 0.480502 -0.3692491 -0.09767965 0.11603371 0.123085566 0.46164206 0.16288589 -0.674466 0.41422227 0.28939575
to 0.018776504 -1.0401739 0.16223562 -0.5055016 -0.14358565 -0.42394388 0.5905395 -0.028380487 -0.16026734 0.0039643124 -0.68568444 0.42443144 0.23517223 0.32473674 0.14486304 -0.31271207 0.43322092 0.3064403 0.13782762 0.20400119 -0.2877541 -0.32788557 0.10628971 -0.2844593 -0.5145347 -0.45288736 0.22943693 0.05889891 -0.032327943 0.044287715 -0.06311688 0.32030147 0.19408795 0.43419102 0.27230126 0.43821833 -0.26555052 0.07110383 -0.0854569 -0.00659999 0.10784689 -0.4050768 0.035252377 -0.24326193 0.1418708 -0.3063108 0.013553875 -0.23421957 0.102203615 -0.18596885 0.38413736 -0.07764823 -0.083255306 -0.25947773 -0.04271277 -0.01743594 -0.04273856 -0.14956129 -0.34316498 0.10347243 -0.15574151 0.08965323 -0.04125827 0.06641351 0.13598156 -0.18229432 0.26054174 -0.011868295 0.121930756 -0.120741874 0.0049870512 -0.1257996 0.07126222 -0.10490167 0.12649934 0.020438766 0.39935783 -0.10758031 0.49955025 0.06286057 0.18908009 -0.52989614 -0.046630938 -0.14786352 -0.28300044 0.13207583 -0.4137891 0.12630141 -0.2970597 -0.070459686 0.29434362 -0.24594536 -0.17341289 0.07302762 0.18338142 0.58821356 0.28204265 -0.1134791 0.08325591 0.16044524
be 0.20323189 -1.2360234 0.40008533 -0.46480626 -0.18946034 -0.63135755 0.28176296 0.101972386 0.16310768 -0.62052774 -0.5269538 0.49467555 0.15068297 -0.021484062 -0.41988888 -0.19405314 0.2843082 -0.05754671 -0.01754506 -0.2532248 -0.27204904 -0.8663827 0.5279444 -0.12095074 -0.5562134 -0.5873445 -0.03664997 0.22566777 -0.22780417 -0.5296834 -0.01685473 0.6304665 -0.22775953 -0.048869323 0.20121752 0.57383233 -0.2905942 -0.114627995 -0.1068133 0.34417516 0.14399889 -0.280883 -0.12800318 0.10529699 0.13248828 -0.23434223 -0.12321837 0.2968416 -0.05450921 -0.17899165 0.17062838 -0.15653698 -0.1851861 0.14650702 0.1462336 -0.19357705 -0.06770704 -0.00014254548 0.033329934 -0.20032474 -0.2714165 0.25040427 -0.06039724 0.049352087 -0.052387394 -0.24340488 0.09335443 0.07072802 0.077824235 -0.16263825 -0.081540406 -0.12105544 -0.04449139 -0.10812274 -0.042161677 0.15311159 0.7791219 -0.11984562 0.083550714 0.31738868 0.28781718 -0.70804375 0.09777582 0.073475696 0.18143182 0.15959948 -0.54368573 0.057739682 -0.068019226 -0.03800483 0.14575125 0.2086568 -0.13487841 -0.20770304 0.35892475 0.55194175 0.6722911 -0.47290412 0.31743577 0.5688207
by 0.010212452 -0.2983737 -0.13975638 -0.6054824 -0.11570193 -0.042621635 0.42528614 0.28885347 -0.07360434 0.092718646 -0.45350447 0.22225486 0.36972684 0.3433738 -0.09169972 -0.19048427 0.03305197 0.2302577 0.3213433 0.09210133 -0.3471885 0.2798071 -0.07194999 -0.53499794 -0.24102674 -0.15960722 0.38646537 0.3781707 -0.19450673 -0.09238952 -0.12676874 -0.10406498 0.1345935 0.6242446 -0.061156873 0.16944359 -0.387424 -0.24812056 -0.014056339 0.09227196 0.20304827 -0.21956946 -0.12642919 -0.021046974 0.11957369 -0.22369891 0.38313666 0.17329693 -0.48370323 -0.07722825 0.3251802 -0.08915409 -0.21252702 -0.04025531 0.0935037 0.28078455 0.050441127 0.07598054 -0.2292972 0.12968148 0.015122102 0.12749934 0.13762674 0.123182714 -0.031698577 -0.17782484 0.29030994 0.09125471 -0.02522319 -0.06887125 0.10061528 -0.03691039 0.056973677 0.013011943 -0.0060438244 -0.14000367 -0.052362606 0.033436015 0.39332527 -0.027356373 -0.033701357 -0.021331899 -0.2819959 -0.37862962 -0.04466513 0.08494331 -0.19433098 -0.16991182 -0.14264663 0.0038679144 0.26997337 -0.20641589 -0.017692849 0.110714525 -0.09255716 0.38539883 -0.43650568 -0.29689837 0.5284882 0.23054275
with -0.49140286 -0.10888318 0.39213845 -0.19680464 0.26057166 -0.42620382 0.17184792 -0.2655985 0.3033417 -0.207391 -0.30334398 -0.11100994 0.27483067 -0.20086962 0.090393424 -0.08062734 0.08889552 -0.11407335 -0.4053271 -0.05668835 -0.20597582 0.14021006 0.0024405126 0.07666845 -0.04594508 -0.49125722 -0.0049566547 0.16492833 0.061376724 0.077250205 0.02754025 0.12462909 -0.28352603 0.058497675 -0.37518248 0.5007489 -0.009669772 -0.03704425 0.2630588 -0.027639847 -0.19025435 0.08906723 0.0073673576 0.35006568 -0.027291564 -0.24316047 0.015999177 0.2776836 0.0046684416 0.06955541 0.00952456 -0.028411543 0.046701755 0.08931087 -0.0067845327 -0.09280701 0.04060905 -0.13108176 0.059973087 -0.034538303 0.06193019 -0.10260737 -0.012344195 -0.09768953 0.08610987 -0.111851625 -0.0681369 -0.007319597 -0.17863071 -0.043358833 -0.016621564 0.0075600925 0.114366695 -0.039125778 0.19823655 0.81051964 0.12340025 -0.4154098 0.09826919 -0.20370631 0.12350709 -0.21875876 0.47133848 -0.2341712 0.38121828 -0.64516914 0.14992514 -0.043308247 -0.06622194 -0.050193477 0.2764984 -0.10769338 0.010226887 0.07105485 0.021738332 0.43699867 -0.03795234 -0.47153914 0.041329123 -0.28440356
as -0.29775596 -0.27712333 0.40804598 -0.054519646 -0.16474041 0.21269333 0.17896068 0.15553178 -0.5432364 0.07909212 -0.1544778 0.02021174 0.1977763 0.28036582 0.034726523 -0.59093416 0.41501814 0.070415325 -0.048647836 -0.16476777 -0.35170445 -0.06431455 0.12628677 -0.13867854 -0.058767807 0.02881292 -0.06632509 0.30996588 -0.2563012 -0.014113698 -0.15568878 0.3071559 -0.07322301 -0.006258754 0.002250334 0.36233285 -0.16058056 -0.37817293 0.30842122 0.15879916 0.25771043 -0.14782417 0.06799349 -0.39941195 -0.04467045 -0.10068705 0.042525824 0.12343319 -0.029064802 -0.09641684 0.07976909 -0.12945144 0.0076924395 0.060111675 0.03658868 0.09091798 0.03333895 0.0453048 -0.25513086 -0.015591092 0.0928406 -0.12550747 0.020963743 0.008793181 -0.020921122 -0.15043876 0.0473023 0.13269763 0.06396701 -0.029644806 0.04299573 0.019310135 -0.035462543 0.053018797 0.08630184 0.16701964 0.3010062 -0.61302364 0.31073985 0.20467338 -0.052575413 -0.31866157 0.028271472 0.4379231 -0.022874996 -0.25579554 0.3151686 0.3723559 -0.6260488 -0.17443807 0.30163836 -0.13929167 -0.18084641 0.32137665 0.1628983 0.2759054 0.055851854 -0.263924 0.012962675 0.027511504
an -0.1430858 -0.22433859 0.28249457 -0.10327292 -0.15265718 -0.3899235 0.102982305 -0.18659405 0.5403796 -0.1047955 -0.043891706 0.15435646 0.25925305 0.14048786 -0.46756598 -0.27749553 0.19488811 0.28002924 -0.16213687 -0.21145993 -0.1755462 -0.38967347 -0.062171984 -0.3822654 -0.19907865 -0.24678923 0.19315101 0.017693682 0.36495328 -0.07866589 -0.106248066 0.15019453 -0.086531505 -0.15918894 -0.11712195 0.36657247 -0.41467297 -0.24687931 -0.21356505 0.098384164 -0.16317673 -0.33035967 -0.25093466 0.1151735 0.2979819 -0.19164528 -0.032445118 0.0068029216 0.041122463 0.010826018 0.092993475 -0.0029806767 -0.070011064 -0.051043656 0.029510811 -0.11409229 -0.003142699 -0.02727923 0.17617661 0.09024093 0.123784915 -0.0052457885 0.11943134 0.039346166 0.106453925 -0.0005623672 0.35720468 0.15662248 0.021668877 -0.08700167 -0.037265144 -0.09485493 0.04350711 0.21878819 -0.21428587 0.30414692 0.0051947725 -0.2539684 -0.18741232 0.0303971 0.29836938 -0.0042537833 0.19020604 -0.16451778 0.0231007 -0.6281746 0.29246578 0.085141435 0.432069 -0.018924326 0.32520962 -0.005599356 -0.042544283 0.04053086 -0.052301392 0.26639906 -0.08013253 -0.017172089 -0.11612952 0.24730049
two -0.18491171 -0.74571896 0.22815257 -0.34795034 -0.309023 0.26320875 0.45037165 0.4573438 -0.2895405 0.055473138 0.060267437 -0.4384955 0.3580155 -0.30183688 -0.27585903 -0.112415195 -0.40982977 0.10889747 0.26324636 -0.39630628 -0.021702845 -0.75696534 0.34642637 -0.09207746 -0.32445902 -0.15237509 0.18382746 0.20578198 -0.25187618 -0.08642503 0.01771327 0.09110355 0.16080374 0.121340975 -0.22977021 0.2867867 -0.030214159 -0.1553293 0.08474925 0.35271606 -0.050716933 0.2777854 -0.011677226 -0.051116534 0.22205536 -0.31159377 -0.016763672 -0.028236872 0.1392726 -0.074437335 -0.05365158 0.050601024 -0.029602973 -0.064428166 0.010322596 0.099639975 0.19753262 0.05197285 -0.07605198 0.087091304 0.09679036 0.020542027 -0.09969578 -0.13283646 0.095207736 -0.12996492 0.06743288 0.016876472 -0.07801473 -0.21569116 0.2135594 -0.22411732 0.15493223 -0.05889889 0.11070532 0.3424923 0.27915558 -0.2504461 0.49211216 0.3037858 -0.2822812 -0.30824745 -0.3266511 0.04641681 0.019020844 -0.24541444 0.28296208 0.24809651 0.0055310046 -0.22003257 0.24834713 0.09140958 -0.05421665 -0.12944686 0.20423943 0.4305001 0.30306008 -0.1408117 -0.05582832 0.22639291
on -0.21678047 0.19557689 0.09330732 -0.28332654 -0.18655895 -0.5134534 -0.10896202 0.18633582 -0.18105365 -0.06821208 -0.45102543 0.15296294 -0.052838806 -0.15597661 -0.2546362 -0.2791891 0.19077778 -0.04109671 -0.11748316 0.1288474 -0.046246853 0.090902664 -0.0024430896 -0.68835765 0.07066201 -0.33653083 0.19483432 0.20319648 -0.0031503895 -0.20040599 -0.019201187 -0.044346426 -0.032343186 -0.13450277 0.12359611 0.39644706 -0.29043496 -0.21009912 -0.06429811 0.08600162 0.09530797 -0.09435637 0.15338944 -0.04576805 0.01498868 -0.08067048 0.23728424 0.06724864 0.039223243 -0.0820771 0.12660758 0.0094605265 0.015893105 -0.0065328917 -0.03306968 -0.10461022 -0.09916874 0.07776479 0.035664096 0.020737944 0.057843477 -0.13168319 0.0020196356 0.16683006 -0.015888182 -0.077006534 0.10946058 0.05085199 0.13126725 -0.05690758 -0.29708838 0.032306798 -0.07280835 -0.138597 -0.088389136 0.3324401 -0.24771948 -0.2880374 0.07413982 0.29209787 0.24369155 0.2293671 -0.070520364 0.21334372 -0.14130558 -0.5614392 0.25848174 0.28576905 0.016683996 -0.05048814 0.1232498 -0.18075801 -0.12861398 0.10362438 -0.06506141 0.29059586 -0.55288297 -0.10987412 0.2272851 0.20298329
time -0.177872 -0.073195465 -0.05780296 -0.051434964 -0.014259171 0.012958536 0.041214485 0.098801054 0.20017114 0.030081505 0.2668598 0.007568341 0.18525027 0.077490754 0.15000644 -0.3233496 0.060512476 -0.16429868 0.0717897 -0.28773138 -0.4414771 0.055728693 -0.0136988945 -0.12251175 -0.14856327 -0.06365831 -0.03093511 0.16004057 0.024573697 0.2064407 0.12637347 -0.012833241 -0.022004094 0.09456036 -0.039992183 0.493656 -0.057412226 -0.07776703 -0.07070489 0.07718449 -0.20524395 0.012868935 -0.10697469 0.16038899 -0.18856744 -0.3136436 -0.015368384 0.06968187 0.004729004 -0.066566035 0.18572927 0.008955126 0.14995006 0.1627652 0.17039405 -0.18334652 -0.07569888 0.19027637 0.026905281 -0.043983676 0.43552107 0.0050346446 -0.2445561 -0.039139 0.020139756 -0.1416316 0.03301739 -0.12721029 0.16754507 -0.2591709 -0.09822036 0.080116645 -0.12088402 0.031075979 -0.17941517 -0.07054241 0.047193605 0.36576435 0.16583689 0.15853684 -0.08615694 -0.10436247 0.10743423 -0.095477276 -0.07263667 -0.10404628 -0.052476294 -0.26911312 -0.14473411 -0.27469766 0.16458428 -0.09137095 0.11557113 -0.06619824 0.28535554 0.27567935 -0.03948379 -0.10179557 0.069574185 0.013317767
it 0.02417781 -0.12270797 0.17354767 -0.12055895 -0.0329803 0.14187324 -0.06317513 -0.064186305 0.083563685 0.1304688 0.04096489 -0.10394991 -0.21645822 0.35171503 0.13157064 -0.23491961 -0.027417652 0.24247316 -0.22830848 -0.11325462 -0.34319776 0.21091023 0.28085402 -0.12209282 -0.06075568 -0.038228523 -0.26034895 0.09526747 0.078348644 0.11116917 0.11426442 -0.06999882 -0.09054286 0.11233078 0.06564724 0.2470752 0.076327905 -0.35007912 0.22568938 0.04744984 -0.03428818 -0.21061003 0.18307805 -0.23565793 -0.1065486 -0.043552686 0.048399743 0.18679683 0.028347643 0.06474909 0.09494987 -0.25026202 -0.11913434 0.18436255 0.14409174 0.06509746 -0.014804045 0.09219254 0.19805507 0.03772423 0.12650792 0.0038814824 -0.28279755 0.021848721 0.0072798175 -0.03529137 -0.09847983 0.11579986 -0.17182958 -0.0981871 -0.14781553 0.18995272 0.03311442 0.11682893 0.17233706 -0.09352935 -0.16901365 0.02145768 0.19746506 0.08505315 -0.057996485 -0.063564144 0.104956254 0.048451178 -0.1823002 -0.12634164 0.0626704 0.1426978 -0.20125623 -0.21419214 0.10160465 -0.29172236 -0.013268817 -0.10102701 -0.09911038 0.19173741 -0.12743963 -0.1438899 0.07705793 0.085180104
our 4.3073407e-05 0.036542747 0.124068245 0.069399804 -0.002584562 0.037913084 0.0047810418 -0.19623211 0.08382114 -0.08714725 0.19901924 -0.28709215 -0.111721784 -0.18313581 -0.17363234 -0.16437533 -0.08436108 0.0056112455 -0.2774965 -0.05206264 -0.30621812 0.32257587 0.13412793 0.07700191 -0.31161976 0.106198624 0.12443517 -0.05341269 0.0017295026 -0.136791 0.13085318 -0.06689538 -0.08176811 -0.06839285 0.0009526083 0.24077228 -0.2208845 0.039127793 0.017403731 0.13504389 -0.03547607 -0.25230634 -0.060442932 -0.2802068 0.15451357 -0.11006844 0.3197833 0.03979141 0.21471556 -0.28202844 0.20574315 -0.13343352 -0.20088582 -0.13049638 -0.035937723 0.009330865 0.09598231 0.046206184 0.10301944 -0.18806647 0.18568291 -0.42006963 0.026252711 -0.15981449 0.14010285 -0.04076873 -0.1610665 -0.09396415 -0.2804054 0.1564697 -0.05145125 0.56828624 -0.09664369 0.10827791 -0.3801685 0.02088744 0.008420924 -0.21995282 -0.14128561 -0.12239894 0.018449562 -0.17462143 0.16074409 -0.21777302 0.17116268 -0.059410673 -0.0679721 0.21559043 -0.21237993 0.19351822 0.14815122 -0.2306573 0.043314453 -0.084173985 0.40493456 0.2350462 0.07640084 -0.10350413 -0.030722905 0.16468425
at 0.10624975 -0.048672207 0.13222751 -0.32633373 -0.07443308 -0.02738044 0.11376052 0.042858068 0.019434052 0.08538546 0.10109416 -0.40269968 -0.0033866263 0.11346436 0.10520375 -0.060051057 -0.27496022 0.31208485 -0.26564014 -0.39001766 -0.14361742 -0.14204381 0.36769518 -0.1423339 -0.44381082 -0.12056745 -0.14798038 0.041577112 -0.14227946 -0.06936234 0.07846804 0.014717677 -0.014727941 -0.029415281 0.06538568 0.33806458 0.059605 -0.26105502 0.200749 0.39061138 -0.049022127 -0.1626742 0.12657633 -0.26824516 -0.16999166 -0.044286776 0.066987365 0.28504714 -0.23095052 -0.21639685 -0.051164575 -0.13745952 -0.083392814 0.045609 0.11361717 -0.03053669 -0.007210261 0.15495445 -0.16985565 -0.09828841 0.4505787 -0.2368091 -0.104215726 0.057559036 0.28164613 -0.10277521 -0.01932339 0.07022083 -0.13393226 -0.16917498 -0.07808896 0.1942048 0.2581956 -0.027403357 -0.29557022 -0.4174664 -0.13276176 -0.049098544 0.17736287 -0.09786103 -0.13354254 -0.1417962 -0.10460383 -0.045796633 -0.09683238 0.076121196 -0.062616214 0.035331927 -0.18203312 -0.19245873 -0.119961396 0.020850847 -0.41153812 0.08577766 0.26633233 0.03791061 0.2809751 -0.22438742 0.038579255 0.18415602
we -0.09708464 -0.1187622 0.075203165 -0.0071602534 -0.06193393 0.008214753 0.10732048 -0.0076276483 -0.101379044 -0.069312096 0.11419146 0.049243893 -0.19074064 -0.25536382 -0.0126586 -0.0062571196 -0.059959676 0.1094544 -0.35814428 0.04485289 -0.40670323 0.2244267 0.10670724 -0.20218907 -0.0896526 0.022370042 0.23953107 0.04736851 -0.17790951 -0.10982344 0.122954525 -0.08079402 -0.05140957 -0.0322813 0.0063642096 0.14344572 -0.30589172 -0.21178879 0.26521528 0.10420098 0.20200677 -0.15411143 0.11410707 -0.23370615 0.051899433 -0.31771576 0.15712829 0.07395417 -0.07768425 -0.17691137 0.23135786 0.12792349 -0.05623336 -0.19065219 -0.022758508 -0.1549386 0.055396624 -0.008179414 0.016289901 -0.17714529 0.16507362 -0.41023377 -0.18333672 -0.03953516 0.19699419 0.2283939 -0.12462536 0.09154856 -0.14631341 0.0744078 -0.22186446 0.2645405 0.026795508 -0.15994519 -0.07141362 0.14870952 0.44369406 0.02137404 -0.21985835 -0.10190285 0.16344416 -0.111131534 0.010054449 0.15092988 0.0017759701 0.07811732 -0.31792352 0.05520575 0.10010216 0.1200002 0.34763613 -0.047903836 0.04450157 0.25134948 0.063559316 0.28297484 -0.090562664 -0.019257909 0.17369488 0.053877983
model -0.02590445 -0.03698086 0.16297188 -0.064309716 0.10312804 0.38025016 -0.007822015 -0.013902905 0.20508154 0.23869498 0.5162638 -0.05355171 0.046472352 0.015229799 0.2624992 -0.22872813 0.10544146 0.062358934 0.16202867 -0.20914374 -0.3638917 0.042901326 -0.093475804 -0.13757992 -0.15369578 0.06302054 0.035613343 0.04943423 0.19103713 -0.0027071822 -0.16034642 0.07835202 0.15807144 0.078079075 0.17238227 0.2245868 -0.10853978 -0.07697596 0.013059837 -0.07450083 -0.42597133 0.039999407 0.18910407 0.10719235 -0.16291946 -0.54286027 0.08342031 -0.28959018 -0.08765527 -0.24959293 0.15611495 -0.09506432 0.07323774 0.06324619 0.047357336 -0.07074725 0.058343925 -0.07080351 0.011718823 0.01822781 0.22661154 -0.14257076 0.05821391 -0.09026365 -0.011982474 -0.17087358 0.12566614 0.12277684 0.2985848 -0.08090387 -0.42741144 0.12723091 -0.14634348 0.044290364 -0.21690041 -0.11081037 0.107956365 -0.16324832 0.259255 -0.1946047 -0.09329153 -0.016778434 0.1761898 0.010136748 -0.16220516 -0.23040693 -0.11430984 -0.16347729 -0.0919756 -0.3519655 0.35789785 -0.11093908 0.16337822 0.15869775 0.13096417 -0.24769102 0.05757519 -0.20301567 0.09574228 -0.2750387
when 0.06804081 0.097364075 -0.034839712 0.14803746 0.039650567 0.47231668 -0.1823049 -0.2816389 0.03279683 0.21061261 0.3433573 -0.05824101 -0.383977 0.3522653 0.2319286 -0.19805177 0.05648065 0.09447756 0.0018343953 -0.037254658 -0.29123986 0.17821601 0.26301286 -0.28384703 -0.16909818 0.12915039 -0.09602772 -0.09756196 0.09122614 0.08731027 0.14423117 0.14796788 -0.002463039 -0.20754555 0.006547888 0.21219793 -0.12909397 -0.11261994 0.09665155 -0.05554972 -0.21132976 -0.03240883 0.23254873 -0.034132343 -0.13508087 -0.29684386 0.14877066 0.4115666 -0.6315304 -0.22784369 0.35323587 -0.04117575 -0.15648979 0.20797071 0.0879215 0.13395937 0.20974603 -0.030418972 -0.22202925 -0.009894565 0.17572081 -0.02440436 -0.13178042 0.2667751 -0.035752304 -0.08621973 -0.13451305 0.05901427 -0.064731486 0.0012535735 -0.19753358 0.23044723 0.24262841 -0.32278225 -0.026529452 0.08626022 -0.0041324096 0.0357015 -0.25420713 0.0143531505 -0.17776468 0.035689317 0.042494938 0.2456732 -0.082858734 -0.06799399 -0.008505508 0.24602129 -0.18109505 -0.27044398 0.31387162 -0.33610675 -0.23440652 0.40667877 0.14590892 -0.0244468 0.13068928 0.14862475 -0.18464027 0.022429073
that -0.029005338 0.024872182 0.077572696 0.21818307 -0.14940444 0.24956739 -0.081234515 -0.23380664 0.28072438 0.17648847 0.33295968 -0.14788483 -0.065193176 0.17479184 -0.08227499 -0.16314039 -0.13510086 -0.12592463 -0.25352988 -0.16005895 -0.3026229 0.2004767 0.15061848 0.015394788 -0.012287577 0.06737905 -0.31569478 -0.14149068 -0.0754251 -0.09453736 -0.26303044 -0.047214378 -0.06673913 0.44294947 0.020482171 0.22393851 -0.30419824 0.05817631 -0.1725342 0.23252173 -0.22564502 -0.4205965 0.028865194 -0.27113208 -0.18988894 -0.43153313 0.25924233 0.13599199 0.08222762 0.119354144 0.16661239 -0.21771984 0.023513583 0.18605238 -0.029303355 -0.20140424 0.010307617 0.007500454 0.37005293 0.041515157 0.21852289 -0.12698653 0.1282866 -0.0653226 0.12253104 -0.10327606 -0.3422557 -0.25709397 -0.2834543 -0.054763574 -0.3587848 0.38392198 -0.03534748 0.20185736 -0.16028124 -0.10859705 -0.010611247 -0.2231581 0.0032305333 0.10888943 -0.008739482 -0.1357643 0.023057563 -0.33422482 -0.10724487 -0.048106838 0.04883389 0.20264825 -0.22654891 0.32322466 0.41631988 -0.44358218 -0.10421921 -0.20831886 -0.0098177735 -0.15128767 0.38508222 -0.06769531 0.13934618 -0.07117653
magnetic 0.08182312 -0.015518163 0.05028702 0.022500424 0.08475507 0.23272444 0.41578194 -0.25943038 0.08178721 0.5523218 0.41368145 -0.00644233 -0.15410553 0.10530898 0.46571404 -0.18032886 -0.2720929 0.24899022 0.0050222827 -0.30147296 -0.18415101 0.007690107 0.15152532 -0.05493271 -0.31927052 0.17554392 -0.22875245 0.13760497 -0.07556152 0.08989404 -0.008339538 0.26299617 0.0029732978 0.15948257 0.25287688 0.20961517 -0.028655976 -0.15377158 -0.097243235 0.17931727 -0.074594915 -0.6251906 0.40030688 -0.22122616 -0.34479943 -0.17716599 0.1812184 0.22478609 -0.21300584 -0.36989287 0.35381785 0.032203447 0.01676748 -0.13093397 0.30020452 0.15756938 0.2879685 0.03653698 0.06806611 0.20191564 0.12556952 0.026735768 -0.19453959 0.011111301 0.16140658 -0.18067142 -0.31389418 0.1786558 0.0004276128 -0.14875992 -0.16079347 0.24693711 0.30364925 -0.08217755 -0.31063756 -0.050860327 0.27945682 0.07726201 -0.033930633 -0.008514607 -0.20448293 -0.31852603 0.07444693 0.052616473 -0.26685447 -0.1667809 0.19147438 -0.07227345 -0.20632546 -0.24563292 0.26602885 -0.31861693 -0.07893416 -0.12556171 0.26885664 -0.076376304 0.3887005 0.194495 -0.14224388 -0.20917298
have -0.23654237 0.041461024 -0.0667729 0.08707657 -0.11014618 0.16540529 -0.11393972 -0.05522367 0.19050808 0.003014108 0.029026553 -0.1543013 -0.23993653 0.091138214 -0.0134732565 -0.009656716 0.13145211 0.018991236 -0.37776864 -0.0030236384 -0.21092895 0.09289389 0.14938559 -0.007131227 0.013784144 0.025700672 -0.09435244 -0.0860085 -0.27040854 -0.016117524 -0.3207399 0.118511185 0.055697177 0.11694237 -0.078913145 0.27706298 -0.37768325 -0.08668405 0.16609386 0.068263575 -0.1443853 0.008143865 0.014768389 -0.47753707 -0.07549438 -0.24144039 0.013947262 0.29653323 -0.023999134 0.058817565 -0.073056884 -0.2767532 -0.1358419 0.13060953 -0.088194124 -0.28800604 -0.0799849 0.029084181 0.15593265 -0.0035574175 0.16397282 -0.23898675 -0.12385622 0.30229792 -0.004657221 0.13248478 0.13415267 0.035014763 -0.4758465 0.009109718 -0.34339347 0.19660941 0.1869154 -0.124290004 -0.040060066 0.07860116 -0.036179684 0.11195893 -0.107016824 0.053492047 0.10445539 0.07525397 -0.06160097 -0.14100628 -0.026153984 0.21347772 -0.2623426 0.14322563 0.30276024 0.056449767 0.30979568 -0.22324859 -0.20215048 -0.12386481 -0.04193876 -0.14150086 0.04326523 0.14261171 0.005992015 -0.02999161
between -0.25161332 0.045334388 0.021476125 -0.00979255 -0.044185307 -0.096788175 -0.06622399 -0.07301656 -0.051210497 -0.04052005 0.27294013 -0.032127738 -0.0698513 -0.021625644 0.15121524 0.15658921 0.012708761 -0.0013720079 -0.08269456 0.028507303 -0.4003623 0.1061112 0.07987275 0.12096781 0.059845693 -0.20931436 -0.0046037477 -0.016971625 -0.091572195 -0.076474555 -0.058336474 -0.047908794 -0.058775116 -0.05103246 0.038977023 0.07626671 0.047943413 -0.051639087 0.017123656 0.0062766206 -0.052470632 -0.004167595 -0.04155458 -0.19496323 -0.070637524 -0.5670389 0.03189092 0.21347289 -0.01145544 0.047340106 0.008427935 0.024569767 0.018478958 -0.037597623 0.037379447 0.1039929 -0.0020828738 -0.19695924 -0.1970922 0.07918265 0.46159154 -0.11848203 0.04911419 -0.07369683 0.07390003 -0.3812155 -0.043232977 0.19549833 -0.18222405 0.048024476 -0.28666332 -0.010593746 0.17695116 0.051279068 0.14141218 -0.20807427 -0.005142433 -0.05770819 0.031603057 -0.08429112 0.10832043 -0.020354701 0.14333479 0.01303849 0.20364673 0.07691858 -0.056087468 0.09559545 -0.10922026 -0.048986543 0.07149999 -0.08503201 0.07812228 0.004820688 0.0660769 0.26358372 -0.027333241 -0.063273445 -0.043454323 0.021624167
show -0.2797353 -0.080975175 0.22252885 -0.18228061 -0.10662432 0.11510561 0.004305945 0.09933717 -0.1706441 -0.0752431 0.13530876 -0.10858695 -0.15001495 0.08969616 0.11997296 -0.08676567 0.06750595 -0.10841681 0.09382186 -0.031410795 -0.18825394 -0.13162437 0.2724904 -0.35403332 -0.055067822 -0.1002053 0.12648287 0.13812436 -0.10738367 -0.07855087 0.16974615 0.04444993 0.051572002 -0.19344573 -0.03860249 -0.010116006 0.07365639 -0.08052821 0.05912994 0.09296792 -0.18023343 0.2336197 0.029032832 0.06414733 -0.043023683 -0.23847258 -0.054964874 0.37835148 -0.30362192 -0.164614 0.09219222 0.23537382 -0.07022884 0.0133021 0.06595784 0.043506 0.19441994 -0.049912475 -0.21693432 -0.04292314 0.18641037 -0.08433984 -0.3129706 0.41149408 0.017065085 -0.16459839 0.15935326 0.24866164 -0.016259369 -0.051093835 0.04365348 -0.120881855 0.16560894 -0.11519718 0.0030701738 0.22746113 0.22348799 0.06814414 -0.16057302 0.040206432 0.17897636 -0.018931767 -0.12030055 0.08775954 0.06818087 -0.04533807 0.103251405 -0.0934435 0.2964792 -0.03608125 0.14786918 -0.12384721 -0.028116785 0.11717465 0.02749032 0.13940457 0.099134155 -0.20095746 0.2052995 0.1124238
which -0.13898824 0.06078119 -0.0048813247 -0.21227725 0.03135239 -0.03729417 0.16928537 0.089472376 0.18727444 0.20265312 0.2055856 0.014564885 -0.025547942 0.055780075 0.009542661 0.0314093 -0.1568121 0.045552257 -0.14568727 -0.00485065 -0.26230967 -0.047143348 -0.101065256 -0.008230735 -0.0212117 -0.15892288 0.15821657 0.11279681 0.10444855 -0.032685574 -0.059738874 0.2029387 0.067540646 0.32568827 0.19787842 0.009268683 0.074764214 -0.054019947 0.053947177 -0.14571945 -0.09636127 0.2116974 0.16310242 0.04595724 -0.14910787 -0.34936988 -0.07716083 0.087188154 0.042603675 -0.05051319 -0.0983398 0.31961182 -0.008313324 0.3707518 -0.060410094 -0.080226764 0.23698573 0.13491464 0.31082815 0.16757636 0.3403005 -0.58855045 0.117957324 -0.2631548 0.006153728 -0.22762267 0.45373887 0.17923903 0.30857447 -0.18059304 -0.12645921 -0.16343842 0.032752063 0.18371378 -0.12022558 -0.18080601 0.3936726 0.016223285 0.5570879 -0.012561698 0.042253897 -0.17094702 -0.00553567 0.19833447 -0.032746285 0.053754665 -0.32933208 0.16608411 -0.15765265 -0.19910951 0.14020208 -0.048150044 0.026401784 0.02891685 0.04544578 0.14724444 0.09170894 0.007551414 0.117276214 -0.07932472
its -0.3201289 -0.15278867 0.050876323 -0.030572327 -0.3002646 -0.031600993 0.38638726 -0.11307498 -0.08476581 0.07033948 0.19478363 0.02479624 -0.1072568 -0.010653529 0.2016107 0.05458171 -0.22505046 -0.057953034 0.14520374 0.018165337 -0.25005564 -0.15590465 0.18973029 -0.11474791 -0.20040272 -0.06808431 0.07889056 0.08632844 -0.048966095 -0.136798 0.004067831 0.48400053 -0.14657694 -0.017164502 0.17814875 0.093912385 -0.019800529 0.08093799 0.0390944 0.0063553117 0.00019416062 -0.041188173 0.07691933 0.058449693 -0.16311081 -0.27788273 -0.25481552 0.23438078 -0.1722008 -0.27698553 -0.01708336 0.4329524 -0.058164675 0.18053202 0.12946633 0.11297871 0.39096856 -0.1842233 0.13436472 0.19525766 0.45835438 -0.52586067 -0.089680105 -0.0066960067 0.26905206 -0.26587898 0.1775588 0.10004071 -0.031098705 -0.22017755 0.06970492 -0.21643695 0.22484085 -0.24203822 0.0054790545 0.05428246 0.6735486 0.06520898 -0.06119911 0.12420096 0.16975808 -0.039695647 -0.039714817 0.04793418 0.265721 0.25554344 -0.51483226 0.1602738 -0.046124153 -0.046075016 0.059428763 0.029477252 -0.07565866 -0.08481197 0.11279007 0.21483058 0.12296447 -0.058503903 0.076315165 0.166962
data 0.080477685 0.20484588 0.14061873 -0.18150084 0.023969285 -0.010052348 -0.100233465 0.109618984 0.335186 -0.018777415 0.08191137 -0.0739734 -0.071468554 0.03681781 0.026263535 0.052791767 -0.04046915 -0.09882162 -0.043438304 0.07706179 -0.101470046 0.2516314 0.19360746 -0.33626285 -0.037392978 -0.18187283 0.03616683 0.07041428 0.08148655 -0.036072828 -0.08375033 -0.0674253 0.103432305 0.38866368 -0.028071068 -0.09293825 0.044022832 -0.049569476 -0.1069378 0.003791699 -0.20650004 0.049704667 -0.031047726 0.0681582 -0.0047915326 -0.25466853 0.22217137 0.18922587 -0.20969582 -0.11460989 -0.23367594 0.11984436 0.007518882 0.27170232 -0.05885208 -0.14276901 -0.08419524 0.039835986 0.37880367 0.077872425 0.18856435 -0.42426515 -0.3117883 -0.02740287 0.065710165 -0.3765961 0.30976674 0.12071267 0.19051896 -0.18502331 -0.26322788 0.039163116 0.05497379 -0.18456559 -0.14175048 -0.35924822 -0.010736458 0.109273665 0.3646948 -0.12616555 -0.1140367 -0.035098933 -0.08492181 0.04825036 -0.05853917 -0.12061287 -0.19305667 -0.20319696 -0.13543789 -0.02060359 0.07539141 -0.07922736 -0.030073259 0.11314858 -0.053485513 -0.037141006 -0.094887346 -0.12548353 0.13362846 0.0043211915
these -0.31737787 -0.025090903 0.10709453 0.042788483 0.06325468 0.034676712 0.10640552 -0.26231152 0.06641349 -0.23557717 0.41842315 -0.052455008 -0.03130048 0.14008969 0.017030392 -0.21972859 0.05039441 -0.010244607 0.1275824 -0.03665464 -0.15891786 0.0062528662 0.25989813 0.005994824 0.15121838 -0.55769455 -0.025375588 0.13485086 -0.16244584 -0.030268542 -0.13742013 0.029607529 0.03408522 -0.07959841 -0.042022757 0.48412475 -0.004524214 0.037918814 0.09823588 -0.02169221 -0.023663184 0.24216262 -0.15174928 0.19499965 -0.09148165 -0.08390393 -0.047150332 0.17473273 -0.064525515 0.06885092 -0.36533353 0.034889195 0.017693698 0.17208247 -0.117178306 -0.1633761 0.037126698 0.001844966 -0.110452764 -0.07356873 0.43100816 -0.014608934 -0.010520628 0.07448229 -0.095974475 0.12243047 0.068335235 -0.10044883 0.15976828 -0.034039233 -0.3346313 -0.08454658 0.100624874 -0.16801107 -0.047195982 0.052845698 0.10946276 -0.15283675 -0.0052084425 -0.22295234 -0.15148774 -0.13795435 0.34764814 -0.24813165 0.15878518 -0.14845589 0.071833454 0.020258067 -0.019000027 -0.08879429 0.26192805 0.13867897 -0.15869112 0.22676335 -0.0891346 0.16836847 -0.05991185 -0.20623487 -0.09042503 -0.16286424
can 0.028361173 -0.1177893 0.22679943 -0.17492722 -0.013159104 -0.082797736 0.17636722 -0.05044805 -0.09816288 0.019772725 0.26649776 -0.19160545 -0.26832607 0.25200993 0.105092235 0.046110567 -0.04110595 0.1305789 -0.30895013 -0.08340489 -0.03118421 -0.0011085222 0.071206376 0.024069278 -0.003906427 -0.2823063 0.05149768 0.40325007 -0.27239046 -0.2194963 -0.17334917 0.12006162 0.06651563 -0.017059332 -0.07393072 -0.012093993 -0.1527257 -0.30564827 0.46886653 0.11603725 -0.20544839 0.09173737 -0.06215157 -0.28162742 -0.035802025 -0.15077813 -0.11470898 0.12918603 0.038765065 -0.070661046 -0.04115674 -0.15970904 0.26679164 -0.33503288 -0.12610008 -0.24335219 0.1428763 0.088144735 -0.007223265 -0.075573824 0.08566441 -0.0008247438 -0.31313068 0.40482286 0.075674996 0.083494 -0.04176274 -0.12113489 0.04787968 0.13733912 -0.15497251 0.02902824 0.28402594 -0.11373225 -0.16467433 -0.1695807 0.27985486 -0.0885198 -0.029922387 -0.07108954 -0.19074892 -0.04918914 0.14722247 0.27307025 -0.08424916 -0.24780576 0.105256476 0.082819186 -0.014750819 -0.042863548 0.03393654 -0.013495698 -0.23810975 0.04364602 0.10665113 -0.034533463 -0.01916788 -0.013717282 -0.04212842 -0.113027394
